tree
version=v4
num_class=1
num_tree_per_iteration=1
label_index=0
max_feature_idx=153
objective=regression
feature_names=numero_de_cliente foto_mes active_quarter cliente_vip internet cliente_edad cliente_antiguedad mrentabilidad mrentabilidad_annual mcomisiones mactivos_margen mpasivos_margen cproductos tcuentas ccuenta_corriente mcuenta_corriente_adicional mcuenta_corriente ccaja_ahorro mcaja_ahorro mcaja_ahorro_adicional mcaja_ahorro_dolares cdescubierto_preacordado mcuentas_saldo ctarjeta_debito ctarjeta_debito_transacciones mautoservicio ctarjeta_visa ctarjeta_visa_transacciones mtarjeta_visa_consumo ctarjeta_master ctarjeta_master_transacciones mtarjeta_master_consumo cprestamos_personales mprestamos_personales cprestamos_prendarios mprestamos_prendarios cprestamos_hipotecarios mprestamos_hipotecarios cplazo_fijo mplazo_fijo_dolares mplazo_fijo_pesos cinversion1 minversion1_pesos minversion1_dolares cinversion2 minversion2 cseguro_vida cseguro_auto cseguro_vivienda cseguro_accidentes_personales ccaja_seguridad cpayroll_trx mpayroll mpayroll2 cpayroll2_trx ccuenta_debitos_automaticos mcuenta_debitos_automaticos ctarjeta_visa_debitos_automaticos mttarjeta_visa_debitos_automaticos ctarjeta_master_debitos_automaticos mttarjeta_master_debitos_automaticos cpagodeservicios mpagodeservicios cpagomiscuentas mpagomiscuentas ccajeros_propios_descuentos mcajeros_propios_descuentos ctarjeta_visa_descuentos mtarjeta_visa_descuentos ctarjeta_master_descuentos mtarjeta_master_descuentos ccomisiones_mantenimiento mcomisiones_mantenimiento ccomisiones_otras mcomisiones_otras cforex cforex_buy mforex_buy cforex_sell mforex_sell ctransferencias_recibidas mtransferencias_recibidas ctransferencias_emitidas mtransferencias_emitidas cextraccion_autoservicio mextraccion_autoservicio ccheques_depositados mcheques_depositados ccheques_emitidos mcheques_emitidos ccheques_depositados_rechazados mcheques_depositados_rechazados ccheques_emitidos_rechazados mcheques_emitidos_rechazados tcallcenter ccallcenter_transacciones thomebanking chomebanking_transacciones ccajas_transacciones ccajas_consultas ccajas_depositos ccajas_extracciones ccajas_otras catm_trx matm catm_trx_other matm_other ctrx_quarter tmobile_app cmobile_app_trx Master_delinquency Master_status Master_mfinanciacion_limite Master_Fvencimiento Master_Finiciomora Master_msaldototal Master_msaldopesos Master_msaldodolares Master_mconsumospesos Master_mconsumosdolares Master_mlimitecompra Master_madelantopesos Master_madelantodolares Master_fultimo_cierre Master_mpagado Master_mpagospesos Master_mpagosdolares Master_fechaalta Master_mconsumototal Master_cconsumos Master_cadelantosefectivo Master_mpagominimo Visa_delinquency Visa_status Visa_mfinanciacion_limite Visa_Fvencimiento Visa_Finiciomora Visa_msaldototal Visa_msaldopesos Visa_msaldodolares Visa_mconsumospesos Visa_mconsumosdolares Visa_mlimitecompra Visa_madelantopesos Visa_madelantodolares Visa_fultimo_cierre Visa_mpagado Visa_mpagospesos Visa_mpagosdolares Visa_fechaalta Visa_mconsumototal Visa_cconsumos Visa_cadelantosefectivo Visa_mpagominimo
feature_infos=[249255311:1595553890] [202104:202105] [0:1] none [0:3] [18:102] [1:377] [-41829.959999999999:277092.78000000003] [-243166.54000000001:4260550.04] [-9338.4400000000005:104023.72] [-68206.270000000004:227416.87] [-24452.09:173453] [3:15] none none none [-1201256.1699999999:12666845.960000001] [2:7] [-15048.51:9731987.9000000004] none [-522.36000000000001:27025745.920000002] [0:1] [-2125849.0699999998:43451983.619999997] [0:11] [0:147] [0:593263.73999999999] [0:3] [0:302] [0:1206354.55] [0:2] [0:127] [0:1359862.95] [0:176] [0:2264690.7799999998] none none none none [0:29] [0:25327774.559999999] none [0:16] [0:18023960.550000001] none none none [0:2] none [0:3] [0:2] [0:3] [0:53] [0:7801094.9500000002] none none [0:39] [0:9637145.5] [0:39] [0:449267.34000000003] [0:18] [0:160580.26999999999] none none [0:103] [0:8267367] none none [0:10] [0:178072.66] [0:12] [0:41819.440000000002] [0:18] [-11376.15:5630.3000000000002] [0:274] [-9338.4400000000005:104023.72] [0:5] none none [0:5] [0:268.61000000000001] [0:440] [0:64126042.640000001] [0:109] [0:121229892.15000001] [0:180] [0:3519000] [0:24] [0:25355763.829999998] none none none none none none [0:1] [0:48] [0:1] [0:1321] [0:1] [0:70] none [0:13] [0:67] [0:180] [0:3519000] [0:34] [0:237431.29999999999] [0:1348] [0:1] [0:1] [0:1] [0:9] [0:291918891.32999998] [-2251:2344] none [-212946.51999999999:1952156.1200000001] [-215372.73000000001:1952156.1200000001] [-116219.39999999999:724406.67000000004] [-16706.709999999999:1322135.99] [0:7739.9200000000001] [4750.6499999999996:4936541.8700000001] [0:16422] [0:120.81] [2:187] [0:517801.65000000002] [-1315497.3799999999:69166.949999999997] [0:3755.9499999999998] [1:7663] [-16706.709999999999:1322135.99] [0:106] [0:8] [0:1469006.55] [0:1] [0:9] [0:8382806.96] [-2914148:1158] none [-784967.05000000005:3422184.21] [-920766.33999999997:4014222.0699999998] [-297342.37:486641.90000000002] [-24353.18:1188350.24] [0:5087.0799999999999] [1011.71:9314229.9600000009] [0:22287] [0:146.31999999999999] [2:89] [0:1070981.1499999999] [-1533678.8999999999:99058.360000000001] [0:7122.1000000000004] [1:12265] [-24353.18:1188350.24] [0:149] [0:9] [0:3659501.9399999999]
tree_sizes=2823 2820 3070 2928 3054 2953 3140 3045 3274 2943 3047 2949 3077 2856 3065 3398 3177 3280 3049 2964 3175 2866 3074 3073 3068 3193 2963 3286 3077 3167 3195 3071 3080 3094 3194 2843 3101 3218 3103 3106 2881 3095 2997 3198 3213 3075 3209 3205 2980 3080 3215 3192 3109 3100 3121 3216 2887 3006 3200 2991 2976 3206 2907 3441 3101 3095 3104 3208 3111 3100 2882 3111 3231 2999 3005 3125 3217 3116 3203 3219 3093 3021 2896 3009 3101 3319 3012 3108 3109 2993 2995 3109 3097 2996 3215 3230 3214 2991 3447 2993

Tree=0
num_leaves=26
num_cat=0
split_feature=107 51 18 1 11 22 8 73 137 28 28 141 8 10 22 107 6 138 6 118 12 1 9 83 0
split_gain=213.914 28.4993 22.6262 20.0391 19.827 10.8778 4.88644 4.04218 3.947 3.67364 2.3195 1.6037 1.31336 1.5582 0.509188 0.256701 0.185874 0.0684537 0.036651 0.0404608 0.0428343 0.0676993 0.0201554 0.00526773 3.55271e-15
threshold=27.500000000000004 1.0000000180025095e-35 2721.2350000000006 202104.50000000003 276.96000000000009 -3433.4449999999993 15209.570000000002 4.5000000000000009 7685.5300000000007 9329.8050000000021 6822.4900000000007 584.36000000000013 16713.645000000004 -3293.9649999999997 112414.43500000001 65.500000000000014 150.50000000000003 6633.4150000000009 44.500000000000007 41019.910000000011 7.5000000000000009 202104.50000000003 1099.8900000000001 58548.530000000006 891321155.50000012
decision_type=2 2 2 2 2 2 2 2 8 2 2 8 2 2 2 2 2 10 2 8 2 2 2 2 2
left_child=2 4 3 5 6 -1 9 -6 -5 -2 -9 15 13 -12 16 -3 -14 -17 -19 23 21 -21 -22 24 -20
right_child=1 11 -4 8 7 -7 -8 10 -10 -11 12 -13 14 -15 -16 17 -18 18 19 20 22 -23 -24 -25 -26
leaf_value=0.12872798296579421 0.1132297982873096 0.097322684676979992 0.10706481827634678 0.11630655867459183 0.10431573673449751 0.11776035885218643 0.10345504689170043 0.10284144677757778 0.10974685453109551 0.10638146973777809 0.097231675915317145 0.099110826646248026 0.099131003678609053 0.10143039002816175 0.096270616068173484 0.09668797131271066 0.097524892677433694 0.096427281260996617 0.095718204189534389 0.095935841752719839 0.09571820418972396 0.096923163958836045 0.096179352288142506 0.095942886230583682 0.095718204189266853
leaf_weight=865.01135540008545 659.00527715682983 822.00050067901611 988.00504684448242 868.00890207290649 744.0025634765625 721.00706958770752 912.00356483459473 611.00213289260864 738.00666904449463 705.00330448150635 610.00058078765869 933.00126171112061 599.00086116790771 1039.0027737617493 955.00029039382935 748.0002703666687 657.00058078765869 837.00026035308838 1413.0000200271606 606.00006008148193 973 602.00024032592773 715.00011014938354 587.00008010864258 586.00002002716064
leaf_count=865 659 822 988 868 744 721 912 611 738 705 610 933 599 1039 955 748 657 837 1413 606 973 602 715 587 586
internal_value=0.102476 0.0990653 0.115785 0.118484 0.102056 0.123742 0.107192 0.0998152 0.113292 0.10969 0.0990663 0.0965255 0.0984687 0.0998772 0.0974183 0.0962197 0.0982909 0.0960915 0.0960208 0.0959588 0.0961281 0.0964279 0.0959135 0.0957692 0.0957182
internal_weight=0 16313 4180.04 3192.03 7491.02 1586.02 2276.01 5215.01 1606.02 1364.01 4471.01 8822 3860.01 1649 2211 7889 1256 7067 6319 5482 2896 1208 1688 2586 1999
internal_count=20493 16313 4180 3192 7491 1586 2276 5215 1606 1364 4471 8822 3860 1649 2211 7889 1256 7067 6319 5482 2896 1208 1688 2586 1999
is_linear=0
shrinkage=1


Tree=1
num_leaves=25
num_cat=0
split_feature=107 51 18 1 11 22 153 137 8 153 11 125 141 22 107 9 138 135 83 118 127 112 118 1
split_gain=186.632 24.8646 19.7405 17.4833 17.3136 9.49051 4.9489 3.44361 3.43878 3.19045 1.92513 1.58304 1.39917 0.579231 0.223962 0.136956 0.0597233 0.0376675 0.062624 0.047648 0.0147664 0.00566337 6.73501e-05 3.93614e-05
threshold=27.500000000000004 1.0000000180025095e-35 2721.2350000000006 202104.50000000003 327.35500000000008 -3433.4449999999993 1800.5550000000003 7685.5300000000007 14763.925000000001 346.03500000000003 998.35500000000013 -1008.1849999999998 584.36000000000013 66759.160000000018 65.500000000000014 2590.6300000000006 6633.4150000000009 -743.99999999999989 86546.87000000001 41019.910000000011 830.50000000000011 114015.60000000002 41019.910000000011 202104.50000000003
decision_type=2 2 2 2 2 2 10 8 2 10 2 8 8 2 2 2 10 10 2 8 8 8 8 2
left_child=2 4 3 5 6 -1 8 -5 -2 -6 11 -11 14 -12 -3 -15 -16 18 20 -19 -18 -22 -23 -24
right_child=1 12 -4 7 9 -7 -8 -9 -10 10 13 -13 -14 15 16 -17 17 19 -20 -21 21 22 23 -25
leaf_value=0.024521086758465493 0.009157011973704202 -0.0048132566105124966 0.0042864524769388535 0.01291876689108978 0.0010807722635203269 0.014276698177065778 0.00050654696729890468 0.0067916279625958404 0.0028338664544563818 -0.0043773067011510687 -0.0032262383566867047 -0.00032500555140896684 -0.0031430296253126492 -0.0049291691506589443 -0.0054061149627098286 -0.0062045751028107126 -0.0059901861773605895 -0.0061108823352521106 -0.0054919410879822241 -0.0053055837848531963 -0.0061444586228067387 -0.0063150159925602764 -0.0063266699130669337 -0.0063499715623388138
leaf_weight=865.01135540008545 858.00645875930786 822.00050067901611 988.00504684448242 868.00890207290649 818.00293397903442 721.00706958770752 1045.003634929657 738.00666904449463 663.00315427780151 663.00070095062256 777.00110149383545 1140.0031042098999 933.00126171112061 918.00064086914062 748.0002703666687 609.00020027160645 1115.0002002716064 641.00004005432129 624.00021028518677 637.00023031234741 1087.0000801086426 954.00003004074097 635 626
leaf_count=865 858 822 988 868 818 721 1045 738 663 663 777 1140 933 918 748 609 1115 641 624 637 1087 954 635 626
internal_value=0 -0.00318552 0.0124318 0.014953 -0.000391664 0.019864 0.00400036 0.0101032 0.00640077 -0.00267998 -0.00342902 -0.00181512 -0.00555787 -0.00469199 -0.00584347 -0.00543783 -0.00596329 -0.00602925 -0.00611032 -0.00570949 -0.00619767 -0.00626774 -0.00632824 -0.00633824
internal_weight=0 16313 4180.04 3192.03 7491.02 1586.02 2566.01 1606.02 1521.01 4925.01 4107.01 1803 8822 2304 7889 1527 7067 6319 5041 1278 4417 3302 2215 1261
internal_count=20493 16313 4180 3192 7491 1586 2566 1606 1521 4925 4107 1803 8822 2304 7889 1527 7067 6319 5041 1278 4417 3302 2215 1261
is_linear=0
shrinkage=0.0659429


Tree=2
num_leaves=27
num_cat=0
split_feature=107 51 18 11 1 22 8 73 137 28 28 149 8 10 22 138 125 107 149 83 135 112 115 83 125 127
split_gain=162.83 21.6935 17.3204 15.2287 12.8602 10.4375 3.93457 3.3698 3.22629 2.96536 1.82871 1.25521 1.07253 1.28315 0.376666 0.256144 0.228332 0.090692 0.0446753 0.0525519 0.0570711 0.0384323 0.0426038 0.00505733 0.00181313 0.000141475
threshold=27.500000000000004 1.0000000180025095e-35 4331.4500000000016 276.96000000000009 202104.50000000003 -3433.4449999999993 15209.570000000002 4.5000000000000009 13959.235000000002 12444.150000000001 6822.4900000000007 7401.5000000000009 16713.645000000004 -3293.9649999999997 112414.43500000001 2617.2950000000005 -708.05999999999983 62.500000000000007 4431.5000000000009 86546.87000000001 -805.49999999999989 114015.60000000002 934.20000000000016 32799.420000000006 -13365.499999999998 830.50000000000011
decision_type=2 2 2 2 2 2 2 2 8 2 2 8 2 2 2 10 8 2 10 2 10 8 10 2 10 10
left_child=2 3 4 6 5 -1 9 -5 -6 -2 -9 15 13 -12 16 -3 -14 -17 19 20 21 22 -19 25 -20 -23
right_child=1 11 -4 7 8 -7 -8 10 -10 -11 12 -13 14 -15 -16 17 -18 18 24 -21 -22 23 -24 -25 -26 -27
leaf_value=0.022784509653845181 0.0090410986212979237 -0.0044361038223901155 0.0030777423571075415 0.001779158201228169 0.01210645201480001 0.012373376585813342 0.00078169604945181582 0.00033819987377957139 0.0062430512252817164 0.0028286091619831983 -0.0046723438072542806 -0.002258572660092828 -0.004646591967762537 -0.00086217333234678392 -0.0054807824454981913 -0.0047590998138077245 -0.002868142032065256 -0.0050982537899997077 -0.0059464799022280607 -0.0049543264058721764 -0.0050182800736180942 -0.0059561016307031539 -0.0058266230585193078 -0.0057061035706700474 -0.0058040714831850311 -0.0059159937157389391
leaf_weight=875.01144552230835 779.00597810745239 1042.0007109642029 829.00392532348633 744.0025634765625 967.00970315933228 803.00758028030396 912.00356483459473 611.00213289260864 706.00638866424561 585.00260353088379 610.00058078765869 592.00091123580933 618.00047063827515 1039.0027737617493 955.00029039382935 590.00032043457031 638.00097131729126 770.00021028518677 1159.0000100135803 643.00025033950806 635.00021028518677 651.00004005432129 639.00006008148193 589.00006008148193 585.00003004074097 927.00001001358032
leaf_count=875 779 1042 829 744 967 803 912 611 706 585 610 592 618 1039 955 590 638 770 1159 643 635 651 639 589 585 927
internal_value=0 -0.00297546 0.011612 -0.000365837 0.0137233 0.0178023 0.00413474 -0.00233005 0.00963212 0.00637666 -0.00301384 -0.00519137 -0.00354444 -0.00227163 -0.00449372 -0.00540233 -0.00374321 -0.0055424 -0.00561244 -0.00550959 -0.00559438 -0.00569668 -0.00542858 -0.00587099 -0.00589871 -0.00593254
internal_weight=0 16313 4180.04 7491.02 3351.04 1678.02 2276.01 5215.01 1673.02 1364.01 4471.01 8822 3860.01 1649 2211 8230 1256 7188 6598 4854 4211 3576 1409 2167 1744 1578
internal_count=20493 16313 4180 7491 3351 1678 2276 5215 1673 1364 4471 8822 3860 1649 2211 8230 1256 7188 6598 4854 4211 3576 1409 2167 1744 1578
is_linear=0
shrinkage=0.0659429


Tree=3
num_leaves=26
num_cat=0
split_feature=107 51 18 1 28 22 107 8 8 18 137 141 153 149 115 8 107 25 138 9 6 104 106 8 118
split_gain=142.063 18.9267 15.1735 13.4476 10.4618 7.13459 5.81032 5.85611 3.68408 2.71629 2.63995 1.1159 1.01177 0.657343 0.579671 0.675255 0.178191 0.0543151 0.113535 0.0838222 0.0345801 0.0222471 0.00501274 0.00464861 0.000170921
threshold=27.500000000000004 1.0000000180025095e-35 2721.2350000000006 202104.50000000003 6246.2350000000015 -3433.4449999999993 78.500000000000014 17168.700000000001 20010.305000000004 4518.4150000000018 7685.5300000000007 584.36000000000013 1225.7850000000003 4821.5000000000009 6105.6200000000008 16713.645000000004 65.500000000000014 21844.825000000004 9865.2250000000022 1568.2800000000004 71.500000000000014 22990.800000000003 6862.0500000000002 -193.035 39040.895000000011
decision_type=2 2 2 2 2 2 2 2 2 2 8 8 10 10 10 2 2 2 10 2 2 2 2 2 8
left_child=2 4 3 5 8 -1 7 9 -2 -6 -5 16 -8 14 15 -14 -3 18 -18 21 -19 23 24 -20 -22
right_child=1 11 -4 10 6 -7 12 -9 -10 -11 -12 -13 13 -15 -16 -17 17 20 19 -21 22 -23 -24 -25 -26
leaf_value=0.021401620474681769 0.0067644304650945862 -0.0041851602418650925 0.0037050437556564232 0.011268532039414967 0.0068676007290483457 0.012519315995123209 -0.00082667328822526016 -0.0033521232780876708 0.00084782715835557897 0.00070925596101352895 0.0059037932066320596 -0.00269244711127645 -0.00069836575717968185 -0.005204791426780743 -0.0044967343418695601 -0.0038173611194766508 -0.0042020370799894626 -0.0050331173032946161 -0.0053421844099168624 -0.0045011034427130774 -0.0055569242151029905 -0.0050748606423974786 -0.005361007923088865 -0.005569980027879653 -0.0055970064087875679
leaf_weight=865.01135540008545 973.00676918029785 822.00050067901611 988.00504684448242 868.00890207290649 643.00384521484375 721.00706958770752 585.00133180618286 797.00123167037964 864.00338459014893 604.00201272964478 738.00666904449463 933.00126171112061 618.00159215927124 1001.0005106925964 816.00066089630127 590.00059080123901 593.00030040740967 816.00022029876709 585.00005006790161 609.00025033950806 800 804.00016021728516 597.00006008148193 1166.0000100135803 1097.0000100135803
leaf_count=865 973 822 988 868 643 721 585 797 864 604 738 933 618 1001 816 590 593 816 585 609 800 804 597 1166 1097
internal_value=0 -0.00277925 0.0108463 0.0130567 -0.000341713 0.0173637 -0.0017464 0.00106293 0.00398167 0.00388473 0.00880329 -0.00484904 -0.00333705 -0.00382253 -0.00313892 -0.00222171 -0.00510409 -0.00521097 -0.00503938 -0.00519631 -0.00540574 -0.00536202 -0.00552766 -0.00549387 -0.0055801
internal_weight=0 16313 4180.04 3192.03 7491.02 1586.02 5654.01 2044.01 1837.01 1247.01 1606.02 8822 3610 3025 2024 1208 7889 7067 3757 3164 3310 2555 2494 1751 1897
internal_count=20493 16313 4180 3192 7491 1586 5654 2044 1837 1247 1606 8822 3610 3025 2024 1208 7889 7067 3757 3164 3310 2555 2494 1751 1897
is_linear=0
shrinkage=0.0659429


Tree=4
num_leaves=27
num_cat=0
split_feature=107 52 18 11 1 22 147 28 137 8 8 107 153 9 22 118 5 81 12 10 6 112 107 134 16 137
split_gain=123.945 16.4428 13.3787 11.6094 9.71958 7.96161 3.86518 3.10942 2.50002 2.47503 2.1078 2.21834 0.954893 0.726109 0.487498 0.211947 0.112715 0.111244 0.0812372 0.0912908 0.0480576 0.0712955 0.034935 0.051873 0.00198747 0.00131189
threshold=27.500000000000004 16897.400000000005 4331.4500000000016 276.96000000000009 202104.50000000003 -3433.4449999999993 -15017.159999999998 2627.7400000000002 13959.235000000002 14378.545000000002 16524.475000000002 79.500000000000014 22984.935000000001 1484.7950000000003 71883.220000000016 98295.255000000019 58.500000000000007 74237.410000000018 6.5000000000000009 -532.8549999999999 142.50000000000003 228031.20000000004 95.500000000000014 114015.60000000002 -454.37499999999994 15666.405000000001
decision_type=2 2 2 2 2 2 8 2 8 2 2 2 8 2 2 8 2 2 2 2 2 10 2 10 2 10
left_child=2 3 4 6 5 -1 -2 -5 -6 -8 11 -9 16 -13 15 -12 18 -16 19 -3 21 22 -20 -24 -22 -26
right_child=1 12 -4 7 8 -7 9 10 -10 -11 14 13 -14 -15 17 -17 -18 -19 20 -21 24 -23 23 -25 25 -27
leaf_value=0.019884086314929106 -0.00013957369842524747 -0.0049912100326073754 0.0026304651601501889 0.0024126978524133709 0.010608004064400692 0.010791234933788387 0.0077344989253820386 0.0017659237885589516 0.0054465713050477803 0.0024072416276071434 -0.0037844167362056885 -0.0010897949621334248 -0.0020426412882266036 -0.0040731151417496593 -0.0040454722786741285 -0.0020839860764939465 -0.0040664141519767376 -0.005235792969338713 -0.005419241317043421 -0.0039218779952998216 -0.005134710452925486 -0.0044058984618321724 -0.0043906668410056398 -0.0051792437033854133 -0.005347901535827859 -0.0052244692431090648
leaf_weight=875.01144552230835 859.00293397903442 667.00008010864258 829.00392532348633 591.0026535987854 967.00970315933228 803.00758028030396 859.00627851486206 753.00280380249023 706.00638866424561 679.00314426422119 656.00055074691772 674.00137186050415 586.00086116790771 749.00092124938965 586.00047063827515 620.00106143951416 813.00039052963257 818.00017023086548 749.00001001358032 724.00038051605225 678.00002002716064 1111.0003805160522 598.00020027160645 922.00004005432129 587.00002002716064 1034.0000100135803
leaf_count=875 859 667 829 591 967 803 859 753 706 679 656 674 586 749 586 620 813 818 749 724 678 1111 598 922 587 1034
internal_value=0 -0.00259598 0.0101311 -0.000420601 0.0119866 0.0155327 0.00340366 -0.00210351 0.0084299 0.00538261 -0.00265315 -0.00112846 -0.00461082 -0.00266007 -0.00389111 -0.00295819 -0.00480173 -0.00473898 -0.00488629 -0.00443463 -0.00499692 -0.00483871 -0.00505064 -0.004869 -0.00522951 -0.00526917
internal_weight=0 16313 4180.04 7844.02 3351.04 1678.02 2397.01 5447.01 1673.02 1538.01 4856.01 2176.01 8469 1423 2680 1276 7883 1404 7070 1391 5679 3380 2269 1520 2299 1621
internal_count=20493 16313 4180 7844 3351 1678 2397 5447 1673 1538 4856 2176 8469 1423 2680 1276 7883 1404 7070 1391 5679 3380 2269 1520 2299 1621
is_linear=0
shrinkage=0.0659429


Tree=5
num_leaves=26
num_cat=0
split_feature=107 52 22 1 11 149 147 11 137 8 153 22 80 153 11 22 5 12 10 6 112 107 134 16 153
split_gain=108.137 14.3457 11.9356 11.2444 10.1371 6.72909 3.94637 3.93951 3.58973 2.72486 2.40328 1.45275 1.09684 0.833108 0.325341 0.131998 0.0983392 0.0708765 0.0796478 0.0419285 0.0622027 0.0304795 0.0452572 0.00173399 0.00119786
threshold=27.500000000000004 16897.400000000005 -95.179999999999993 202104.50000000003 327.35500000000008 3703.5000000000005 -15556.664999999999 189.47500000000005 7685.5300000000007 14378.545000000002 346.03500000000003 28678.010000000006 1.5000000000000002 22984.935000000001 969.03000000000009 144936.60000000003 58.500000000000007 6.5000000000000009 -532.8549999999999 142.50000000000003 228031.20000000004 95.500000000000014 114015.60000000002 -454.37499999999994 1694.9850000000001
decision_type=2 2 2 2 2 8 8 2 8 2 10 2 2 8 2 2 2 2 2 2 10 2 10 2 10
left_child=2 4 3 5 6 -1 -2 -4 -5 -8 -6 12 -12 16 -13 -16 17 18 -3 20 21 -19 -23 -21 -25
right_child=1 13 7 8 10 -7 9 -9 -10 -11 11 14 -14 -15 15 -17 -18 19 -20 23 -22 22 -24 24 -26
leaf_value=0.011896449361084376 -0.00038970635723476648 -0.0046620753399035254 0.0076375885469959839 0.011533751377641207 0.0010620224580106131 0.021645899795481344 0.0072052936521936591 0.0011111262681589643 0.0042839879479344561 0.0018805415960984936 0.00060577999037007303 -0.0025364962427671068 -0.0028112990072402758 -0.0019079435049756844 -0.0035012089650324155 -0.0046198206440498206 -0.0037982631443868524 -0.0050618810480884758 -0.0036632580667328185 -0.004796112945767937 -0.0041153608753875968 -0.0041011336367743631 -0.0048377095062076192 -0.0049960420284791921 -0.0048784773583099546
leaf_weight=602.00663900375366 1005.0033345222473 667.00008010864258 1138.0091023445129 591.00646877288818 865.00309419631958 630.00869178771973 936.00676918029785 622.00250339508057 597.00563764572144 755.00335454940796 770.002112865448 744.00112152099609 870.00137186050415 586.00086116790771 775.00073099136353 1124.0004706382751 813.00039052963257 749.00001001358032 724.00038051605225 678.00002002716064 1111.0003805160522 598.00020027160645 922.00004005432129 596.00002002716064 1025.0000100135803
leaf_count=602 1005 667 1138 591 865 630 936 622 597 755 770 744 870 586 775 1124 813 749 724 678 1111 598 922 596 1025
internal_value=0 -0.00242479 0.009463 0.012468 -0.000392865 0.016882 0.00288291 0.00533108 0.00789056 0.00482789 -0.00210839 -0.00274869 -0.00120694 -0.00430677 -0.00370536 -0.0041633 -0.00448509 -0.00456407 -0.0041422 -0.00466741 -0.00451963 -0.00471758 -0.00454793 -0.00488467 -0.0049217
internal_weight=0 16313 4180.04 2420.03 7844.02 1232.02 2696.01 1760.01 1188.01 1691.01 5148.01 4283.01 1640 8469 2643 1899 7883 7070 1391 5679 3380 2269 1520 2299 1621
internal_count=20493 16313 4180 2420 7844 1232 2696 1760 1188 1691 5148 4283 1640 8469 2643 1899 7883 7070 1391 5679 3380 2269 1520 2299 1621
is_linear=0
shrinkage=0.0659429


Tree=6
num_leaves=28
num_cat=0
split_feature=107 51 11 22 1 149 11 153 137 11 31 18 73 149 153 22 5 9 138 22 6 16 25 5 52 149 112
split_gain=94.4261 13.3072 9.96905 9.5453 10.1552 5.68376 3.34541 3.26261 2.65633 2.22382 2.12427 1.88855 1.60482 0.899148 0.577307 0.326759 0.178002 0.0731008 0.0719415 0.0948369 0.0449509 0.0339616 0.0229458 0.00425216 0.00113239 0.0007401 0.000177368
threshold=26.500000000000004 1.0000000180025095e-35 276.96000000000009 -95.179999999999993 202104.50000000003 3703.5000000000005 189.47500000000005 1343.0850000000003 8697.465000000002 998.35500000000013 696.18000000000018 1895.0500000000004 6.5000000000000009 7401.5000000000009 744.85500000000013 66759.160000000018 58.500000000000007 1978.6650000000002 9674.0100000000002 30653.155000000002 44.500000000000007 -3180.8349999999996 55399.700000000004 33.500000000000007 71330.835000000006 4299.5000000000009 190026.00000000003
decision_type=2 2 2 2 2 8 2 10 8 2 2 2 2 8 10 2 2 2 10 2 2 2 2 2 2 10 8
left_child=3 2 7 4 5 -1 -5 11 -6 10 12 -2 -4 16 -11 -16 18 -17 19 -3 -20 -22 23 -23 -25 26 -26
right_child=1 13 9 6 8 -7 -8 -9 -10 14 -12 -13 -14 -15 15 17 -18 -19 20 -21 21 22 -24 24 25 -27 -28
leaf_value=0.011297884429870442 0.0081626951617187419 -0.0033770055891741819 0.0033014998344956929 0.0073525946988465167 0.010449637845695468 0.020346793096313105 0.0011987960167462288 0.00064637607158189432 0.004165533432283001 -0.0012773603227738464 -0.0029630543018064758 0.0031212342302992121 -0.00088869452149126281 -0.0014846409610446102 -0.0024872779420391151 -0.0036861296933751878 -0.0031946521858559345 -0.0046390995315628717 -0.0039111848541398091 -0.0043211301846260187 -0.0040713002627779825 -0.0044399606324277037 -0.0041462376859932757 -0.0047091570442099025 -0.0046131561449581854 -0.004556428433347511 -0.004662866762967028
leaf_weight=590.00654888153076 633.00499677658081 853.0005407333374 745.00322437286377 1101.0088920593262 585.00634860992432 618.00856161117554 590.00243330001831 1054.0039854049683 585.00558757781982 598.00146198272705 884.00124168395996 660.00372505187988 852.00221300125122 592.00091123580933 756.00103139877319 665.0004506111145 776.0005407333374 739.00024032592773 821.0002703666687 1011.0002202987671 888.00020027160645 650.00007009506226 595.00008010864258 585 647 817.00001001358032 603.00001001358032
leaf_count=590 633 853 745 1101 585 618 590 1054 585 598 884 660 852 592 756 665 776 739 821 1011 888 650 595 585 647 817 603
internal_value=0 -0.00222801 -0.000201999 0.008993 0.0116863 0.0159272 0.0052055 0.00336953 0.00730759 -0.001802 -0.000369562 0.00558933 0.00106603 -0.00396701 -0.00309058 -0.00359257 -0.00414523 -0.00418773 -0.00424398 -0.00388908 -0.00436198 -0.00443933 -0.00452319 -0.00459111 -0.00462816 -0.00460524 -0.00463714
internal_weight=0 16424 7586.02 4069.04 2378.03 1208.02 1691.01 2347.01 1170.01 5239.01 2481.01 1293.01 1597.01 8838 2758 2160 8246 1404 7470 1864 5606 4785 3897 3302 2652 2067 1250
internal_count=20493 16424 7586 4069 2378 1208 1691 2347 1170 5239 2481 1293 1597 8838 2758 2160 8246 1404 7470 1864 5606 4785 3897 3302 2652 2067 1250
is_linear=0
shrinkage=0.0659429


Tree=7
num_leaves=27
num_cat=0
split_feature=107 18 52 138 10 1 107 8 107 10 18 18 27 137 84 81 138 20 135 22 149 126 20 127 5 149
split_gain=82.4899 13.2744 8.3713 6.49885 5.47877 6.34797 6.54703 3.53437 3.60078 2.83293 1.23445 0.909752 0.714604 0.63605 0.265952 0.24996 0.0998865 0.105563 0.0437625 0.0727473 0.0386745 0.0168394 0.0199844 0.00736775 0.000717976 0.000480628
threshold=33.500000000000007 6039.0950000000012 16897.400000000005 2268.4450000000002 -286.13499999999993 202104.50000000003 9.5000000000000018 7749.4300000000012 104.50000000000001 341.84000000000009 5182.1300000000001 9504.0650000000005 8.5000000000000018 116749.64000000001 1.5000000000000002 57782.370000000003 6633.4150000000009 31.455000000000002 -1566.9999999999998 1216.7900000000002 2209.5000000000005 321.92500000000007 428.34000000000009 411.50000000000006 44.500000000000007 1455.0000000000002
decision_type=2 2 2 10 2 2 2 2 2 2 2 2 2 8 2 2 10 2 10 2 10 8 2 10 2 10
left_child=1 4 3 -2 -1 6 -6 8 10 -7 -5 12 -9 16 15 -13 17 -4 23 -20 -21 24 -23 -18 -22 -25
right_child=2 -3 13 7 5 9 -8 11 -10 -11 -12 14 -14 -15 -16 -17 18 -19 19 20 21 22 -24 25 -26 -27
leaf_value=0.0034261904490740648 0.0041829950609328145 0.00064927102435235161 -0.0029826056019216099 0.0051936071584300324 0.017090108248919021 0.0094486343918026554 0.008772283202762559 0.00049130575078904664 -0.0024305925246676297 0.0037168082545799767 0.00099957712599310937 -0.0029559597186825078 -0.0025712477404830169 -0.0018159208833425707 -0.0023043512580724775 -0.0044465461143947532 -0.0040793056919480718 -0.0041137335102242904 -0.0032859688542945368 -0.0035889549132316848 -0.0042765308802541376 -0.0037005145738126131 -0.0042067405465298132 -0.0043964500432924032 -0.0043764444256175631 -0.0043219952648641249
leaf_weight=595.0041356086731 1021.0059280395508 978.00377511978149 888.00060081481934 591.00347471237183 876.01128530502319 1038.0104541778564 776.00739002227783 596.00203275680542 922.00150203704834 587.00529718399048 631.00219297409058 955.00133180618286 746.00117158889771 677.00089120864868 819.00095129013062 1003.0005006790161 601.00007009506226 602.00012016296387 674.00025033950806 667.00021028518677 626 587.00013017654419 803.00004005432129 603.00004005432129 625.00002002716064 1006
leaf_count=595 1021 978 888 591 876 1038 776 596 922 587 631 955 746 677 819 1003 601 602 674 667 626 587 803 603 625 1006
internal_value=0 0.00751367 -0.00232958 -0.000695414 0.00924749 0.0103045 0.013183 -0.0014907 0.000680579 0.00737812 0.00302795 -0.00262088 -0.00121113 -0.00375359 -0.00330216 -0.00371952 -0.00392435 -0.00343961 -0.00404099 -0.00391039 -0.00403762 -0.00415093 -0.00399296 -0.00427631 -0.00432645 -0.0043499
internal_weight=0 4850.04 15643 7284.02 3872.04 3277.03 1652.02 6263.01 2144.01 1625.02 1222.01 4119.01 1342 8359 2777 1958 7682 1490 6192 3982 3308 2641 1390 2210 1251 1609
internal_count=20493 4850 15643 7284 3872 3277 1652 6263 2144 1625 1222 4119 1342 8359 2777 1958 7682 1490 6192 3982 3308 2641 1390 2210 1251 1609
is_linear=0
shrinkage=0.0659429


Tree=8
num_leaves=29
num_cat=0
split_feature=107 51 11 22 1 149 153 11 137 73 18 31 8 55 135 1 5 138 138 83 84 52 22 104 115 149 52 125
split_gain=72.2734 10.2153 7.82201 7.69216 7.95817 4.8044 2.65155 2.4942 2.21199 1.87093 1.55827 1.05086 1.19629 1.30256 0.735722 0.451032 0.175946 0.0968147 0.0684413 0.0889288 0.0509894 0.0360436 0.0420234 0.0207128 0.0223274 0.0249293 0.00324012 0.000488536
threshold=26.500000000000004 1.0000000180025095e-35 276.96000000000009 -95.179999999999993 202104.50000000003 3703.5000000000005 1343.0850000000003 189.47500000000005 8697.465000000002 4.5000000000000009 1895.0500000000004 9383.2100000000009 16713.645000000004 1.0000000180025095e-35 -197.99999999999997 202104.50000000003 58.500000000000007 53675.830000000009 9674.0100000000002 22868.240000000002 3.5000000000000004 237544.40500000003 -5498.1599999999989 5337.1500000000005 934.20000000000016 2972.5000000000005 67411.055000000008 -23655.784999999996
decision_type=2 2 2 2 2 8 10 2 8 2 2 2 2 2 8 2 2 8 10 2 2 2 2 2 8 10 2 10
left_child=3 2 6 4 5 -1 10 -5 -6 -4 -2 12 13 -11 16 -14 18 -13 19 20 -3 22 -20 26 25 -25 -24 -28
right_child=1 14 9 7 8 -7 -8 -9 -10 11 -12 17 15 -15 -16 -17 -18 -19 21 -21 -22 -23 23 24 -26 -27 27 -29
leaf_value=0.0097835263208838966 0.0073282125271881124 -0.0032884886738720454 0.0014431734890206272 0.0063216008585336185 0.0092764701978999657 0.018103042049916321 0.00053459410508736459 0.0010080509346417461 0.0035419916147127624 0.0019955559973027924 0.002748762631597723 -0.0043457185699248531 -0.0015365426115974035 -0.0021083737994379201 -0.0012334583906157316 -0.0035547874382855886 -0.0027481675502218062 -0.0031659041618691238 -0.0033977203860815434 -0.002719339233715343 -0.0041444302353829884 -0.0033758627861989088 -0.0042592870352239614 -0.0033460484099733095 -0.0040757442604864805 -0.0039474370478916219 -0.0041069602969488203 -0.0040324308213926822
leaf_weight=590.00654888153076 633.00499677658081 617.00032043457031 756.00257349014282 1101.0088920593262 585.00634860992432 618.00856161117554 1054.0039854049683 590.00243330001831 585.00558757781982 698.00268363952637 660.00372505187988 613.0004506111145 965.00145196914673 649.00124168395996 595.00091123580933 961.00102138519287 871.00060081481934 597.00044059753418 606.0001802444458 587.00035047531128 594.00008010864258 612.00017023086548 585 595.00014019012451 960.00003004074097 604.00003004074097 988.00002002716064 624.00002002716064
leaf_count=590 633 617 756 1101 585 618 1054 590 585 698 660 613 965 649 595 961 871 597 606 587 594 612 585 595 960 604 988 624
internal_value=0 -0.00194921 -0.000174114 0.00786769 0.0102854 0.0140397 0.00298952 0.00446768 0.00640923 -0.00159139 0.00499068 -0.00210313 -0.00148926 1.82377e-05 -0.00347286 -0.00254357 -0.0036345 -0.00376361 -0.00373922 -0.00338545 -0.00370833 -0.00385334 -0.00391223 -0.00398381 -0.00383875 -0.003649 -0.00412635 -0.00407811
internal_weight=0 16424 7586.02 4069.04 2378.03 1208.02 2347.01 1691.01 1170.01 5239.01 1293.01 4483.01 3273.01 1347 8838 1926 8243 1210 7372 1798 1211 5574 4962 4356 2159 1199 2197 1612
internal_count=20493 16424 7586 4069 2378 1208 2347 1691 1170 5239 1293 4483 3273 1347 8838 1926 8243 1210 7372 1798 1211 5574 4962 4356 2159 1199 2197 1612
is_linear=0
shrinkage=0.0659429


Tree=9
num_leaves=26
num_cat=0
split_feature=107 18 10 107 1 22 51 28 16 9 18 18 33 22 9 22 138 20 9 151 27 151 55 135 5
split_gain=63.0558 8.96736 6.86562 6.38631 6.17176 6.16338 2.63947 2.58915 2.18713 1.53469 1.46521 0.900505 0.877566 0.522071 0.590222 0.241191 0.13425 0.0731695 0.123255 0.0679935 0.103854 0.0342461 0.0106785 0.00330383 0.00102514
threshold=26.500000000000004 5182.1300000000001 -261.08499999999998 79.500000000000014 202104.50000000003 -3617.4099999999994 1.0000000180025095e-35 7993.8250000000007 -529.46999999999991 1610.1550000000002 95.085000000000022 30846.675000000003 8828.7450000000008 149063.80000000002 1839.7350000000001 23998.285000000003 2617.2950000000005 1030.575 1657.5100000000002 1.5000000000000002 7.5000000000000009 9.5000000000000018 1.5000000000000002 -1490.4999999999998 45.500000000000007
decision_type=2 2 2 2 2 2 2 2 2 2 2 2 2 2 2 2 8 2 2 10 2 10 2 8 2
left_child=2 3 -1 8 5 -4 7 11 10 -6 -2 -3 -5 14 -9 -16 -8 18 19 -18 -21 -22 23 -19 -25
right_child=1 6 4 12 9 -7 16 13 -10 -11 -12 -13 -14 -15 15 -17 17 22 -20 20 21 -23 -24 24 -26
leaf_value=0.0010615410080618011 0.0040878647938387873 0.0029760843098474779 0.015741582864373889 -0.00082031506680002825 0.0042506284535544303 0.0077947007061341536 -0.0026780534173305734 -0.00063577676289722934 0.0060942640362663357 0.0083815353868305475 -0.00046642311222782343 -0.00064330408128634574 -0.0039126668326623397 -0.0035049368434290958 -0.0017977548072352246 -0.0034375838783397982 -0.0039872489965247487 -0.0037478015400083881 -0.0024615144434934661 -0.002584674353981489 -0.0037908720119371013 -0.0032018345658724862 -0.003605013305688159 -0.0038815631361147945 -0.0040002097166323284
leaf_weight=637.00397539138794 589.00341463088989 608.00308418273926 760.01019382476807 1060.002453327179 1106.0095829963684 961.00853157043457 917.00059080123901 1087.0025334358215 829.00510692596436 605.00608825683594 642.00236320495605 588.00169229507446 640.00026035308838 1137.00062084198 762.00138187408447 799.00073099136353 905.00016021728516 594.00004005432129 585.00035047531128 625.00030040740967 1141.0000700950623 688.00016021728516 953.0000901222229 689.00001001358032 586.00001001358032
leaf_count=637 589 608 760 1060 1106 961 917 1087 829 605 642 588 640 1137 762 799 905 594 585 625 1141 688 953 689 586
internal_value=0 -0.00182068 0.00734888 0.00100714 0.00851584 0.0113041 -0.00266027 -0.00147792 0.00347595 0.0057113 0.00171268 0.00119665 -0.00198449 -0.00232304 -0.00181556 -0.0026371 -0.00342681 -0.00352829 -0.00334486 -0.0034987 -0.00331853 -0.0035693 -0.00378465 -0.00387625 -0.00393609
internal_weight=0 16424 4069.04 3760.01 3432.03 1721.02 12664 4981.01 2060.01 1711.02 1231.01 1196 1700 3785.01 2648 1561 7683 6766 3944 3359 2454 1829 2822 1869 1275
internal_count=20493 16424 4069 3760 3432 1721 12664 4981 2060 1711 1231 1196 1700 3785 2648 1561 7683 6766 3944 3359 2454 1829 2822 1869 1275
is_linear=0
shrinkage=0.0659429


Tree=10
num_leaves=27
num_cat=0
split_feature=107 51 11 22 1 149 8 11 107 137 9 31 58 145 25 56 138 149 52 25 153 147 83 116 24 83
split_gain=55.0139 7.90835 6.17451 6.15225 6.12524 4.06411 2.61386 2.13426 1.92389 1.9039 1.63438 0.829588 0.965273 0.667069 0.587449 0.193003 0.137894 0.0436611 0.0656355 0.105346 0.0344013 0.0588281 0.0247771 0.0100598 0.00974007 0.00418139
threshold=26.500000000000004 1.0000000180025095e-35 276.96000000000009 -95.179999999999993 202104.50000000003 3703.5000000000005 14763.925000000001 189.47500000000005 48.500000000000007 8697.465000000002 632.6400000000001 696.18000000000018 1301.4400000000003 17.500000000000004 3710.9350000000004 69.980000000000018 2617.2950000000005 3732.5000000000005 112214.91500000002 14428.925000000001 3384.105 -11383.679999999998 30456.945000000003 9553.7650000000012 4.5000000000000009 11597.825000000003
decision_type=2 2 2 2 2 8 2 2 2 8 2 2 2 8 2 2 10 10 2 2 10 10 2 8 2 2
left_child=3 2 6 4 5 -1 8 -5 -2 -6 -4 12 -12 16 -14 -13 -3 18 20 -20 21 -18 -21 24 -19 -26
right_child=1 13 10 7 9 -7 -8 -9 -10 -11 11 15 14 -15 -16 -17 17 23 19 22 -22 -23 -24 -25 25 -27
leaf_value=0.0084056138535090943 0.0072738441828104957 -0.0024955542677796497 0.00078008381388555204 0.0055385108086235457 0.0082859345562769221 0.016057373257088177 2.4522436205588262e-05 0.00062329519862967852 0.0023273581032633487 0.0029657789467583138 0.00085281055859226648 -0.0023745326847302009 -0.00082024616701837684 -0.0011626247348820191 -0.0033649099093227179 -0.0037424279596751124 -0.0029028518402180203 -0.0038292011890196679 -0.0022312999910434651 -0.0029696750195001204 -0.0037378143515798003 -0.0036960143396364132 -0.0035697845921629414 -0.0033122389948643336 -0.0033767992304566648 -0.0036101002079392849
leaf_weight=590.00654888153076 610.00486660003662 1011.0007209777832 1165.0035247802734 1101.0088920593262 585.00634860992432 618.00856161117554 959.00384521484375 590.00243330001831 778.00399541854858 585.00558757781982 700.00226306915283 869.00112152099609 791.00179243087769 752.00100135803223 787.00071096420288 927.0004506111145 980.00028038024902 597.00003004074097 668.00035047531128 608.00013017654419 898.00008010864258 695.00008010864258 589.00003004074097 677.00010013580322 586.00005006790161 777
leaf_count=590 610 1011 1165 1101 585 618 959 590 778 585 700 869 791 752 787 927 980 597 668 608 898 695 589 677 586 777
internal_value=0 -0.00170062 -0.000138761 0.00686427 0.00902651 0.0123202 0.00267203 0.00382357 0.00450125 0.00562586 -0.00139796 -0.0020208 -0.00118526 -0.00304122 -0.00208935 -0.00308057 -0.00321593 -0.00331887 -0.0031926 -0.00289473 -0.0034085 -0.00323196 -0.00326497 -0.00353139 -0.00360708 -0.0035098
internal_weight=0 16424 7586.02 4069.04 2378.03 1208.02 2347.01 1691.01 1388.01 1170.01 5239.01 4074.01 2278 8838 1578 1796 8086 7075 4438 1865 2573 1675 1197 2637 1960 1363
internal_count=20493 16424 7586 4069 2378 1208 2347 1691 1388 1170 5239 4074 2278 8838 1578 1796 8086 7075 4438 1865 2573 1675 1197 2637 1960 1363
is_linear=0
shrinkage=0.0659429


Tree=11
num_leaves=26
num_cat=0
split_feature=107 18 52 138 10 1 107 10 8 10 107 153 139 112 83 20 5 83 9 115 140 56 147 149 5
split_gain=48.0677 8.80213 4.92579 4.82952 3.7728 3.58692 5.03125 2.59567 2.58861 2.89386 1.43409 0.743729 0.445414 0.415141 0.491763 0.0890472 0.0929442 0.120327 0.0457629 0.0648332 0.0320689 0.0218348 0.0161624 0.00346156 0.00501045
threshold=33.500000000000007 6039.0950000000012 18064.710000000003 2268.4450000000002 -117.03499999999998 202104.50000000003 9.5000000000000018 341.84000000000009 7749.4300000000012 -848.9749999999998 88.500000000000014 909.07500000000016 1338.2050000000002 139352.40000000002 12052.575000000003 1030.575 56.500000000000007 37301.985000000008 715.43000000000018 130.08000000000001 2741.2450000000003 1395.8750000000002 -10267.394999999999 2314.5000000000005 47.500000000000007
decision_type=2 2 2 10 2 2 2 2 2 2 2 10 8 8 2 2 2 2 2 10 8 2 8 10 2
left_child=1 4 3 -2 -1 6 -6 -7 9 10 -5 -10 15 -13 -15 16 17 18 21 -20 -17 22 -4 -22 -25
right_child=2 -3 12 8 5 7 -8 -9 11 -11 -12 13 -14 14 -16 20 -18 -19 19 -21 23 -23 -24 24 -26
leaf_value=0.0030293138953860202 0.0036655690108111537 0.00014589785436614142 -0.0032825980389010454 0.0016332860055117636 0.013817536394741045 0.0080462777590895249 0.0063071590677165204 0.0024653195004883674 -0.00047527825321321579 0.0044930746048180668 -0.0024813911732107915 -0.003715267775383467 -0.0011902116924695683 -0.0011073855848458189 -0.0030805551541980133 -0.0029084323681943828 -0.0020759612452070308 -0.0023280474846266307 -0.0023308895691353223 -0.0033105631575400425 -0.0035520742756955967 -0.003007624284884357 -0.0037328456736454071 -0.0032692325502809627 -0.003508884262726197
leaf_weight=774.00573778152466 1026.0059480667114 978.00377511978149 777.00006008148193 604.0023832321167 852.01103496551514 947.00966310501099 712.00682926177979 587.00529718399048 876.00230312347412 608.00348472595215 944.00130176544189 1055.0009813308716 631.00080108642578 1066.0019927024841 1133.0007109642029 687.00014019012451 607.00039052963257 1026.0004506111145 585.00023031234741 590.00002002716064 651.00001001358032 598.00012016296387 626.00008010864258 894.00003004074097 659.00002002716064
leaf_count=774 1026 978 777 604 852 947 712 587 876 608 944 1055 631 1066 1133 687 607 1026 585 590 651 598 626 894 659
internal_value=0 0.0057356 -0.00177829 -0.000529256 0.00714745 0.00817631 0.0103985 0.00591067 -0.00121394 0.00063816 -0.00087592 -0.0021808 -0.00287456 -0.00263993 -0.00212403 -0.00301259 -0.00283872 -0.0029489 -0.00314947 -0.00282281 -0.00330181 -0.00334128 -0.00348349 -0.00342443 -0.00337093
internal_weight=0 4850.04 15643 7312.02 3872.04 3098.03 1564.02 1534.01 6286.01 2156.01 1548 4130.01 8331 3254 2199 7700 4809 4202 3176 1175 2891 2001 1403 2204 1553
internal_count=20493 4850 15643 7312 3872 3098 1564 1534 6286 2156 1548 4130 8331 3254 2199 7700 4809 4202 3176 1175 2891 2001 1403 2204 1553
is_linear=0
shrinkage=0.0659429


Tree=12
num_leaves=27
num_cat=0
split_feature=107 18 10 107 1 22 153 52 147 8 16 153 16 131 8 73 64 149 113 113 85 113 6 147 52 120
split_gain=42.0564 6.58126 5.25925 4.73857 4.40824 4.23425 1.76489 1.68517 2.23947 1.68155 1.37103 0.638442 0.569847 0.429321 0.713902 0.438443 0.0819395 0.131861 0.0641613 0.0943489 0.0332906 0.0174385 0.015303 0.0171158 0.00875575 0.00247696
threshold=26.500000000000004 5182.1300000000001 -286.13499999999993 82.500000000000014 202104.50000000003 -3617.4099999999994 3161.2350000000001 16897.400000000005 -2236.9199999999996 18358.325000000004 -529.46999999999991 967.72500000000014 -2461.2249999999995 498.52500000000003 16713.645000000004 9.5000000000000018 2777.7350000000001 498.50000000000006 -1109.9999999999998 -653.99999999999989 37594.650000000009 -1505.9999999999998 200.50000000000003 -10660.779999999997 122815.31500000002 211140.00000000003
decision_type=2 2 2 2 2 2 10 2 8 2 2 10 2 10 2 2 2 10 8 10 2 10 2 8 2 8
left_child=2 3 -1 6 5 -4 10 8 11 -6 -2 -3 -5 14 -13 -16 17 -9 21 -20 22 -19 23 25 -21 -18
right_child=1 7 4 12 9 -7 -8 16 -10 -11 -12 13 -14 -15 15 -17 20 18 19 24 -22 -23 -24 -25 -26 -27
leaf_value=0.0003779682567674973 0.002422613933773222 -0.00035554846346921344 0.013010311503121508 -0.0028636187721520984 0.0061911698827156521 0.0064499614707588318 4.3748933885915155e-05 -0.0017608582683864113 0.002083194396564559 0.0019028472518736917 0.0064273771541883996 -0.00056513731325408799 -0.00038353291924835594 -0.0032976303858674835 -0.004081426788840826 -0.001604447566844437 -0.0030657459323050178 -0.0028973065080845368 -0.0019497237104341631 -0.0030976458200933274 -0.0027435035248302994 -0.0033710001025057464 -0.0029057022420093427 -0.0035850373501606914 -0.0027371657125625855 -0.003241429496945582
leaf_weight=614.00380516052246 835.00447607040405 975.00257349014282 766.01026391983032 893.00086116790771 1096.0106244087219 969.00860166549683 628.00215291976929 626.00052070617676 731.00322437286377 624.00507688522339 670.00443601608276 1144.0027937889099 734.00167226791382 1166.0007209777832 624.0003604888916 619.00058078765869 641.00002002716064 630.0000901222229 699.00035047531128 587.00004005432129 957.00021028518677 729.00004005432129 597.0000901222229 588.00005006790161 585.00014019012451 766.00002002716064
leaf_count=614 835 975 766 893 1096 969 628 626 731 624 670 1144 734 1166 624 619 641 630 699 587 957 729 597 588 585 766
internal_value=0 -0.00148692 0.0060017 0.000935638 0.00700111 0.00934635 0.00298017 -0.00220619 -0.00130355 0.00463541 0.00420547 -0.0018503 -0.00174476 -0.00226049 -0.00175387 -0.00284792 -0.00284724 -0.00263679 -0.00280656 -0.00255608 -0.00307589 -0.00315141 -0.00319861 -0.00328626 -0.00291771 -0.00316139
internal_weight=0 16424 4069.04 3760.01 3455.03 1735.02 2133.01 12664 5259.01 1720.02 1505.01 4528.01 1627 3553 2387 1243 7405 3856 3230 1871 3549 1359 2592 1995 1172 1407
internal_count=20493 16424 4069 3760 3455 1735 2133 12664 5259 1720 1505 4528 1627 3553 2387 1243 7405 3856 3230 1871 3549 1359 2592 1995 1172 1407
is_linear=0
shrinkage=0.0659429


Tree=13
num_leaves=25
num_cat=0
split_feature=107 18 33 18 1 107 107 27 51 147 107 107 74 149 64 153 138 112 5 149 74 55 107 52
split_gain=36.6926 5.7419 4.77019 4.76563 3.89394 3.44198 3.40833 1.55718 1.47336 1.68853 1.45656 0.758426 0.632264 0.427586 0.386886 0.132737 0.0988189 0.0527987 0.041339 0.023982 0.0362071 0.0284054 0.0097147 0.00591956
threshold=26.500000000000004 5182.1300000000001 17346.645000000004 2721.2350000000006 202104.50000000003 82.500000000000014 3.5000000000000004 2.5000000000000004 1.0000000180025095e-35 -3041.7949999999996 7.5000000000000009 48.500000000000007 445.33500000000009 4299.5000000000009 4336.3050000000012 4826.8950000000013 2617.2950000000005 47506.500000000007 30.500000000000004 4431.5000000000009 1278.9450000000004 1.5000000000000002 104.50000000000001 140807.69000000003
decision_type=2 2 2 2 2 2 2 2 2 8 2 2 2 10 2 10 8 10 2 8 2 2 2 2
left_child=3 2 5 4 6 7 -1 -2 9 12 -6 -9 -3 14 -14 -15 -10 -18 -19 20 21 22 -20 -21
right_child=1 8 -4 -5 10 -7 -8 11 16 -11 -12 -13 13 15 -16 -17 17 18 19 23 -22 -23 -24 -25
leaf_value=0.01313153198132591 0.0067490523008883153 0.0001525694567522512 -0.0032380063336498416 0.0014799759997651343 0.0026366248302955352 -0.00077348950937569379 0.0067667629099748498 0.0042491424165647289 -0.0019910088548529071 0.0016685208973315486 0.0066480477568905743 0.00092069388188281882 -0.0005616927246671823 -0.0023856258031949695 -0.0024148191948815644 -0.0036366137144312619 -0.002185419085164864 -0.0022921345651318406 -0.0031663584494659482 -0.0031459832476622564 -0.0023571102013251561 -0.0025109755538842522 -0.0028676764395776343 -0.0029115514978110871
leaf_weight=590.00790071487427 591.00464630126953 676.00186252593994 925.00076103210449 937.0048565864563 832.00827121734619 1053.0023031234741 963.01024389266968 604.00365495681763 917.00059080123901 767.00336456298828 747.00709962844849 587.00223302841187 1078.0023832321167 965.00118160247803 898.0009913444519 597.00026035308838 717.00040054321289 662.00017023086548 805.00004005432129 985.00001001358032 814.00024032592773 740.00015020370483 1150.0001101493835 893.00007009506226
leaf_count=590 591 676 925 937 832 1053 963 604 917 767 747 587 1078 965 898 597 717 662 805 985 814 740 1150 893
internal_value=0 -0.00138886 0.000873939 0.00560593 0.00684029 0.00221557 0.00918481 0.00398183 -0.0020607 -0.00117733 0.00453437 0.00260867 -0.00169532 -0.00204839 -0.00140385 -0.00286376 -0.00263341 -0.00272047 -0.00278389 -0.00284432 -0.00274254 -0.00285895 -0.00299066 -0.00303451
internal_weight=0 16424 3760.01 4069.04 3132.03 2835.01 1553.02 1782.01 12664 4981.01 1579.02 1191.01 4214.01 3538 1976 1562 7683 6766 6049 5387 3509 2695 1955 1878
internal_count=20493 16424 3760 4069 3132 2835 1553 1782 12664 4981 1579 1191 4214 3538 1976 1562 7683 6766 6049 5387 3509 2695 1955 1878
is_linear=0
shrinkage=0.0659429


Tree=14
num_leaves=27
num_cat=0
split_feature=18 33 137 51 28 1 149 8 135 74 8 10 123 153 134 9 141 149 138 52 149 5 115 73 97 5
split_gain=31.3099 10.1473 7.66129 5.65941 5.79296 4.75322 5.09487 4.62288 1.73721 1.63331 1.11339 1.34011 0.881968 0.39034 0.327699 0.269192 0.323785 0.216268 0.0904945 0.0465724 0.0376609 0.0646845 0.0237221 0.0310415 0.00917506 0.00401563
threshold=836.5100000000001 29908.705000000005 11839.620000000003 1.0000000180025095e-35 8189.3400000000011 202104.50000000003 5284.5000000000009 18099.760000000006 -1582.4999999999998 1592.2250000000001 7749.4300000000012 -3231.1699999999996 3.5000000000000004 1155.4050000000002 164689.20000000004 114.00500000000001 584.36000000000013 4551.5000000000009 6633.4150000000009 43412.785000000011 3732.5000000000005 46.500000000000007 934.20000000000016 7.5000000000000009 20.500000000000004 50.500000000000007
decision_type=2 2 10 2 2 2 8 2 10 2 2 2 10 10 10 2 8 10 10 2 10 2 10 2 2 2
left_child=1 2 5 4 7 6 -1 8 -2 -7 11 -6 -9 -12 -15 -5 18 -16 -17 -20 21 22 23 -21 -22 -26
right_child=3 -3 -4 15 10 9 -8 12 -10 -11 13 -13 -14 14 17 16 -18 -19 19 20 24 -23 -24 -25 25 -27
leaf_value=0.0071998454753165186 0.0028841793625086192 -0.0029701461146038211 0.0013744140697231561 -0.003646147564552075 -0.0023694450799274457 0.0032185463444242843 0.015142664279144175 0.0013882475893406455 0.0077372346691769395 0.0077431913093863351 -0.00066384037803951534 0.001626526762053515 -0.0021651391829346886 -0.0036224961037490833 -0.0013063648245098909 -0.0018803513440517772 -0.00097827450612788993 -0.0027750813560197315 -0.0031780449906954537 -0.0027114262367466638 -0.0025777987152264762 -0.0018901476534337162 -0.0028112567095555721 -0.0021167249706619644 -0.0027738439470220686 -0.0029896970339048849
leaf_weight=859.00902223587036 645.00415563583374 637.00154209136963 1125.0057077407837 850.00048065185547 599.00078105926514 838.00804090499878 594.0083212852478 611.0029239654541 638.00493669509888 592.00636863708496 653.00143194198608 934.00353479385376 604.00199270248413 755.00055074691772 951.00132179260254 811.00044059753418 631.00086116790771 805.00052070617676 590.00011014938354 752.00007009506226 773.00008010864258 769.00029039382935 1100.0000801086426 775.00020027160645 1004.0000100135803 598.00002002716064
leaf_count=859 645 637 1125 850 599 838 594 611 638 592 653 934 604 755 951 811 631 805 590 752 773 769 1100 775 1004 598
internal_value=0 0.004761 0.00598972 -0.00139544 -2.8869e-05 0.00779068 0.010447 0.00253689 0.00529747 0.00509169 -0.00139342 6.51546e-05 -0.000378208 -0.00210011 -0.00247363 -0.00253176 -0.00241036 -0.00197967 -0.00253636 -0.00262 -0.00256295 -0.00242207 -0.00257778 -0.0024096 -0.00276439 -0.00285442
internal_weight=0 4645.04 4008.04 15848 7195.02 2883.03 1453.02 2498.01 1283.01 1430.01 4697.01 1533 1215 3164 2511 8653 7803 1756 7172 6361 5771 3396 2627 1527 2375 1602
internal_count=20493 4645 4008 15848 7195 2883 1453 2498 1283 1430 4697 1533 1215 3164 2511 8653 7803 1756 7172 6361 5771 3396 2627 1527 2375 1602
is_linear=0
shrinkage=0.0659429


Tree=15
num_leaves=30
num_cat=0
split_feature=107 18 10 107 18 28 134 52 147 97 116 125 8 22 9 8 16 81 7 64 149 113 113 141 85 113 125 52 153
split_gain=28.273 4.4059 4.23254 3.38411 2.45561 1.24875 1.16458 1.08297 1.58272 0.88824 0.698938 0.606022 0.747111 0.600064 0.53221 0.435946 0.371452 0.204882 0.192974 0.070808 0.107071 0.0566191 0.0791579 0.031361 0.0605466 0.0153587 0.0088638 0.00751325 0.00135791
threshold=26.500000000000004 5182.1300000000001 -261.08499999999998 54.500000000000007 215.62000000000003 6420.9000000000005 190026.00000000003 16897.400000000005 -2236.9199999999996 14.500000000000002 11876.815000000002 -718.34999999999991 17168.700000000001 3076.5800000000004 1513.4400000000003 12170.140000000001 -2321.1349999999998 48809.115000000013 1214.9450000000002 2777.7350000000001 498.50000000000006 -1109.9999999999998 -653.99999999999989 9.240000000000002 37594.650000000009 -1505.9999999999998 -9751.534999999998 122815.31500000002 1718.4450000000002
decision_type=2 2 2 2 2 2 8 2 8 2 8 8 2 2 2 2 2 2 2 2 10 8 10 8 2 10 10 2 10
left_child=2 3 -1 9 6 -5 -4 8 11 -2 16 18 14 -6 -13 -8 -7 -14 -3 20 -9 25 -23 24 26 -22 28 -24 -21
right_child=1 7 4 5 13 10 15 19 -10 -11 -12 12 17 -15 -16 -17 -18 -19 -20 23 21 22 27 -25 -26 -27 -28 -29 -30
leaf_value=-1.5697778350626114e-05 0.0019225963350192772 -0.0032239923496836828 0.0052610171720122618 0.0019279902479641254 0.0048909632359918857 -0.0017748929634206776 0.0096419508021447584 -0.0013366199965630897 0.001763102049579947 0.0053435033885163921 -0.0032991170000520142 0.0015232854494366991 -0.0011246450552613359 0.0019330720947826996 -0.0011862243347020556 0.0072659350737116586 0.0005650646984995748 -0.0027180529469908697 -0.0018679973459750493 -0.0027852364292840505 -0.0023643872449954349 -0.0014882104434122076 -0.00254153223650161 -0.0029739956816487341 -0.0019476976122446688 -0.0028089374179393026 -0.0024053304143583564 -0.0022076075826922125 -0.0026590734627325182
leaf_weight=637.00397539138794 754.00420570373535 809.00066089630127 883.00957298278809 590.00260353088379 600.00538730621338 590.00073099136353 612.00753021240234 626.00052070617676 731.00322437286377 587.00397539138794 649.00049066543579 673.00219297409058 674.00114154815674 593.00324440002441 593.00151205062866 744.00866174697876 590.00159215927124 732.00048065185547 1047.0010414123535 586.00001001358032 630.0000901222229 699.00035047531128 587.00004005432129 588.00010013580322 779.00019025802612 729.00004005432129 585.00007009506226 585.00014019012451 1011.0000200271606
leaf_count=637 754 809 883 590 600 590 612 626 731 587 649 673 674 593 593 744 590 732 1047 586 630 699 587 588 779 729 585 585 1011
internal_value=0 -0.00121915 0.0049209 0.000763001 0.00583715 -0.000709965 0.0071247 -0.00180766 -0.00108406 0.00342004 -0.00156092 -0.0015437 -0.00090789 0.0034207 0.00025414 0.0083383 -0.000604913 -0.00195421 -0.00245905 -0.00232156 -0.00212593 -0.00227891 -0.00204361 -0.00253411 -0.00244676 -0.00260285 -0.00262493 -0.00237485 -0.00270537
internal_weight=0 16424 4069.04 3760.01 3432.03 2419.01 2239.03 12664 5259.01 1341.01 1829 4528.01 2672.01 1193.01 1266 1356.02 1180 1406 1856 7405 3856 3230 1871 3549 2961 1359 2182 1172 1597
internal_count=20493 16424 4069 3760 3432 2419 2239 12664 5259 1341 1829 4528 2672 1193 1266 1356 1180 1406 1856 7405 3856 3230 1871 3549 2961 1359 2182 1172 1597
is_linear=0
shrinkage=0.0659429


Tree=16
num_leaves=28
num_cat=0
split_feature=107 18 10 33 1 135 146 107 8 52 147 33 11 116 140 107 81 151 39 27 83 1 24 112 85 137 137
split_gain=24.6671 3.84398 3.69973 3.62513 3.00806 3.31503 2.95537 1.80712 1.3582 0.944848 1.38086 0.584355 0.651535 0.767987 0.566442 0.509873 0.252815 0.136782 0.0631401 0.0685242 0.119301 0.0792974 0.040984 0.0145627 0.00580347 0.00360454 0.00146386
threshold=26.500000000000004 5182.1300000000001 -286.13499999999993 17346.645000000004 202104.50000000003 -1444.9999999999998 1765.3650000000002 54.500000000000007 18358.325000000004 16897.400000000005 -2236.9199999999996 2431.1150000000002 983.15500000000009 703.74500000000012 9632.1800000000021 104.50000000000001 39081.015000000007 8.5000000000000018 13018.225000000002 7.5000000000000009 23454.135000000006 202104.50000000003 2.5000000000000004 82344.60000000002 410.55000000000001 18383.020000000004 46026.935000000005
decision_type=2 2 2 2 2 8 8 2 2 2 8 2 2 10 10 2 2 10 2 2 2 2 2 10 2 10 10
left_child=2 3 -1 6 5 -4 7 -2 -6 10 11 12 13 14 -3 -9 -14 -18 19 20 21 -11 -21 -24 -25 -20 -26
right_child=1 9 4 -5 8 -7 -8 15 -10 18 -12 -13 16 -15 -16 -17 17 -19 25 22 -22 -23 23 24 26 -27 -28
leaf_value=-0.00012040487554016189 0.0030064752823838106 0.0021025873219415875 0.0037067219914110445 -0.0028719199121904084 0.0048786282983914022 0.0096387712442560208 0.0058532858722377679 0.00036488652423758322 0.0010246029631916938 -0.0026326151696356424 0.0016468380296918005 -0.0033440527917845855 -0.0008878812595547557 -0.0020969032237638961 -0.00072913716207316807 -0.0022576108118687005 -0.0031367796388366317 -0.001829273627914836 -0.0027250622322621495 -0.0018282956084064161 -0.0012193606771954938 -0.0017272671498411083 -0.0021118494393369469 -0.0022849423304266291 -0.0024801787599499189 -0.0024955876776409131 -0.0026103605626857942
leaf_weight=614.00380516052246 903.00563764572144 624.00255346298218 663.00617837905884 925.00076103210449 1096.0106244087219 1072.0126872062683 633.00387525558472 705.00252342224121 624.00507688522339 797.00015020370483 731.00322437286377 608.00030040740967 650.00093126296997 648.00097131729126 605.00141191482544 594.00080108642578 675.00034046173096 718.00052070617676 585.00001001358032 729.00021028518677 914.00058078765869 891.00040054321289 668.00012016296387 585.00005006790161 1043.0000200271606 606 587.00003004074097
leaf_count=614 903 624 663 925 1096 1072 633 705 624 797 731 608 650 648 605 594 675 718 585 729 914 891 668 585 1043 606 587
internal_value=0 -0.00113875 0.0045964 0.000712687 0.00543463 0.00737195 0.00188226 0.000740727 0.00348043 -0.00168846 -0.00101257 -0.00144191 -0.00114688 -0.000259938 0.000708615 -0.000834314 -0.00196176 -0.00246285 -0.00216847 -0.00208417 -0.00182617 -0.00215473 -0.00227003 -0.00238173 -0.00246311 -0.0026083 -0.00252706
internal_weight=0 16424 4069.04 3760.01 3455.03 1735.02 2835.01 2202.01 1720.02 12664 5259.01 4528.01 3920.01 1877 1229 1299 2043 1393 7405 6214 2602 1688 3612 2883 2215 1191 1630
internal_count=20493 16424 4069 3760 3455 1735 2835 2202 1720 12664 5259 4528 3920 1877 1229 1299 2043 1393 7405 6214 2602 1688 3612 2883 2215 1191 1630
is_linear=0
shrinkage=0.0659429


Tree=17
num_leaves=29
num_cat=0
split_feature=107 151 51 8 107 1 22 11 150 97 11 58 135 149 22 134 6 147 5 11 0 7 83 22 81 11 149 20
split_gain=21.5212 3.47431 3.29728 3.10365 3.44724 2.84761 2.69961 1.45643 1.42758 2.13779 1.17473 1.01252 0.996728 0.461638 0.458244 0.303028 0.301454 0.241 0.0984125 0.0917918 0.0623027 0.0850051 0.122203 0.0676508 0.0437662 0.0214069 0.00604122 0.000859424
threshold=26.500000000000004 2.5000000000000004 1.0000000180025095e-35 20010.305000000004 80.500000000000014 202104.50000000003 -1835.3849999999998 49.320000000000007 9487.9450000000015 20.500000000000004 10.550000000000002 2024.8400000000004 -547.49999999999989 7401.5000000000009 50158.055000000008 213955.20000000004 141.50000000000003 -18158.219999999998 58.500000000000007 156.08500000000004 701999978.50000012 522.06000000000006 37301.985000000008 51490.145000000011 77999.805000000008 584.06000000000006 3437.0000000000005 1558.8550000000002
decision_type=2 8 2 2 2 2 2 2 10 2 2 2 8 8 2 10 2 8 2 2 2 2 2 2 2 2 10 2
left_child=1 7 3 4 8 6 -3 -1 9 -2 -7 -6 14 18 15 -5 -13 -16 19 -4 25 24 23 -23 -22 -21 -27 -28
right_child=2 5 13 12 11 10 -8 -9 -10 -11 -12 16 -14 -15 17 -17 -18 -19 -20 20 21 22 -24 -25 -26 26 27 -29
leaf_value=0.0035888082995863325 0.0018638432631120567 0.010041949948858667 -0.0027625864048413129 -0.0021660328620447806 0.001110420473710868 0.0053448861513276311 0.0042870875661468891 -0.0010136528028850461 0.00047387087911761105 0.006891844050617657 0.0015555030397115441 -0.00094665964439886508 0.00068663655829917308 -0.00015060113393033524 -0.0021982836252706544 -0.00017261989319488017 -0.0029710413444545294 -0.0039720207633177395 -0.0013501889391172818 -0.0019592979011622677 -0.0024660680316992553 -0.0014695269306932207 -0.00087647837499165392 -0.0023480569177865424 -0.0017935667406026887 -0.0025828082279280079 -0.0023849041867355842 -0.002280080124188716
leaf_weight=603.00597810745239 821.00471639633179 833.01114511489868 881.00023031234741 721.00150203704834 752.00275373458862 708.00755023956299 617.00493669509888 593.00329446792603 683.00260353088379 666.00471639633179 715.00546741485596 653.00127172470093 694.00196266174316 592.00091123580933 765.00039052963257 614.00154209136963 627.00060081481934 590.00051069259644 776.0005407333374 611.00015020370483 1146.0000500679016 716.00028038024902 683.00039052963257 815.00008010864258 665.0001802444458 590.00002002716064 652.00001001358032 711.00001001358032
leaf_count=603 821 833 881 721 752 708 617 593 683 666 715 653 694 592 765 614 627 590 776 611 1146 716 683 815 665 590 652 711
internal_value=0 0.0042933 -0.00106366 -5.5161e-05 0.00114181 0.00553653 0.00759316 0.00130682 0.00296951 0.00411579 0.00344088 -0.000810025 -0.00154147 -0.0019293 -0.00211631 -0.00124921 -0.00193829 -0.00297061 -0.002057 -0.00213042 -0.00204589 -0.00188405 -0.00160997 -0.0019372 -0.00221913 -0.00229995 -0.00240653 -0.00233022
internal_weight=0 4069.04 16424 7586.02 4202.02 2873.03 1450.02 1196.01 2170.01 1487.01 1423.01 2032 3384.01 8838 2690 1335 1280 1355 8246 7470 6589 4025 2214 1531 1811 2564 1953 1363
internal_count=20493 4069 16424 7586 4202 2873 1450 1196 2170 1487 1423 2032 3384 8838 2690 1335 1280 1355 8246 7470 6589 4025 2214 1531 1811 2564 1953 1363
is_linear=0
shrinkage=0.0659429


Tree=18
num_leaves=27
num_cat=0
split_feature=18 51 28 8 33 1 107 135 16 8 10 123 107 153 134 138 97 52 20 83 52 24 58 56 5 149
split_gain=19.3177 4.29379 5.30227 4.16439 4.07992 4.49008 5.14898 1.68534 1.16738 0.970305 1.40704 0.900923 0.57706 0.457003 0.384993 0.253557 0.211479 0.0617497 0.0478728 0.0851149 0.0558489 0.070349 0.0207004 0.0121777 0.00228424 0.00104941
threshold=143.44500000000002 1.0000000180025095e-35 7811.045000000001 18358.325000000004 4990.9050000000007 202104.50000000003 9.5000000000000018 -1582.4999999999998 -6800.5399999999991 7749.4300000000012 -1983.3399999999999 3.5000000000000004 43.500000000000007 1155.4050000000002 164689.20000000004 2617.2950000000005 31.500000000000004 53494.670000000006 1030.575 51612.160000000011 105542.92000000001 10.500000000000002 668.6350000000001 69.77500000000002 48.500000000000007 3580.5000000000005
decision_type=2 2 2 2 2 2 2 10 2 2 2 10 2 10 10 10 2 2 2 2 2 2 2 2 2 10
left_child=4 2 3 7 5 6 -1 -2 -7 10 -4 -5 -3 -11 -15 -14 -16 -17 19 20 23 -22 -20 -19 25 -24
right_child=1 12 9 11 -6 8 -8 -9 -10 13 -12 -13 15 14 16 17 -18 18 22 -21 21 -23 24 -25 -26 -27
leaf_value=0.011591841420080781 0.0024990210781636372 -0.0039159682355572357 -0.0015542892904635691 0.001295265279785292 -0.00069334466360327295 0.00055207124311215162 0.0040926466399667637 0.0067862668296169463 0.0042352611468480352 -0.00029580342125006302 0.0022674875162434012 -0.0021684558683794999 -0.00088868605806143421 -0.0033867865554210392 -0.0025641670449640178 -0.0024696035243862262 -0.0011033063086711176 -0.0023568573461351973 -0.0018089934223118273 -0.0010835911041008623 -0.0011439844162612937 -0.0020729944360620622 -0.0022306972877627752 -0.0019828522569636342 -0.0023244744976879659 -0.0021063737715344625
leaf_weight=766.01068449020386 790.00543737411499 609.00071096420288 941.00167226791382 685.00349473953247 600.00228309631348 641.00590801239014 829.00676918029785 805.00670909881592 899.00811100006104 703.00165224075317 755.00340461730957 624.00216293334961 1117.0011415481567 808.00059080123901 695.00069093704224 895.00012016296387 1134.0012516975403 741.00002002716064 740.00012016296387 712.0003604888916 738.00032043457031 682.00004005432129 594.00001001358032 774.00011014938354 629.00002002716064 587
leaf_count=766 790 609 941 685 600 641 829 805 899 703 755 624 1117 808 695 895 1134 741 740 712 738 682 594 774 629 587
internal_value=0 -0.000955823 0.000156551 0.0024006 0.00428851 0.00524196 0.00769415 0.0046628 0.00270219 -0.00113748 0.000147035 -0.000355888 -0.00195744 -0.00178974 -0.002188 -0.00181215 -0.00165842 -0.00195759 -0.00188364 -0.00173039 -0.00188729 -0.00159017 -0.00210283 -0.00216578 -0.00222297 -0.0021689
internal_weight=0 16758 7940.03 2904.02 3735.03 3135.03 1595.02 1595.01 1540.01 5036.01 1696.01 1309.01 8818 3340 2637 8209 1829 7092 6197 3647 2935 1420 2550 1515 1810 1181
internal_count=20493 16758 7940 2904 3735 3135 1595 1595 1540 5036 1696 1309 8818 3340 2637 8209 1829 7092 6197 3647 2935 1420 2550 1515 1810 1181
is_linear=0
shrinkage=0.0659429


Tree=19
num_leaves=26
num_cat=0
split_feature=18 33 137 1 112 51 28 74 107 135 74 107 141 27 116 107 138 52 12 104 145 64 80 153 20
split_gain=16.891 7.04384 4.7791 3.08576 3.94066 3.05588 3.25389 1.83055 1.78923 1.23008 0.859361 0.453808 0.375637 0.466069 0.645997 0.161748 0.146455 0.0511628 0.0436141 0.0457653 0.0428367 0.0447332 0.0267466 0.007892 0.0109174
threshold=836.5100000000001 29908.705000000005 11839.620000000003 202104.50000000003 519020.38500000007 1.0000000180025095e-35 8189.3400000000011 218.23000000000002 6.5000000000000009 -1324.4999999999998 642.1450000000001 45.500000000000007 0.075000000000000025 9.5000000000000018 937.34500000000014 141.50000000000003 2617.2950000000005 53494.670000000006 7.5000000000000009 21172.650000000005 3.5000000000000004 2923.9600000000005 3.5000000000000004 5026.3050000000012 1.0000000180025095e-35
decision_type=2 2 10 2 8 2 2 2 2 8 2 2 10 2 8 2 10 2 2 2 10 2 2 10 2
left_child=1 2 3 4 -1 6 7 -2 -5 -9 -8 -7 13 -12 -15 -14 -13 -18 19 20 -19 -22 23 24 -20
right_child=5 -3 -4 8 -6 11 10 9 -10 -11 12 16 15 14 -16 -17 17 18 22 -21 21 -23 -24 -25 -26
leaf_value=0.0050575703157412031 0.0048841982584156163 -0.0029443846143680078 0.00087543325289648121 0.0011878599849000574 0.011980958985894982 -0.0035440276565391771 0.00070382215168409486 -0.0011229503446466512 0.0058767849927094766 0.0023201930641311378 -0.0020821819932037972 -0.00099975157082402575 -0.0031495789595439132 0.0012158888370180285 -0.0016121066972702267 -0.0016722000162291027 -0.0023135593260538924 -0.0021751670484612858 -0.0021727892026248497 -0.0011999572866029891 -0.0011134462126897741 -0.0019272087408350195 -0.001595384495964626 -0.0021996219519387883 -0.0018229840990707541
leaf_weight=818.00847148895264 659.00442600250244 637.00154209136963 1125.0057077407837 643.00674915313721 635.00887203216553 644.00060081481934 971.00276374816895 794.00361490249634 787.00766038894653 1045.0059680938721 1031.0018525123596 1053.0010113716125 643.00064086914062 684.00162220001221 722.00079107284546 646.00047063827515 850.00008010864258 695.00003004074097 615.00002002716064 936.00033044815063 585.00023031234741 590.00008010864258 790.00017023086548 844 1051.0000901222229
leaf_count=818 659 637 1125 643 635 644 971 794 787 1045 1031 1053 643 684 722 646 850 695 615 936 585 590 790 844 1051
internal_value=0 0.00349692 0.00452064 0.00594306 0.00808328 -0.00102494 -2.07531e-05 0.00190219 0.00376841 0.000833595 -0.00104343 -0.00185993 -0.00149877 -0.00101723 -0.000236324 -0.00240917 -0.00172451 -0.00183423 -0.0017675 -0.00157638 -0.00176479 -0.00152206 -0.00193002 -0.00203534 -0.00195211
internal_weight=0 4645.04 4008.04 2883.03 1453.02 15848 7195.02 2498.01 1430.01 1839.01 4697.01 8653 3726.01 2437 1406 1289 8009 6956 6106 2806 1870 1175 3300 2510 1666
internal_count=20493 4645 4008 2883 1453 15848 7195 2498 1430 1839 4697 8653 3726 2437 1406 1289 8009 6956 6106 2806 1870 1175 3300 2510 1666
is_linear=0
shrinkage=0.0659429


Tree=20
num_leaves=28
num_cat=0
split_feature=18 11 33 1 107 51 16 52 137 11 116 147 16 6 97 147 107 9 127 81 28 74 57 55 52 125 5
split_gain=14.8866 3.50152 3.08599 3.52777 4.19397 2.26271 1.65183 1.28066 1.80606 1.13221 1.56124 1.12363 0.98092 0.729263 0.529735 0.282716 0.27872 0.11212 0.0691954 0.140873 0.0524179 0.0618164 0.0313047 0.0147091 0.0320932 0.00677281 0.00165582
threshold=143.44500000000002 81.530000000000015 4990.9050000000007 202104.50000000003 9.5000000000000018 1.0000000180025095e-35 -259.97999999999996 14130.845000000003 59.735000000000007 998.35500000000013 703.74500000000012 -10267.394999999999 -6800.5399999999991 151.50000000000003 24.500000000000004 -53355.159999999996 50.500000000000007 2163.5050000000006 466.50000000000006 60345.335000000006 4470.045000000001 276.73500000000007 1.0000000180025095e-35 1.0000000180025095e-35 121701.09500000002 -8321.0399999999991 46.500000000000007
decision_type=2 2 2 2 2 2 2 2 10 2 8 10 2 2 2 10 2 2 10 2 2 2 2 2 2 10 2
left_child=2 5 3 4 -1 6 -2 8 -3 10 11 13 -5 -10 -12 -11 -9 -17 19 -18 -20 -22 -23 24 -24 26 -25
right_child=1 7 -4 12 -6 -7 -8 16 9 15 14 -13 -14 -15 -16 17 18 -19 20 -21 21 22 23 25 -26 -27 -28
leaf_value=0.010285174405016501 0.00077717131345200904 0.0022457569932950107 -0.00056807842372392332 0.00037172949192527846 0.00351707807669792 -0.0014299827247871888 0.0054633296789465555 -0.0031164767032211492 0.0013412552421921003 -0.0011068775243412627 -0.0033199851337193838 0.003336579481441249 0.0037479767453772782 -0.0017347225688216352 -0.00074380431723504209 -0.0029711026078695847 -0.00064272366963729071 -0.0018431870839347064 -0.0023141803034817414 -0.0019485268266075614 -0.0010827608390412381 -0.0013982759020924323 -0.0020106801647322339 -0.001974073775181382 -0.0014008605526023936 -0.0017715089778237224 -0.0021121694061374957
leaf_weight=766.01068449020386 598.00400543212891 888.00499677658081 600.00228309631348 641.00590801239014 829.00676918029785 643.00080108642578 722.00599813461304 608.00029039382935 753.00275373458862 997.00085115432739 594.00091123580933 633.00323438644409 899.00811100006104 604.00139188766479 835.00187253952026 962.00079107284546 787.0005407333374 637.0006308555603 634.00012016296387 661.00017023086548 660.00023031234741 825.0001802444458 710.00002002716064 968 796.00019025802612 624.00004005432129 619.00002002716064
leaf_count=766 598 888 600 641 829 643 722 608 753 997 594 633 899 604 835 962 787 637 634 661 660 825 710 968 796 624 619
internal_value=0 -0.000839068 0.00376466 0.00459389 0.00676747 0.00177779 0.00334036 -0.00118627 -0.000530278 -0.000940109 -0.000151767 0.00104234 0.00234267 -2.78599e-05 -0.00181466 -0.00197838 -0.00176007 -0.00252177 -0.00164684 -0.00123881 -0.00174808 -0.00167909 -0.00176574 -0.0018473 -0.00168836 -0.00195557 -0.00202794
internal_weight=0 16758 3735.03 3135.03 1595.02 1963.01 1320.01 14795 6903.02 6015.01 3419.01 1990.01 1540.01 1357 1429 2596 7892 1599 7284 1448 5836 5202 4542 3717 1506 2211 1587
internal_count=20493 16758 3735 3135 1595 1963 1320 14795 6903 6015 3419 1990 1540 1357 1429 2596 7892 1599 7284 1448 5836 5202 4542 3717 1506 2211 1587
is_linear=0
shrinkage=0.0659429


Tree=21
num_leaves=25
num_cat=0
split_feature=18 11 153 51 8 149 1 52 137 11 131 147 149 147 72 107 25 28 52 5 74 138 11 64
split_gain=12.988 3.06313 2.8186 2.75035 1.96533 1.60451 1.74545 0.75064 1.78888 0.691857 1.07356 0.966689 0.541634 0.250176 0.188983 0.118402 0.0704666 0.126414 0.0539549 0.0394454 0.0380909 0.0323366 0.0273245 0.00105251
threshold=143.44500000000002 132.99500000000003 3829.8450000000007 1.0000000180025095e-35 14563.730000000001 1331.5000000000002 202104.50000000003 14130.845000000003 59.735000000000007 998.35500000000013 428.14500000000004 -10267.394999999999 4380.5000000000009 -15218.949999999999 533.71500000000015 54.500000000000007 21571.660000000007 9659.8350000000009 135902.37500000003 33.500000000000007 1087.4400000000003 10069.995000000001 431.58500000000009 1291.4400000000003
decision_type=2 2 10 2 2 8 2 2 10 2 8 10 10 10 2 2 2 2 2 2 2 10 2 2
left_child=2 3 5 4 -2 -1 -7 8 -3 10 11 12 -10 14 -11 -9 17 -17 22 -18 21 -21 -19 -24
right_child=1 7 -4 -5 -6 6 -8 15 9 13 -12 -13 -14 -15 -16 16 19 18 -20 20 -22 -23 23 -25
leaf_value=0.0018630137929459042 0.0044892534654070977 0.0023266722122706248 -0.00030947764266931192 -0.0016310789479374076 -9.8303241062816149e-05 0.0071169405060765257 0.0034345737707609431 -0.0024594293035727524 0.00057455322846873438 -0.00078444723861367533 -0.0021682516249955349 0.002650368990138608 -0.0020061599351696362 -0.003014721238288083 -0.0020765651167792745 -0.00057462925769292007 -0.0012887562485121838 -0.0013640755365202316 -0.001125499148745594 -0.0024454126972849573 -0.0015330908159983186 -0.0018447799209088183 -0.0019709305170191715 -0.0018518491502849824
leaf_weight=812.00724983215332 1105.0088620185852 773.00423574447632 684.00309419631958 933.00097131729126 642.00366497039795 1125.0129675865173 1114.0104441642761 661.00033044815063 885.00275373458862 903.00095129013062 997.00162220001221 618.0028338432312 589.00112152099609 611.00064086914062 1082.0006809234619 756.00047063827515 647.00021028518677 586.00012016296387 936.00032043457031 586.00008010864258 984.00014019012451 1164.0000100135803 596.00001001358032 704.00001001358032
leaf_count=812 1105 773 684 933 642 1125 1114 661 885 903 997 618 589 611 1082 756 647 586 936 586 984 1164 596 704
internal_value=0 -0.000783738 0.00351641 0.0012596 0.00280339 0.00437412 0.0052848 -0.00117273 -0.000649679 -0.00105438 -0.000387491 0.000461177 -0.000456681 -0.00184792 -0.00148877 -0.00161601 -0.0015359 -0.00133192 -0.0015348 -0.00175177 -0.00186134 -0.00204591 -0.00173792 -0.00190644
internal_weight=0 16758 3735.03 2680.01 1747.01 3051.03 2239.02 14078 6458.01 5685.01 3089.01 2092.01 1474 2596 1985 7620 6959 3578 2822 3381 2734 1750 1886 1300
internal_count=20493 16758 3735 2680 1747 3051 2239 14078 6458 5685 3089 2092 1474 2596 1985 7620 6959 3578 2822 3381 2734 1750 1886 1300
is_linear=0
shrinkage=0.0659429


Tree=22
num_leaves=27
num_cat=0
split_feature=18 118 51 28 8 112 74 120 8 55 81 8 74 134 22 141 149 5 52 0 7 127 64 25 7 20
split_gain=11.3315 2.67869 2.48535 3.2058 3.24311 2.37832 1.8455 1.99214 0.705089 1.14497 0.594674 0.526768 0.430008 0.39741 0.449242 0.361472 0.271303 0.0945388 0.108879 0.0445237 0.0607449 0.0665051 0.0293535 0.0105019 0.0103224 0.00136307
threshold=143.44500000000002 37569.80000000001 1.0000000180025095e-35 7811.045000000001 22402.585000000003 164689.20000000004 1393.9500000000003 91494.000000000015 7749.4300000000012 1.0000000180025095e-35 4694.9300000000012 15426.065000000001 82.080000000000013 139352.40000000002 79696.530000000013 584.36000000000013 4076.5000000000005 58.500000000000007 43412.785000000011 701999978.50000012 636.68000000000006 2204.0000000000005 468.87500000000006 10253.635000000002 522.06000000000006 1085.1100000000004
decision_type=2 8 2 2 2 10 2 10 2 2 2 2 2 10 2 8 10 2 2 2 2 10 2 2 2 2
left_child=1 -1 3 4 5 10 -3 11 9 -5 -2 -8 -4 -10 16 17 -15 18 -14 23 22 -22 -21 -20 -25 -26
right_child=2 6 12 8 -6 -7 7 -9 13 -11 -12 -13 15 14 -16 -17 -18 -19 19 20 21 -23 -24 24 25 -27
leaf_value=-0.00024740913343968587 0.0032758965070909742 0.0018894220920090642 -0.0031291930120069243 0.0016835357268486111 -0.0010216759139074479 0.0069964119055237247 0.0084532926735054401 0.0027567716901940389 -0.0025585865050478012 -0.0017798272586755579 0.00038699931742751972 0.0056770428970362528 -0.0024234888387927585 0.00083027963668628622 -0.0019397536215865843 3.7997929658663936e-05 -0.0011255475341496025 -0.00082436915954940649 -0.0019326164205167953 -0.0019143893618143594 -0.00077105578130164164 -0.0016223115276289167 -0.001381540049035928 -0.0014067746874713025 -0.001814329924777835 -0.0016720992930773346
leaf_weight=747.00388526916504 655.00524711608887 1019.0083012580872 648.00039052963257 971.00386524200439 1072.0042858123779 589.00508689880371 586.00746011734009 780.00745010375977 987.00104141235352 725.00121164321899 588.00318431854248 603.00665903091431 609.00010013580322 638.00163221359253 1118.00062084198 728.00110149383545 597.00089120864868 800.00055074691772 689.00001001358032 802.00004005432129 1130.0004806518555 617.00004005432129 1023.0001602172852 600.00006008148193 585.00003004074097 587.00001001358032
leaf_count=747 655 1019 648 971 1072 589 586 780 987 725 588 603 609 638 1118 728 597 800 689 802 1130 617 1023 600 585 587
internal_value=0 0.00328452 -0.000732056 0.000114244 0.00185914 0.00354485 0.0041675 0.00534646 -0.000891949 0.000203032 0.00190931 0.00704532 -0.00149409 -0.00144796 -0.000982098 -0.00136441 -0.000115168 -0.00150159 -0.00158316 -0.00149834 -0.00134964 -0.0010717 -0.0016157 -0.00171416 -0.00162922 -0.00174309
internal_weight=0 3735.03 16758 7940.03 2904.02 1832.01 2988.03 1969.02 5036.01 1696.01 1243.01 1189.01 8818 3340 2353 8170 1235 7442 6642 6033 3572 1747 1825 2461 1772 1172
internal_count=20493 3735 16758 7940 2904 1832 2988 1969 5036 1696 1243 1189 8818 3340 2353 8170 1235 7442 6642 6033 3572 1747 1825 2461 1772 1172
is_linear=0
shrinkage=0.0659429


Tree=23
num_leaves=27
num_cat=0
split_feature=107 52 10 8 22 8 149 107 153 33 56 52 8 81 52 10 72 113 113 85 8 85 83 97 5 112
split_gain=10.0032 5.47887 3.69449 2.94925 1.70312 1.65989 1.49144 1.57321 1.13406 0.657126 0.733008 1.32555 1.57311 0.40778 0.286577 0.227864 0.252682 0.172525 0.227979 0.102291 0.0862362 0.0683975 0.0545932 0.0458747 0.032509 0.0320714
threshold=48.500000000000007 16897.400000000005 -261.08499999999998 14563.730000000001 -3617.4099999999994 3269.3550000000005 1331.5000000000002 7.5000000000000009 74679.045000000013 5503.3450000000003 69.980000000000018 8431.2400000000016 7749.4300000000012 52563.30000000001 16897.400000000005 -3051.2249999999995 1642.6650000000002 -1109.9999999999998 -638.49999999999989 2404.6500000000005 20832.090000000004 35248.650000000009 9321.2050000000017 46.500000000000007 45.500000000000007 95013.000000000015
decision_type=2 2 2 2 2 2 8 2 8 2 2 2 2 2 2 2 2 10 10 2 2 2 2 2 2 10
left_child=1 2 5 6 -5 -1 -4 -8 9 10 11 12 -2 -14 -11 24 17 19 -19 -17 -20 22 -13 -24 -12 -16
right_child=8 -3 3 4 -6 -7 7 -9 -10 14 15 21 13 -15 25 16 -18 18 20 -21 -22 -23 23 -25 -26 -27
leaf_value=0.0022144739189392301 0.0029272374352024362 -0.0033448981893047284 0.0030408878172252254 0.0040828243388995721 0.0002693006155108756 -0.0024953141667888121 0.0040448691013825738 0.0083762537967392026 0.0018562057280509874 -0.0029642079884433926 -0.0018520918527172333 -0.0019875575692557047 0.00043104905921881819 -0.0017211078883932814 -0.0018591731427919313 -0.0026163709429575543 -0.00018067205420528205 7.9475717253290975e-05 -0.00098811784789174764 -0.0015270634154681726 -0.0020505963822780361 -0.00080137637329625732 -0.0016600795137155474 -0.00085496909016596488 -0.0025402991979230813 -0.0012924366370113611
leaf_weight=630.00397539138794 937.00436592102051 695.00052070617676 760.00704956054688 923.01010370254517 1136.0068392753601 673.0027437210083 613.00720977783203 900.00968313217163 590.00198268890381 918.0006308555603 591.00021028518677 699.00004005432129 895.00260353088379 669.00078105926514 748.00001001358032 591.00030040740967 891.00199270248413 589.00069093704224 721.00052070617676 1025.0005106925964 616.00011014938354 814.00035047531128 616.00008010864258 615.00020027160645 603.00012016296387 1035.0001702308655
leaf_count=630 937 695 760 923 1136 673 613 900 590 918 591 699 895 669 748 591 891 589 721 1025 616 814 616 615 603 1035
internal_value=0 0.00217926 0.00286058 0.00378661 0.00197882 -0.000218131 0.0054242 0.00662137 -0.000974003 -0.00109703 -0.000868331 -0.000307499 0.000790562 -0.000489534 -0.00201758 -0.00139109 -0.00117331 -0.00142301 -0.00100145 -0.00192544 -0.00147764 -0.00130832 -0.00152213 -0.00125785 -0.00219965 -0.00153019
internal_weight=0 6330.05 5635.05 4332.04 2059.02 1303.01 2273.02 1513.02 14163 13573 10872 5245.01 2501.01 1564 2701 5627 4433 3542 1926 1616 1337 2744 1930 1231 1194 1783
internal_count=20493 6330 5635 4332 2059 1303 2273 1513 14163 13573 10872 5245 2501 1564 2701 5627 4433 3542 1926 1616 1337 2744 1930 1231 1194 1783
is_linear=0
shrinkage=0.0659429


Tree=24
num_leaves=27
num_cat=0
split_feature=18 33 1 149 11 16 16 22 33 11 52 151 116 140 107 52 22 127 8 64 153 149 52 153 18 56
split_gain=8.77066 2.45981 2.86069 3.40829 2.19657 1.54441 0.86803 0.850065 0.777445 1.13867 1.73048 1.76387 1.26524 0.706665 0.379429 0.361034 0.210713 0.280323 0.178651 0.150713 0.114806 0.112125 0.0698826 0.0573013 0.0451935 0.0165659
threshold=143.44500000000002 4990.9050000000007 202104.50000000003 3837.5000000000005 81.530000000000015 -543.9849999999999 -6800.5399999999991 1216.7900000000002 18001.070000000003 983.15500000000009 14130.845000000003 19.500000000000004 703.74500000000012 9218.0450000000019 60.500000000000007 23399.435000000001 124078.895 2388.5000000000005 15209.570000000002 4733.6350000000011 486.79500000000007 3732.5000000000005 6134.1000000000013 1718.4450000000002 18086.240000000002 198.24000000000004
decision_type=2 2 2 8 2 2 2 2 2 2 2 8 8 10 2 2 2 8 2 2 10 10 2 10 2 2
left_child=1 2 3 -1 5 -2 -4 -7 9 10 11 12 13 -6 -11 -10 17 -16 20 21 -12 -18 -21 -22 -17 -25
right_child=4 -3 6 -5 8 7 -8 -9 15 14 18 -13 -14 -15 16 24 19 -19 -20 22 23 -23 -24 25 -26 -27
leaf_value=0.0029085940604173213 -0.00085658045216547728 -0.00097861720133766441 -0.00025130763146225416 0.0090561148411269308 0.0024076655187426498 0.0047030918021463098 0.0029247235906118452 0.001172153537964276 -0.0031274068023820511 -0.002798308747232559 -0.0021732350483687703 0.0041797669450384725 -0.0015243912608276147 -0.00026310907404173772 -0.0015764769100159407 -0.0017792612307602144 -0.00043413161476001393 3.8160940296475571e-05 -0.000170987223690242 -0.0024225430526564188 -0.00069819561138759906 -0.0016622000426444543 -0.0015741345188414213 -0.0016441839668217698 -0.0010584232737256383 -0.0011771842857859313
leaf_weight=900.00831127166748 777.00323438644409 600.00228309631348 641.00590801239014 695.00914239883423 1049.0052571296692 589.00481653213501 899.00811100006104 597.00275373458862 829.00064086914062 736.00103139877319 694.0002703666687 589.00361490249634 1112.0025434494019 731.00213289260864 816.00065088272095 749.00006008148193 701.00055074691772 1095.0010614395142 585.00040054321289 744.00021028518677 682.0002703666687 600.00016021728516 976.00002002716064 757.00005006790161 764.00021028518677 586.00010013580322
leaf_count=900 777 600 641 695 1049 589 899 597 829 736 694 589 1112 731 816 749 701 1095 585 744 682 600 976 757 764 586
internal_value=0 0.00288965 0.00362998 0.0055873 -0.000644045 0.0014286 0.00160275 0.00292572 -0.000919045 -0.000711744 -0.000135417 0.000890571 0.000220675 0.00131085 -0.00140165 -0.00202132 -0.00119323 -0.000651292 -0.00121637 -0.00153604 -0.00144129 -0.0010005 -0.00194112 -0.00119044 -0.00141527 -0.00144041
internal_weight=0 3735.03 3135.03 1595.02 16758 1963.01 1540.01 1186.01 14795 12453 6785.01 3481.01 2892.01 1780.01 5668 2342 4932 1911 3304 3021 2719 1301 1720 2025 1513 1343
internal_count=20493 3735 3135 1595 16758 1963 1540 1186 14795 12453 6785 3481 2892 1780 5668 2342 4932 1911 3304 3021 2719 1301 1720 2025 1513 1343
is_linear=0
shrinkage=0.0659429


Tree=25
num_leaves=28
num_cat=0
split_feature=107 52 10 8 16 11 8 153 8 33 55 51 8 6 112 51 7 131 11 134 84 52 11 20 24 64 149
split_gain=7.74332 4.43075 3.07254 2.48177 1.45222 1.4014 1.3989 0.956203 0.950616 0.507312 0.582006 1.10422 1.54312 0.38892 0.276161 0.424094 0.189222 0.191027 0.242627 0.36572 0.180418 0.075824 0.0691981 0.0815222 0.0229157 0.0159227 0.0157039
threshold=48.500000000000007 16897.400000000005 -261.08499999999998 14563.730000000001 -1614.3799999999999 14.965000000000002 3269.3550000000005 74679.045000000013 5170.8850000000011 5503.3450000000003 1.0000000180025095e-35 1.0000000180025095e-35 7749.4300000000012 132.50000000000003 389810.62500000006 1.0000000180025095e-35 -680.67499999999984 568.90500000000009 1941.5150000000001 267444.00000000006 2.5000000000000004 61258.275000000001 345.89500000000004 25.935000000000002 8.5000000000000018 6661.0250000000005 2401.5000000000005
decision_type=2 2 2 2 2 2 2 8 2 2 2 2 2 2 10 2 2 10 2 10 2 2 2 2 2 2 10
left_child=1 2 6 5 -5 8 -1 9 -4 10 11 12 -2 -14 15 -11 21 18 19 20 -18 -12 -13 -24 -25 -20 -17
right_child=7 -3 3 4 -6 -7 -8 -9 -10 14 16 22 13 -15 -16 26 17 -19 25 -21 -22 -23 23 24 -26 -27 -28
leaf_value=0.0019556003234786025 0.0029861148504569707 -0.0030503907457435902 0.001500436439849684 0.0033674054464140559 -0.0001412005715774057 0.0066252185262708225 -0.0023680844312968449 0.0017418755653243738 0.0051955452303184199 -0.0035617368051144111 -0.0024932308972866885 -0.0017850902508132823 0.00069331279182265493 -0.0014624499867662551 -0.00051199204666405897 -0.0017341941319282278 -0.0014252493839479042 -0.0018394563905655694 -0.0013425663079924121 0.00096089827690308517 -9.7873970107308805e-05 -0.001439948581228115 -0.00049787832620507683 -0.0010388831536634092 -0.0016120590642967527 -0.0018274481593534043 -0.0013051611479777433
leaf_weight=630.00397539138794 876.00427579879761 695.00052070617676 607.00636863708496 1090.0114154815674 969.00552749633789 1062.0101838111877 673.0027437210083 590.00198268890381 604.00739002227783 631.00034046173096 587.00050067901611 602.00014019012451 653.00197267532349 822.00126171112061 586.00039052963257 746.00002002716064 1118.0014019012451 991.00033044815063 587.00031042098999 613.00117158889771 740.00079107284546 602.00003004074097 876.00041055679321 592.00015020370483 622.00001001358032 591.00012016296387 738.00006008148193
leaf_count=630 876 695 607 1090 969 1062 673 590 604 631 587 602 653 822 586 746 1118 991 587 613 740 602 876 592 622 591 738
internal_value=0 0.00191735 0.00253005 0.00337454 0.0017162 0.00487675 -0.000277582 -0.000856946 0.00334342 -0.000969914 -0.00076897 -0.000250255 0.000793893 -0.000508067 -0.00177875 -0.00212973 -0.00121774 -0.00102755 -0.000807052 -0.000435785 -0.000896585 -0.00195995 -0.00116214 -0.000982709 -0.00133255 -0.00158583 -0.00152083
internal_weight=0 6330.05 5635.05 4332.04 2059.02 2273.02 1303.01 14163 1211.01 13573 10872 5043.01 2351.01 1475 2701 2115 5829 4640 3649 2471 1858 1189 2692 2090 1214 1178 1484
internal_count=20493 6330 5635 4332 2059 2273 1303 14163 1211 13573 10872 5043 2351 1475 2701 2115 5829 4640 3649 2471 1858 1189 2692 2090 1214 1178 1484
is_linear=0
shrinkage=0.0659429


Tree=26
num_leaves=26
num_cat=0
split_feature=18 33 1 107 11 16 16 7 33 11 52 151 116 140 107 52 112 8 7 25 147 0 8 134 9
split_gain=6.81096 2.0369 2.50181 3.20237 1.70925 1.29811 0.77951 0.748925 0.625899 0.918312 1.34085 1.45283 1.07086 0.594638 0.334844 0.2983 0.190038 0.150509 0.136187 0.165217 0.119622 0.0645909 0.0587532 0.054028 0.04249
threshold=143.44500000000002 4990.9050000000007 202104.50000000003 9.5000000000000018 81.530000000000015 -543.9849999999999 -6800.5399999999991 145.84500000000003 18001.070000000003 983.15500000000009 14130.845000000003 19.500000000000004 703.74500000000012 9218.0450000000019 62.500000000000007 23399.435000000001 69676.200000000012 15209.570000000002 -1209.9999999999998 4734.7750000000005 -3695.1599999999994 862004000.00000012 1758.0400000000002 477907.47000000003 715.43000000000018
decision_type=2 2 2 2 2 2 2 2 2 2 2 8 8 10 2 2 10 2 2 2 8 2 2 10 2
left_child=1 2 3 -1 5 -2 -4 -7 9 10 11 12 13 -6 -11 -10 -16 20 -18 -20 22 23 -12 -21 -17
right_child=4 -3 6 -5 8 7 -8 -9 15 14 17 -13 -14 -15 16 24 18 -19 19 21 -22 -23 -24 -25 -26
leaf_value=0.0081244050975532705 -0.00083426631562937426 -0.00097361906345450023 -0.00043266128306818996 0.0022102929256507947 0.0021976643337443974 0.00096785520281611047 0.0025770725778747404 0.0042820550424072451 -0.0028045666148633131 -0.0025096711940015446 -0.0013545390398004733 0.0037816934039561121 -0.0014168395858099011 -0.00025228396035956852 -4.8313833574170325e-05 -0.0015988867959612753 -0.0020946232055830231 -9.855894363415843e-05 -0.00025194911963336052 -0.0018296141061231864 -0.0020882612187463662 -0.00077317851130295756 -0.00065849562415855366 -0.0011341313138551854 -0.00089997256621855725
leaf_weight=766.01068449020386 777.00323438644409 600.00228309631348 641.00590801239014 829.00676918029785 1049.0052571296692 590.00282382965088 899.00811100006104 596.00474643707275 829.00064086914062 783.0010814666748 1139.0001301765442 589.00361490249634 1112.0025434494019 731.00213289260864 716.00078105926514 754.0000901222229 642.0000901222229 585.00040054321289 854.00080108642578 1034.0001802444458 598.00025033950806 723.00048065185547 982.00031042098999 916.0002703666687 759.0001802444458
leaf_count=766 777 600 641 829 1049 590 899 596 829 783 1139 589 1112 731 716 754 642 585 854 1034 598 723 982 916 759
internal_value=0 0.00254644 0.00322013 0.00505056 -0.00056755 0.00126079 0.00132432 0.00263334 -0.000810135 -0.000624132 -0.000106567 0.000796562 0.000188593 0.00119154 -0.0012437 -0.00179916 -0.00104078 -0.00105808 -0.00121123 -0.00105043 -0.00126452 -0.00130553 -0.00103228 -0.00150292 -0.00124827
internal_weight=0 3735.03 3135.03 1595.02 16758 1963.01 1540.01 1186.01 14795 12453 6785.01 3481.01 2892.01 1780.01 5668 2342 4885 3304 4169 3527 2719 2673 2121 1950 1513
internal_count=20493 3735 3135 1595 16758 1963 1540 1186 14795 12453 6785 3481 2892 1780 5668 2342 4885 3304 4169 3527 2719 2673 2121 1950 1513
is_linear=0
shrinkage=0.0659429


Tree=27
num_leaves=29
num_cat=0
split_feature=107 52 33 151 1 145 127 127 149 139 33 22 56 52 147 6 7 52 120 51 5 58 52 18 147 52 120 74
split_gain=5.95919 3.56435 2.23534 2.39852 2.74757 2.69395 1.33872 1.18809 1.22188 0.769916 0.372625 0.497789 0.603838 1.08719 1.11193 0.258757 0.213974 0.277743 0.212526 0.337873 0.146843 0.164329 0.0956324 0.0923214 0.0496881 0.0534207 0.034554 0.0153436
threshold=48.500000000000007 16897.400000000005 12193.990000000002 4.5000000000000009 202104.50000000003 3.5000000000000004 565.50000000000011 2227.5000000000005 1434.5000000000002 12565.910000000002 5503.3450000000003 144936.60000000003 69.980000000000018 8431.2400000000016 -26741.314999999999 208.50000000000003 1238.9550000000002 16897.400000000005 433122.9150000001 1.0000000180025095e-35 59.500000000000007 927.81500000000017 115033.98500000002 17712.630000000001 -53355.159999999996 108808.06500000002 154836.00000000003 705.92500000000007
decision_type=2 2 2 8 2 8 10 10 10 8 2 2 2 2 8 2 2 2 10 2 2 2 2 2 10 2 8 2
left_child=1 2 3 7 5 -5 -6 8 -1 10 11 12 13 14 -2 16 17 -14 19 -12 21 -13 23 -15 -23 -26 -19 -21
right_child=9 -3 -4 4 6 -7 -8 -9 -10 -11 18 20 15 22 -16 -17 -18 26 -20 27 -22 24 -24 -25 25 -27 -28 -29
leaf_value=1.4592596499635732e-06 -0.0003025519156073861 -0.0027736194715492156 -0.0016236261275997179 0.0029382008543080078 0.0036216955074126695 0.0085911621178033151 -0.00052811853012018153 -0.00096755492402671596 0.0039372452606940226 0.0015458754873969797 -0.0031284289683215327 -0.00040151790013957995 -0.0027579899550595885 -0.0018562621661590668 0.0028413301938114317 0.00017669367607678067 -0.0004658797439201284 -0.00074022316634121037 -0.00043774008118558922 -0.0015089829420001832 -0.0021617049618365258 -0.00098125055731570088 -0.00025790205565936238 -0.00071683068842633428 -0.002170665617941157 -0.001294730217313934 -0.0014287823358126524 -0.0010861102409928051
leaf_weight=611.00421571731567 968.00246334075928 695.00052070617676 586.00266361236572 694.00651884078979 781.00818109512329 777.01012372970581 596.00454616546631 808.00493669509888 782.00641870498657 607.00195264816284 633.0003604888916 935.00073099136353 660.00107145309448 612.00004005432129 989.00473642349243 674.00100135803223 984.00145196914673 624.00022029876709 591.00039052963257 799.00001001358032 733.00025033950806 587.00021028518677 586.00034046173096 625.00017023086548 589.00014019012451 623 644.00004005432129 700.0000901222229
leaf_count=611 968 695 586 694 781 777 596 808 782 607 633 935 660 612 989 674 984 624 591 799 733 587 586 625 589 623 644 700
internal_value=0 0.00168203 0.00223156 0.00267901 0.0039425 0.00592417 0.00182556 0.00104409 0.00221093 -0.000751768 -0.00085465 -0.000681315 -0.000374641 0.000206887 0.00128626 -0.00098763 -0.00125712 -0.00166095 -0.00154424 -0.00185096 -0.00133288 -0.00111066 -0.000951828 -0.00128056 -0.00147923 -0.00172041 -0.00108993 -0.00131151
internal_weight=0 6330.05 5635.05 5049.04 2848.03 1471.02 1377.01 2201.02 1393.01 14163 13556 10833 7366.01 3780.01 1957.01 3586 2912 1928 2723 2132 3467 2734 1823 1237 1799 1212 1268 1499
internal_count=20493 6330 5635 5049 2848 1471 1377 2201 1393 14163 13556 10833 7366 3780 1957 3586 2912 1928 2723 2132 3467 2734 1823 1237 1799 1212 1268 1499
is_linear=0
shrinkage=0.0659429


Tree=28
num_leaves=27
num_cat=0
split_feature=18 118 9 120 11 7 135 1 33 11 51 74 112 10 107 52 7 112 107 7 25 153 63 0 32 153
split_gain=5.24368 1.78406 1.46236 1.63949 1.3778 1.13385 1.29547 0.822545 0.493928 0.744985 1.03148 1.43349 0.98039 0.80086 0.312375 0.238474 0.225215 0.162082 0.139161 0.116579 0.143581 0.102439 0.0619712 0.0747972 0.0428785 0.025393
threshold=143.44500000000002 37569.80000000001 835.06000000000006 91494.000000000015 81.530000000000015 1630.6200000000001 -1474.9999999999998 202104.50000000003 18001.070000000003 983.15500000000009 1.0000000180025095e-35 642.1450000000001 164689.20000000004 -566.16999999999985 62.500000000000007 23399.435000000001 1190.3650000000002 69676.200000000012 75.500000000000014 -1209.9999999999998 4734.7750000000005 1038.1050000000002 4.5000000000000009 827969559.50000012 1.5000000000000002 2821.0650000000001
decision_type=2 8 2 10 2 2 8 2 2 2 2 2 8 2 2 2 2 10 2 2 2 8 2 2 2 10
left_child=1 -1 -3 7 5 6 -2 -4 9 10 11 -6 -13 -14 -11 -10 18 -16 -12 -19 -21 -20 23 -22 -17 -23
right_child=4 2 3 -5 8 -7 -8 -9 15 14 16 12 13 -15 17 24 -18 19 21 20 22 25 -24 -25 -26 -27
leaf_value=-0.0006480827760940893 -0.002273830148110393 0.0008165776507058698 0.0072510880000270636 0.001704825792047058 0.0028902354830754656 0.0033377060295341331 0.0019203151275614175 0.0038036912050905336 -0.0024933256376585425 -0.0023313521662099647 -0.0018703784566573255 -0.0015848279012157711 -0.00066521321133323238 0.0026233955640378921 3.9639980420578252e-06 -0.0007510038764027044 0.00027119302045168687 -0.0018873407499776381 -0.00011245614009199375 -0.00017687539226721242 -0.0012361277202360664 -0.0014400628922245119 -0.0015784086200999197 -0.00031565558289305237 -0.0014531026511187546 -0.00088600385747489773
leaf_weight=747.00388526916504 591.00217294692993 949.00795078277588 595.00774049758911 835.00768041610718 961.00491666793823 673.00502681732178 699.00360488891602 609.00649881362915 829.00064086914062 783.0010814666748 798.00034046173096 1089.0030841827393 600.00154209136963 695.00370502471924 716.00078105926514 757.00021028518677 603.0005407333374 642.0000901222229 592.0003604888916 854.00080108642578 1113.000340461731 669.00004005432129 974.00013017654419 586.00046062469482 756.00006008148193 778.00011014938354
leaf_count=747 591 949 595 835 961 673 699 609 829 783 798 1089 600 695 716 757 603 642 592 854 1113 669 974 586 756 778
internal_value=0 0.00223433 0.00295493 0.00395016 -0.000497987 0.00114353 -1.1871e-06 0.00550735 -0.000715785 -0.000550551 -8.43818e-05 0.000740143 -0.000126569 0.00109972 -0.00110859 -0.00159437 -0.000886139 -0.000912598 -0.00113213 -0.00107001 -0.000921238 -0.000843201 -0.00115905 -0.000918649 -0.00110182 -0.00114217
internal_weight=0 3735.03 2988.03 2039.02 16758 1963.01 1290.01 1204.01 14795 12453 6785.01 3345.01 2384.01 1295.01 5668 2342 3440 4885 2837 4169 3527 2039 2673 1699 1513 1447
internal_count=20493 3735 2988 2039 16758 1963 1290 1204 14795 12453 6785 3345 2384 1295 5668 2342 3440 4885 2837 4169 3527 2039 2673 1699 1513 1447
is_linear=0
shrinkage=0.0659429


Tree=29
num_leaves=28
num_cat=0
split_feature=107 33 52 10 1 8 16 107 7 153 131 113 107 8 107 151 118 74 57 81 113 18 18 25 28 52 0
split_gain=4.62844 2.88987 3.10029 2.48976 1.72311 3.09141 1.56874 1.5174 0.970238 0.699733 0.34045 0.377478 0.52866 1.49262 0.372683 0.291489 0.200634 0.241225 0.182066 0.410246 0.322646 0.322478 0.144146 0.12654 0.162685 0.11824 0.0747853
threshold=48.500000000000007 23056.145 16897.400000000005 -750.20499999999993 202104.50000000003 18358.325000000004 -4135.5299999999997 9.5000000000000018 1837.0600000000002 74679.045000000013 568.90500000000009 -1947.4999999999998 79.500000000000014 16524.475000000002 76.500000000000014 22.500000000000004 41019.910000000011 615.86500000000012 1.5000000000000002 13654.250000000002 -987.99999999999989 17359.160000000003 9943.9550000000017 33230.235000000008 35571.555000000008 80153.435000000012 798714428.50000012
decision_type=2 2 2 2 2 2 2 2 2 8 8 10 2 2 2 8 8 2 2 2 10 2 2 2 2 2 2
left_child=1 2 3 -1 6 7 -5 -6 -8 10 11 25 13 -13 -12 18 17 -16 19 -14 -21 -20 -19 24 -23 -2 -24
right_child=9 -3 -4 4 5 -7 8 -9 -10 -11 14 12 15 -15 16 -17 -18 22 21 20 -22 23 26 -25 -26 -27 -28
leaf_value=-0.0010605008207576539 -0.0021825890591322104 -0.0029288911619904639 -0.002463893562351984 0.0070240611614817133 0.0010856701146122292 -0.0016365919700219178 0.0045625056552453733 0.005452244121760345 0.0011796313316314636 0.0015606111882657081 -0.002723770760499955 0.0022923902727407745 -0.0015875766907656413 -0.0015697463613479491 -0.00018965093612690202 0.00056630730127910545 -0.00012651867295547682 -0.0024616838627160745 -0.002301801018635044 -0.00073648564808816977 0.0012087585527967163 0.00034926068553537212 -0.0016061297111699424 -0.0013841791820357735 -0.0010685363970036024 -0.00090289024485852142 -0.00067388294321847001
leaf_weight=744.00378513336182 675.00077104568481 586.00214290618896 622.00046062469482 671.00908231735229 607.0062084197998 762.00531721115112 916.00879192352295 805.0075101852417 617.00482654571533 590.00198268890381 626.00073099136353 1018.0035548210144 792.00044059753418 760.00100135803223 704.00056076049805 750.00123167037964 899.00093126296997 602.00030040740967 790.00058078765869 716.00065088272095 769.00124168395996 694.00070095062256 1026.0001401901245 862.00011014938354 714.00030040740967 587.00014019012451 589.00030040740967
leaf_count=744 675 586 622 671 607 762 916 805 617 590 626 1018 792 760 704 750 899 602 790 716 769 694 1026 862 714 587 589
internal_value=0 0.00148237 0.0019324 0.00246627 0.00306561 0.00174838 0.0043649 0.00357511 0.00320097 -0.000662533 -0.00075917 -0.000528667 -0.000358792 0.000641535 -0.00123236 -0.000650986 -0.000987956 -0.00125308 -0.00082205 -0.000375559 0.00027085 -0.00115429 -0.00159077 -0.000754938 -0.000369707 -0.00158736 -0.00126613
internal_weight=0 6330.05 5744.05 5122.05 4378.04 2174.02 2204.02 1412.01 1533.01 14163 13573 9127.01 7865.01 1778 4446 6087.01 3820 2921 5337 2277 1485 3060 2217 2270 1408 1262 1615
internal_count=20493 6330 5744 5122 4378 2174 2204 1412 1533 14163 13573 9127 7865 1778 4446 6087 3820 2921 5337 2277 1485 3060 2217 2270 1408 1262 1615
is_linear=0
shrinkage=0.0659429


Tree=30
num_leaves=28
num_cat=0
split_feature=18 153 11 16 149 8 22 33 11 51 5 134 113 112 5 107 107 7 39 72 52 107 8 153 107 0 0
split_gain=4.10728 1.47093 1.08335 1.08616 1.07477 1.22663 0.646825 0.40436 0.611957 0.831672 1.24335 0.796898 0.589113 0.471227 0.293692 0.271376 0.211947 0.196836 0.155556 0.241765 0.39138 0.123763 0.100083 0.0865742 0.0567718 0.0549417 0.0239349
threshold=143.44500000000002 3829.8450000000007 81.530000000000015 -543.9849999999999 1331.5000000000002 11790.865000000002 1216.7900000000002 18001.070000000003 983.15500000000009 1.0000000180025095e-35 37.500000000000007 477907.47000000003 -1444.9999999999998 139352.40000000002 47.500000000000007 56.500000000000007 93.500000000000014 1190.3650000000002 13018.225000000002 533.71500000000015 57822.445000000007 75.500000000000014 21847.640000000003 1038.1050000000002 138.50000000000003 746506964.00000012 911552396.00000012
decision_type=2 10 2 2 8 2 2 2 2 2 2 8 10 10 2 2 2 2 2 2 2 2 2 8 2 2 2
left_child=1 4 3 -2 -1 -6 -5 8 9 10 -4 12 -12 -14 -7 -10 -9 21 19 20 -17 -11 -18 -23 -20 -22 -25
right_child=2 -3 7 6 5 14 -8 16 15 17 11 -13 13 -15 -16 18 22 -19 24 -21 25 23 -24 26 -26 -27 -28
leaf_value=0.00054188179419104303 -0.0009015489909059021 -0.00078638003582124098 0.0031610574522484632 0.0038207673082734039 0.0049672804963813927 0.00083019740214998168 0.00074072088753725565 -0.0024551242737037293 -0.002250263759120851 -0.0017079607076412472 -0.0023131715068044952 0.0020581465430506915 -0.00091129943791110437 0.0015392621969426165 0.0029135251496557463 0.0008115628467564622 -0.0015209445237130575 0.00030017940780678902 -0.0019256547881832144 -0.0014946108761590454 -0.0011531540622231635 -6.7497080710100503e-05 -0.00050864309584167089 -0.00079222468657123271 -0.0010167861747663008 -0.00043313306369570278 -0.0013382749630101163
