tree
version=v4
num_class=1
num_tree_per_iteration=1
label_index=0
max_feature_idx=483
objective=regression
feature_names=numero_de_cliente foto_mes active_quarter cliente_vip internet cliente_edad cliente_antiguedad cproductos tcuentas ccuenta_corriente ccaja_ahorro cdescubierto_preacordado ctarjeta_debito ctarjeta_debito_transacciones ccaja_seguridad cpayroll_trx cpayroll2_trx ccuenta_debitos_automaticos ccajeros_propios_descuentos ctarjeta_visa_descuentos ctarjeta_master_descuentos ccomisiones_mantenimiento ccomisiones_otras cforex cforex_buy cforex_sell ctransferencias_recibidas ctransferencias_emitidas cextraccion_autoservicio ccheques_depositados ccheques_emitidos ccheques_depositados_rechazados ccheques_emitidos_rechazados tcallcenter ccallcenter_transacciones thomebanking chomebanking_transacciones ccajas_transacciones ccajas_consultas ccajas_depositos ccajas_extracciones ccajas_otras catm_trx catm_trx_other ctrx_quarter tmobile_app cmobile_app_trx Master_delinquency Master_status Master_Fvencimiento Master_Finiciomora Master_fultimo_cierre Master_fechaalta Master_cconsumos Visa_delinquency Visa_status Visa_Fvencimiento Visa_Finiciomora Visa_fultimo_cierre Visa_fechaalta Visa_cconsumos ctarjeta ctarjeta_transacciones cprestamos cinversion cseguro ctarjeta_debitos_automaticos cpagos Tarjeta_cadelantosefectivo mrentabilidad_n10 mrentabilidad_annual_n10 mcomisiones_n10 mactivos_margen_n10 mpasivos_margen_n10 mcuenta_corriente_adicional_n10 mcuenta_corriente_n10 mcaja_ahorro_n10 mcaja_ahorro_adicional_n10 mcaja_ahorro_dolares_n10 mcuentas_saldo_n10 mautoservicio_n10 mpayroll_n10 mpayroll2_n10 mcuenta_debitos_automaticos_n10 mcajeros_propios_descuentos_n10 mtarjeta_visa_descuentos_n10 mtarjeta_master_descuentos_n10 mcomisiones_mantenimiento_n10 mcomisiones_otras_n10 mforex_buy_n10 mforex_sell_n10 mtransferencias_recibidas_n10 mtransferencias_emitidas_n10 mextraccion_autoservicio_n10 mcheques_depositados_n10 mcheques_emitidos_n10 mcheques_depositados_rechazados_n10 mcheques_emitidos_rechazados_n10 matm_n10 matm_other_n10 Master_mfinanciacion_limite_n10 Visa_mfinanciacion_limite_n10 mtarjeta_consumo_n10 mprestamos_n10 minversion_pesos_n10 minversion_dolares_n10 mtarjeta_debitos_automaticos_n10 mpagos_n10 Tarjeta_msaldopesos_n10 Tarjeta_msaldodolares_n10 Tarjeta_msaldototal_n10 Tarjeta_mconsumospesos_n10 Tarjeta_mconsumosdolares_n10 Tarjeta_mlimitecompra_n10 Tarjeta_madelantopesos_n10 Tarjeta_madelantodolares_n10 Tarjeta_mpagado_n10 Tarjeta_mpagospesos_n10 Tarjeta_mpagosdolares_n10 Tarjeta_mconsumototal_n10 Tarjeta_mpagominimo_n10 numero_de_cliente_lag1 numero_de_cliente_lag2 numero_de_cliente_lag3 foto_mes_lag1 foto_mes_lag2 foto_mes_lag3 active_quarter_lag1 active_quarter_lag2 active_quarter_lag3 cliente_vip_lag1 cliente_vip_lag2 cliente_vip_lag3 internet_lag1 internet_lag2 internet_lag3 cliente_edad_lag1 cliente_edad_lag2 cliente_edad_lag3 cliente_antiguedad_lag1 cliente_antiguedad_lag2 cliente_antiguedad_lag3 cproductos_lag1 cproductos_lag2 cproductos_lag3 tcuentas_lag1 tcuentas_lag2 tcuentas_lag3 ccuenta_corriente_lag1 ccuenta_corriente_lag2 ccuenta_corriente_lag3 ccaja_ahorro_lag1 ccaja_ahorro_lag2 ccaja_ahorro_lag3 cdescubierto_preacordado_lag1 cdescubierto_preacordado_lag2 cdescubierto_preacordado_lag3 ctarjeta_debito_lag1 ctarjeta_debito_lag2 ctarjeta_debito_lag3 ctarjeta_debito_transacciones_lag1 ctarjeta_debito_transacciones_lag2 ctarjeta_debito_transacciones_lag3 ccaja_seguridad_lag1 ccaja_seguridad_lag2 ccaja_seguridad_lag3 cpayroll_trx_lag1 cpayroll_trx_lag2 cpayroll_trx_lag3 cpayroll2_trx_lag1 cpayroll2_trx_lag2 cpayroll2_trx_lag3 ccuenta_debitos_automaticos_lag1 ccuenta_debitos_automaticos_lag2 ccuenta_debitos_automaticos_lag3 ccajeros_propios_descuentos_lag1 ccajeros_propios_descuentos_lag2 ccajeros_propios_descuentos_lag3 ctarjeta_visa_descuentos_lag1 ctarjeta_visa_descuentos_lag2 ctarjeta_visa_descuentos_lag3 ctarjeta_master_descuentos_lag1 ctarjeta_master_descuentos_lag2 ctarjeta_master_descuentos_lag3 ccomisiones_mantenimiento_lag1 ccomisiones_mantenimiento_lag2 ccomisiones_mantenimiento_lag3 ccomisiones_otras_lag1 ccomisiones_otras_lag2 ccomisiones_otras_lag3 cforex_lag1 cforex_lag2 cforex_lag3 cforex_buy_lag1 cforex_buy_lag2 cforex_buy_lag3 cforex_sell_lag1 cforex_sell_lag2 cforex_sell_lag3 ctransferencias_recibidas_lag1 ctransferencias_recibidas_lag2 ctransferencias_recibidas_lag3 ctransferencias_emitidas_lag1 ctransferencias_emitidas_lag2 ctransferencias_emitidas_lag3 cextraccion_autoservicio_lag1 cextraccion_autoservicio_lag2 cextraccion_autoservicio_lag3 ccheques_depositados_lag1 ccheques_depositados_lag2 ccheques_depositados_lag3 ccheques_emitidos_lag1 ccheques_emitidos_lag2 ccheques_emitidos_lag3 ccheques_depositados_rechazados_lag1 ccheques_depositados_rechazados_lag2 ccheques_depositados_rechazados_lag3 ccheques_emitidos_rechazados_lag1 ccheques_emitidos_rechazados_lag2 ccheques_emitidos_rechazados_lag3 tcallcenter_lag1 tcallcenter_lag2 tcallcenter_lag3 ccallcenter_transacciones_lag1 ccallcenter_transacciones_lag2 ccallcenter_transacciones_lag3 thomebanking_lag1 thomebanking_lag2 thomebanking_lag3 chomebanking_transacciones_lag1 chomebanking_transacciones_lag2 chomebanking_transacciones_lag3 ccajas_transacciones_lag1 ccajas_transacciones_lag2 ccajas_transacciones_lag3 ccajas_consultas_lag1 ccajas_consultas_lag2 ccajas_consultas_lag3 ccajas_depositos_lag1 ccajas_depositos_lag2 ccajas_depositos_lag3 ccajas_extracciones_lag1 ccajas_extracciones_lag2 ccajas_extracciones_lag3 ccajas_otras_lag1 ccajas_otras_lag2 ccajas_otras_lag3 catm_trx_lag1 catm_trx_lag2 catm_trx_lag3 catm_trx_other_lag1 catm_trx_other_lag2 catm_trx_other_lag3 ctrx_quarter_lag1 ctrx_quarter_lag2 ctrx_quarter_lag3 tmobile_app_lag1 tmobile_app_lag2 tmobile_app_lag3 cmobile_app_trx_lag1 cmobile_app_trx_lag2 cmobile_app_trx_lag3 Master_delinquency_lag1 Master_delinquency_lag2 Master_delinquency_lag3 Master_status_lag1 Master_status_lag2 Master_status_lag3 Master_Fvencimiento_lag1 Master_Fvencimiento_lag2 Master_Fvencimiento_lag3 Master_Finiciomora_lag1 Master_Finiciomora_lag2 Master_Finiciomora_lag3 Master_fultimo_cierre_lag1 Master_fultimo_cierre_lag2 Master_fultimo_cierre_lag3 Master_fechaalta_lag1 Master_fechaalta_lag2 Master_fechaalta_lag3 Master_cconsumos_lag1 Master_cconsumos_lag2 Master_cconsumos_lag3 Visa_delinquency_lag1 Visa_delinquency_lag2 Visa_delinquency_lag3 Visa_status_lag1 Visa_status_lag2 Visa_status_lag3 Visa_Fvencimiento_lag1 Visa_Fvencimiento_lag2 Visa_Fvencimiento_lag3 Visa_Finiciomora_lag1 Visa_Finiciomora_lag2 Visa_Finiciomora_lag3 Visa_fultimo_cierre_lag1 Visa_fultimo_cierre_lag2 Visa_fultimo_cierre_lag3 Visa_fechaalta_lag1 Visa_fechaalta_lag2 Visa_fechaalta_lag3 Visa_cconsumos_lag1 Visa_cconsumos_lag2 Visa_cconsumos_lag3 ctarjeta_lag1 ctarjeta_lag2 ctarjeta_lag3 ctarjeta_transacciones_lag1 ctarjeta_transacciones_lag2 ctarjeta_transacciones_lag3 cprestamos_lag1 cprestamos_lag2 cprestamos_lag3 cinversion_lag1 cinversion_lag2 cinversion_lag3 cseguro_lag1 cseguro_lag2 cseguro_lag3 ctarjeta_debitos_automaticos_lag1 ctarjeta_debitos_automaticos_lag2 ctarjeta_debitos_automaticos_lag3 cpagos_lag1 cpagos_lag2 cpagos_lag3 Tarjeta_cadelantosefectivo_lag1 Tarjeta_cadelantosefectivo_lag2 Tarjeta_cadelantosefectivo_lag3 mrentabilidad_n10_lag1 mrentabilidad_n10_lag2 mrentabilidad_n10_lag3 mrentabilidad_annual_n10_lag1 mrentabilidad_annual_n10_lag2 mrentabilidad_annual_n10_lag3 mcomisiones_n10_lag1 mcomisiones_n10_lag2 mcomisiones_n10_lag3 mactivos_margen_n10_lag1 mactivos_margen_n10_lag2 mactivos_margen_n10_lag3 mpasivos_margen_n10_lag1 mpasivos_margen_n10_lag2 mpasivos_margen_n10_lag3 mcuenta_corriente_adicional_n10_lag1 mcuenta_corriente_adicional_n10_lag2 mcuenta_corriente_adicional_n10_lag3 mcuenta_corriente_n10_lag1 mcuenta_corriente_n10_lag2 mcuenta_corriente_n10_lag3 mcaja_ahorro_n10_lag1 mcaja_ahorro_n10_lag2 mcaja_ahorro_n10_lag3 mcaja_ahorro_adicional_n10_lag1 mcaja_ahorro_adicional_n10_lag2 mcaja_ahorro_adicional_n10_lag3 mcaja_ahorro_dolares_n10_lag1 mcaja_ahorro_dolares_n10_lag2 mcaja_ahorro_dolares_n10_lag3 mcuentas_saldo_n10_lag1 mcuentas_saldo_n10_lag2 mcuentas_saldo_n10_lag3 mautoservicio_n10_lag1 mautoservicio_n10_lag2 mautoservicio_n10_lag3 mpayroll_n10_lag1 mpayroll_n10_lag2 mpayroll_n10_lag3 mpayroll2_n10_lag1 mpayroll2_n10_lag2 mpayroll2_n10_lag3 mcuenta_debitos_automaticos_n10_lag1 mcuenta_debitos_automaticos_n10_lag2 mcuenta_debitos_automaticos_n10_lag3 mcajeros_propios_descuentos_n10_lag1 mcajeros_propios_descuentos_n10_lag2 mcajeros_propios_descuentos_n10_lag3 mtarjeta_visa_descuentos_n10_lag1 mtarjeta_visa_descuentos_n10_lag2 mtarjeta_visa_descuentos_n10_lag3 mtarjeta_master_descuentos_n10_lag1 mtarjeta_master_descuentos_n10_lag2 mtarjeta_master_descuentos_n10_lag3 mcomisiones_mantenimiento_n10_lag1 mcomisiones_mantenimiento_n10_lag2 mcomisiones_mantenimiento_n10_lag3 mcomisiones_otras_n10_lag1 mcomisiones_otras_n10_lag2 mcomisiones_otras_n10_lag3 mforex_buy_n10_lag1 mforex_buy_n10_lag2 mforex_buy_n10_lag3 mforex_sell_n10_lag1 mforex_sell_n10_lag2 mforex_sell_n10_lag3 mtransferencias_recibidas_n10_lag1 mtransferencias_recibidas_n10_lag2 mtransferencias_recibidas_n10_lag3 mtransferencias_emitidas_n10_lag1 mtransferencias_emitidas_n10_lag2 mtransferencias_emitidas_n10_lag3 mextraccion_autoservicio_n10_lag1 mextraccion_autoservicio_n10_lag2 mextraccion_autoservicio_n10_lag3 mcheques_depositados_n10_lag1 mcheques_depositados_n10_lag2 mcheques_depositados_n10_lag3 mcheques_emitidos_n10_lag1 mcheques_emitidos_n10_lag2 mcheques_emitidos_n10_lag3 mcheques_depositados_rechazados_n10_lag1 mcheques_depositados_rechazados_n10_lag2 mcheques_depositados_rechazados_n10_lag3 mcheques_emitidos_rechazados_n10_lag1 mcheques_emitidos_rechazados_n10_lag2 mcheques_emitidos_rechazados_n10_lag3 matm_n10_lag1 matm_n10_lag2 matm_n10_lag3 matm_other_n10_lag1 matm_other_n10_lag2 matm_other_n10_lag3 Master_mfinanciacion_limite_n10_lag1 Master_mfinanciacion_limite_n10_lag2 Master_mfinanciacion_limite_n10_lag3 Visa_mfinanciacion_limite_n10_lag1 Visa_mfinanciacion_limite_n10_lag2 Visa_mfinanciacion_limite_n10_lag3 mtarjeta_consumo_n10_lag1 mtarjeta_consumo_n10_lag2 mtarjeta_consumo_n10_lag3 mprestamos_n10_lag1 mprestamos_n10_lag2 mprestamos_n10_lag3 minversion_pesos_n10_lag1 minversion_pesos_n10_lag2 minversion_pesos_n10_lag3 minversion_dolares_n10_lag1 minversion_dolares_n10_lag2 minversion_dolares_n10_lag3 mtarjeta_debitos_automaticos_n10_lag1 mtarjeta_debitos_automaticos_n10_lag2 mtarjeta_debitos_automaticos_n10_lag3 mpagos_n10_lag1 mpagos_n10_lag2 mpagos_n10_lag3 Tarjeta_msaldopesos_n10_lag1 Tarjeta_msaldopesos_n10_lag2 Tarjeta_msaldopesos_n10_lag3 Tarjeta_msaldodolares_n10_lag1 Tarjeta_msaldodolares_n10_lag2 Tarjeta_msaldodolares_n10_lag3 Tarjeta_msaldototal_n10_lag1 Tarjeta_msaldototal_n10_lag2 Tarjeta_msaldototal_n10_lag3 Tarjeta_mconsumospesos_n10_lag1 Tarjeta_mconsumospesos_n10_lag2 Tarjeta_mconsumospesos_n10_lag3 Tarjeta_mconsumosdolares_n10_lag1 Tarjeta_mconsumosdolares_n10_lag2 Tarjeta_mconsumosdolares_n10_lag3 Tarjeta_mlimitecompra_n10_lag1 Tarjeta_mlimitecompra_n10_lag2 Tarjeta_mlimitecompra_n10_lag3 Tarjeta_madelantopesos_n10_lag1 Tarjeta_madelantopesos_n10_lag2 Tarjeta_madelantopesos_n10_lag3 Tarjeta_madelantodolares_n10_lag1 Tarjeta_madelantodolares_n10_lag2 Tarjeta_madelantodolares_n10_lag3 Tarjeta_mpagado_n10_lag1 Tarjeta_mpagado_n10_lag2 Tarjeta_mpagado_n10_lag3 Tarjeta_mpagospesos_n10_lag1 Tarjeta_mpagospesos_n10_lag2 Tarjeta_mpagospesos_n10_lag3 Tarjeta_mpagosdolares_n10_lag1 Tarjeta_mpagosdolares_n10_lag2 Tarjeta_mpagosdolares_n10_lag3 Tarjeta_mconsumototal_n10_lag1 Tarjeta_mconsumototal_n10_lag2 Tarjeta_mconsumototal_n10_lag3 Tarjeta_mpagominimo_n10_lag1 Tarjeta_mpagominimo_n10_lag2 Tarjeta_mpagominimo_n10_lag3
feature_infos=[249296729:1595014154] [202104:202105] [0:1] none [0:3] [19:102] [1:377] [3:17] none none [2:7] [0:1] [0:9] [0:173] [0:6] [0:43] none [0:75] [0:11] [0:9] [0:21] [0:18] [0:385] [0:6] none [0:6] [0:323] [0:86] [0:157] [0:140] [0:138] none none [0:1] [0:46] [0:1] [0:1391] [0:1] [0:70] none [0:13] [0:67] [0:157] [0:41] [0:1612] [0:1] [0:1] [0:1] [0:9] [-2251:2193] none [2:187] [1:7663] [0:184] [0:1] [0:9] [-2914148:4688] [0:208] [2:1808] [1:12295] [0:108] [0:4] [0:280] [0:343] [0:68] [0:6] [0:49] [0:99] none [1:10] [1:10] [1:10] [1:10] [1:10] [1:10] [1:10] [1:10] [1:10] [1:10] [1:10] [1:10] [1:10] [1:10] [1:10] [1:10] [1:10] [1:10] [1:10] [1:10] [1:10] [1:10] [1:10] [1:10] [1:10] [1:10] [1:10] [1:10] [1:10] [1:10] [1:10] [1:10] [1:10] [1:10] [1:10] [1:10] [1:10] [1:10] [1:10] [1:10] [1:10] [1:10] [1:10] [1:10] [1:10] [1:10] [1:10] [1:10] [1:10] [1:10] [1:10] [1:10] [249296729:1592771867] [249296729:1588280650] [249296729:1587119434] [201901:202104] [202006:202103] [202005:202102] [0:1] [0:1] [0:1] none [0:1] [0:1] [0:4] [0:3] [0:3] [19:102] [18:102] [18:102] [1:376] [1:375] [1:374] [3:17] [3:17] [3:16] none [1:2] [1:2] none [1:2] [1:2] [2:7] [2:7] [2:7] [0:1] [0:1] [0:1] [0:9] [0:9] [0:9] [0:173] [0:133] [0:128] [0:6] [0:6] [0:6] [0:38] [0:42] [0:33] none none [0:5] [0:53] [0:59] [0:39] [0:9] [0:11] [0:12] [0:14] [0:11] [0:23] [0:23] [0:23] [0:18] [0:7] [0:7] [0:16] [0:365] [0:369] [0:345] [0:6] [0:5] [0:8] none [0:5] [0:8] [0:4] [0:4] [0:5] [0:323] [0:335] [0:220] [0:116] [0:111] [0:127] [0:114] [0:62] [0:62] [0:177] [0:103] [0:140] [0:153] [0:133] [0:100] none [0:2] [0:4] none [0:7] [0:12] [0:1] [0:1] [0:1] [0:43] [0:50] [0:32] [0:1] [0:1] [0:1] [0:1557] [0:1527] [0:1555] [0:1] [0:1] [0:1] [0:22] [0:32] [0:16] [0:28] [0:23] [0:21] [0:12] [0:10] [0:5] [0:26] [0:40] [0:16] [0:114] [0:62] [0:54] [0:30] [0:29] [0:36] [0:1504] [0:1516] [0:1596] [0:1] [0:1] [0:1] [0:1] [0:1] [0:1] [0:1] [0:1] [0:1] [0:9] [0:9] [0:9] [-2251:2163] [-2251:2132] [-2221:2104] none none none [1:156] [-3:126] [-3:95] [1:7632] [1:7602] [3:7571] [0:131] [0:199] [0:140] [0:1] [0:1] [0:1] [0:9] [0:9] [0:9] [-2914178:4657] [-2914209:4627] [-2914237:4596] none none [0:112] [1:1771] [-3:39] [-3:25] [1:12265] [1:12234] [3:12206] [0:124] [0:153] [0:119] [0:4] [0:4] [0:4] [0:240] [0:288] [0:222] [0:341] [0:302] [0:285] [0:69] [0:67] [0:68] [0:6] [0:6] [0:6] [0:42] [0:50] [0:50] [0:81] [0:85] [0:74] none [0:14] [0:16] [1:10] [1:10] [1:10] [1:10] [1:10] [1:10] [1:10] [1:10] [1:10] [1:10] [1:10] [1:10] [1:10] [1:10] [1:10] [1:10] [1:10] [1:10] [1:10] [1:10] [1:10] [1:10] [1:10] [1:10] [1:10] [1:10] [1:10] [1:10] [1:10] [1:10] [1:10] [1:10] [1:10] [1:10] [1:10] [1:10] [1:10] [1:10] [1:10] [1:10] [1:10] [1:10] [1:10] [1:10] [1:10] [1:10] [1:10] [1:10] [1:10] [1:10] [1:10] [1:10] [1:10] [1:10] [1:10] [1:10] [1:10] [1:10] [1:10] [1:10] [1:10] [1:10] [1:10] [1:10] [1:10] [1:10] [1:10] [1:10] [1:10] [1:10] [1:10] [1:10] [1:10] [1:10] [1:10] [1:10] [1:10] [1:10] [1:10] [1:10] [1:10] [1:10] [1:10] [1:10] [1:10] [1:10] [1:10] [1:10] [1:10] [1:10] [1:10] [1:10] [1:10] [1:10] [1:10] [1:10] [1:10] [1:10] [1:10] [1:10] [1:10] [1:10] [1:10] [1:10] [1:10] [1:10] [1:10] [1:10] [1:10] [1:10] [1:10] [1:10] [1:10] [1:10] [1:10] [1:10] [1:10] [1:10] [1:10] [1:10] [1:10] [1:10] [1:10] [1:10] [1:10] [1:10] [1:10] [1:10] [1:10] [1:10] [1:10] [1:10] [1:10] [1:10] [1:10] [1:10] [1:10] [1:10] [1:10] [1:10] [1:10] [1:10] [1:10] [1:10] [1:10] [1:10] [1:10] [1:10] [1:10] [1:10] [1:10] [1:10] [1:10] [1:10] [1:10] [1:10]
tree_sizes=4711 4966 5128 5349 5295 5195 5246 5114 5205 5242 5327 4873 5246 5319 5167 5392 5399 5135 5253 5597 5143 5261 5160 5255 5169 5079 5410 5416 5160 5186 5272 5291 5202 5395 5074 5604 5206 5264 5184 4969 5607 4974 4980 5102 5210 5224 5320 5293 5327 5326 5213 5406 5123 5415 4991 5637 5099 5303 5323 5331 5511 5123 4982 5216 5007 5225 5206 5215 5240 5435 5435 5554 5426 5215 5318 5326 5545 5330 4967 5110 5213 5118 5564 5210 5570 5359 5218 5547 5345 4992 5094 5339 5205 5446 5211 5458 5203 5238 5227 5420

Tree=0
num_leaves=44
num_cat=0
split_feature=44 15 73 76 126 44 103 386 335 142 360 103 55 445 230 349 0 189 430 44 328 350 357 106 309 62 44 79 373 268 309 159 141 141 199 367 204 415 362 362 428 0 6
split_gain=218.749 27.7928 20.0279 18.0773 18.799 10.735 6.48351 5.34442 4.50486 3.7088 3.3936 2.69332 1.91381 1.80793 2.10718 1.50828 1.42795 1.38728 1.38644 1.23199 1.09205 0.96476 0.888976 0.521155 0.402356 0.382152 0.260177 0.212667 0.247122 0.195875 0.131736 0.0727577 0.0484368 0.054916 0.0714656 0.088665 0.0630823 0.02582 0.025533 0.0191027 0.00247952 3.55271e-15 3.55271e-15
threshold=27.500000000000004 1.0000000180025095e-35 3.5000000000000004 2.5000000000000004 202101.50000000003 8.5000000000000018 8.5000000000000018 4.5000000000000009 4.5000000000000009 5.5000000000000009 1.5000000000000002 3.5000000000000004 inf 5.5000000000000009 13.500000000000002 1.5000000000000002 868119188.50000012 6.5000000000000009 6.5000000000000009 15.500000000000002 5.5000000000000009 4.5000000000000009 4.5000000000000009 4.5000000000000009 41.500000000000007 1.0000000180025095e-35 51.500000000000007 7.5000000000000009 4.5000000000000009 -608.49999999999989 1.5000000000000002 1.5000000000000002 280.50000000000006 142.50000000000003 4.5000000000000009 5.5000000000000009 5.5000000000000009 2.5000000000000004 4.5000000000000009 4.5000000000000009 3.5000000000000004 776236447.50000012 43.500000000000007
decision_type=2 2 2 2 8 2 2 10 8 10 10 2 8 8 8 10 2 10 10 2 10 10 8 2 10 2 2 2 10 10 8 10 10 8 10 10 10 10 10 8 10 2 2
left_child=3 2 6 4 5 9 8 18 22 -1 -6 -7 25 14 -10 16 -12 21 20 -5 -4 -9 -2 -19 27 -3 -27 28 -25 -30 -28 -29 33 34 36 -36 37 -32 -39 -35 -40 -41 -42
right_child=1 12 7 19 10 11 -8 17 13 -11 15 -13 -14 -15 -16 -17 -18 23 -20 -21 -22 -23 -24 24 -26 26 30 31 29 -31 32 -33 -34 39 35 -37 -38 38 40 41 42 -43 -44
leaf_value=0.12783926925760775 0.11284003785566483 0.098763791913485152 0.10693104616746803 0.10902158418501233 0.10818344625833229 0.11819382789895622 0.10022373040194707 0.10278705232907605 0.1044939483986573 0.12058788437912325 0.11232766252996677 0.1118073205178365 0.10160077858284408 0.10315961074314196 0.11004266663750623 0.1104232653787427 0.11726728659450092 0.10031929064153819 0.10069441898054965 0.10491160175117659 0.10272302387426006 0.099344407685318936 0.10893979967283911 0.099354049413783188 0.099936086703729915 0.09867500663133684 0.098267260900274545 0.096928893487689238 0.097159231875926108 0.098873665870059732 0.097528666748234974 0.097944729088836738 0.097818694021609295 0.097333852669336224 0.097205064636451594 0.098368508460532147 0.097801950496717138 0.097404757609687476 0.097089993325290253 0.09692889348947413 0.096928893487682383 0.096928893489588761 0.096928893489340973
leaf_weight=380.00550746917725 347.00297403335571 590.0005407333374 368.00174236297607 376.00254344940186 606.00574779510498 392.00455617904663 460.00076103210449 462.00141191482544 415.00215291976929 453.00543737411499 348.00351476669312 382.00295400619507 336.00078105926514 556.0020227432251 388.00259351730347 357.0029239654541 338.00375509262085 463.00093126296997 345.00079107284546 495.00210285186768 355.00116157531738 493.00069093704224 338.00251340866089 558.00075101852417 396.00055074691772 403.00034046173096 364.0001802444458 463.00008010864258 470.0002703666687 334.00034046173096 361.00011014938354 373.00019025802612 365.00014019012451 401.00007009506226 392.00006008148193 376.00021028518677 434.00015020370483 455.00008010864258 336.00005006790161 1918.0000200271606 346.00006008148193 374 1331.000030040741
leaf_count=380 347 590 368 376 606 392 460 462 415 453 348 382 336 556 388 357 338 463 345 495 355 493 338 558 396 403 364 463 470 334 361 373 365 401 392 376 434 455 336 1918 346 374 1331
internal_value=0.102476 0.0996674 0.102068 0.113612 0.115465 0.119631 0.10603 0.100115 0.107336 0.123896 0.111405 0.115042 0.0975946 0.105532 0.107175 0.113277 0.114761 0.099209 0.103518 0.106686 0.104865 0.10101 0.110916 0.0986464 0.0983479 0.0974352 0.0973354 0.0980617 0.0984789 0.0978714 0.097263 0.0973821 0.0972114 0.0971784 0.0973049 0.0977747 0.0971943 0.0971011 0.0970386 0.0969892 0.0969558 0.0969289 0.0969289
internal_weight=0 16366 7584.02 4127.04 3256.03 1607.02 2504.01 5080.01 2044.01 833.011 1649.02 774.008 8782 1359.01 803.005 1043.01 686.007 4012.01 1068 871.005 723.003 955.002 685.005 3057 2594 8446 7856 2198 1362 804.001 7453 836 7089 6724 4031 768 3263 2829 2468 2693 2013 2292 1677
internal_count=20493 16366 7584 4127 3256 1607 2504 5080 2044 833 1649 774 8782 1359 803 1043 686 4012 1068 871 723 955 685 3057 2594 8446 7856 2198 1362 804 7453 836 7089 6724 4031 768 3263 2829 2468 2693 2013 2292 1677
is_linear=0
shrinkage=1


Tree=1
num_leaves=45
num_cat=0
split_feature=253 15 76 73 126 79 186 336 62 336 285 286 342 253 62 56 73 189 62 143 371 395 184 184 62 104 73 80 113 411 278 389 87 96 398 75 161 201 141 204 141 415 200 307
split_gain=181.686 26.1779 21.3309 19.0215 16.2876 9.86364 6.66942 5.99045 5.18737 4.22033 3.04834 2.93893 2.64469 2.1657 2.10016 1.72115 1.31019 1.51845 1.004 0.666769 0.549925 0.55542 0.482088 0.314051 0.258917 0.119924 0.119428 0.0885449 0.0672074 0.0670658 0.149104 0.0426226 0.08456 0.0337337 0.0412602 0.0530253 0.0117055 0.0205554 6.21197e-05 0.000101719 4.8488e-05 2.17357e-05 1.427e-05 1.12557e-06
threshold=29.500000000000004 1.0000000180025095e-35 2.5000000000000004 3.5000000000000004 202101.50000000003 1.5000000000000002 1.0000000180025095e-35 5.5000000000000009 6.5000000000000009 2.5000000000000004 1.0000000180025095e-35 inf 1.5000000000000002 19.500000000000004 2.5000000000000004 inf 7.5000000000000009 6.5000000000000009 3.5000000000000004 7.5000000000000009 4.5000000000000009 6.5000000000000009 1.0000000180025095e-35 1.0000000180025095e-35 1.0000000180025095e-35 6.5000000000000009 7.5000000000000009 2.5000000000000004 5.5000000000000009 1.5000000000000002 2213.5000000000005 1.5000000000000002 4.5000000000000009 9.5000000000000018 3.5000000000000004 5.5000000000000009 4.5000000000000009 1.5000000000000002 142.50000000000003 5.5000000000000009 264.50000000000006 4.5000000000000009 2.5000000000000004 11.500000000000002
decision_type=8 2 2 2 8 2 8 10 2 10 8 8 10 10 2 8 2 8 2 10 10 10 10 10 2 2 2 2 2 8 10 8 2 2 8 2 8 8 8 10 8 10 10 10
left_child=2 3 4 6 5 11 8 16 -2 -7 12 -1 -6 -4 -8 22 17 -5 -9 -16 21 -20 24 -22 -3 28 -27 -26 -25 30 -29 32 -31 34 35 -33 37 -36 39 41 43 -38 -43 -40
right_child=1 15 13 7 10 9 14 18 -10 -11 -12 -13 -14 -15 19 -17 -18 -19 20 -21 23 -23 -24 25 27 26 -28 29 -30 31 -32 33 -34 -35 36 -37 38 -39 40 -41 -42 42 -44 -45
leaf_value=0.017342263524331568 0.010076814803955208 -0.0037332859742189315 0.0053412359993416344 0.0038203675892199847 0.012268064582614938 0.015758196303204571 0.00410708256156292 -0.00081503734601479983 0.0028780987974899681 0.0084503256224128902 0.0051323018153609946 0.024454046790244665 0.0067936296712325893 0.0002277830540877285 0.00075767037346758574 -0.00080451417815494998 -0.0015397223880301242 -0.0004669449704433283 -0.0016499486947333744 -0.0022295818456336556 -0.0028233174242549485 -0.0040733440892393238 -0.0027911672739760261 -0.0043539849787101381 -0.0041953935688833158 -0.0032623202974570377 -0.0047055360990105868 -0.0036560739693918078 -0.0052733725374089994 -0.0051518403202142548 -0.0052605104485480645 -0.0051668180631999818 -0.0040392816819878269 -0.0046960364419037443 -0.0047669467426597013 -0.0043551766991938527 -0.0052746257246749648 -0.0052765478266304034 -0.0052507558210132385 -0.005295702612416609 -0.005271921034070301 -0.0052544212894892681 -0.0052676485704073531 -0.0052469101758315685
leaf_weight=339.00402545928955 603.00533723831177 564.00046062469482 524.00309419631958 535.00258350372314 629.00673913955688 495.00545740127563 423.00253343582153 399.00110149383545 571.00278377532959 435.00382518768311 576.00536727905273 342.00495672225952 439.00374507904053 452.00159215927124 511.00183248519897 334.00079107284546 494.00107145309448 442.00123167037964 620.00116157531738 383.00073099136353 381.00046062469482 501.00041055679321 347.00041055679321 375.00023031234741 445.00023031234741 334.00037050247192 338.00013017654419 334.00021028518677 615.00021028518677 464.00004005432129 345 548.00002002716064 352.00016021728516 569.00014019012451 426.00010013580322 414.00014019012451 359.00001001358032 509.00003004074097 336.00001001358032 352 338.00001001358032 665.00002002716064 373.00003004074097 663
leaf_count=339 603 564 524 535 629 495 423 399 571 435 576 342 439 452 511 334 494 442 620 383 381 501 347 375 445 334 338 334 615 464 345 548 352 569 426 414 359 509 336 352 338 665 373 663
internal_value=0 -0.00259967 0.00999186 -0.00025958 0.0120964 0.0159643 0.0036091 -0.00217395 0.00657557 0.01234 0.0083061 0.0209138 0.0100178 0.00297312 0.000964724 -0.00461515 0.000732079 0.00188077 -0.00337372 -0.000522102 -0.00369638 -0.00273302 -0.00476662 -0.00422498 -0.00485171 -0.0045463 -0.00398822 -0.0049359 -0.00492512 -0.00498266 -0.00447129 -0.00503719 -0.00467191 -0.00509088 -0.00513596 -0.00481753 -0.00521215 -0.00504437 -0.00526298 -0.0052697 -0.0052542 -0.00526315 -0.00525917 -0.0052482
internal_weight=0 16262 4231.04 7525.02 3255.03 1611.02 2491.01 5034.01 1174.01 930.009 1644.02 681.009 1068.01 976.005 1317.01 8737 1471 977.004 3563 894.003 3164 1121 8403 2043 8056 1662 672.001 7492 990 7047 679 6368 816 5552 4983 962 4021 935 3086 1749 1337 1397 1038 999
internal_count=20493 16262 4231 7525 3255 1611 2491 5034 1174 930 1644 681 1068 976 1317 8737 1471 977 3563 894 3164 1121 8403 2043 8056 1662 672 7492 990 7047 679 6368 816 5552 4983 962 4021 935 3086 1749 1337 1397 1038 999
is_linear=0
shrinkage=0.0541285


Tree=2
num_leaves=46
num_cat=0
split_feature=44 81 126 44 73 103 48 103 350 117 299 189 330 291 44 81 73 73 392 184 120 304 108 73 249 458 206 102 406 279 481 400 360 124 6 290 172 278 88 161 161 138 26 6 60
split_gain=176.135 20.4598 13.9147 16.2308 12.3237 6.85598 5.92702 4.98247 4.18265 3.69007 3.47831 3.08096 2.52517 2.48383 2.09564 2.09261 1.9944 1.81559 1.47899 1.22785 1.19413 1.01214 0.807236 0.457242 0.459707 0.456906 0.421975 0.32694 0.286066 0.0906654 0.0835461 0.121578 0.183035 0.0931896 0.0829528 0.0370476 0.0647343 0.021672 0.00816007 0.000220918 8.64124e-05 2.40929e-05 2.27114e-05 2.15747e-05 5.0347e-06
threshold=27.500000000000004 4.5000000000000009 202101.50000000003 12.500000000000002 3.5000000000000004 3.5000000000000004 6.5000000000000009 8.5000000000000018 2.5000000000000004 6.5000000000000009 132.50000000000003 6.5000000000000009 5.5000000000000009 -1048.9999999999998 55.500000000000007 5.5000000000000009 7.5000000000000009 3.5000000000000004 3.5000000000000004 1.0000000180025095e-35 6.5000000000000009 1.0000000180025095e-35 6.5000000000000009 8.5000000000000018 1.0000000180025095e-35 7.5000000000000009 1.0000000180025095e-35 1.5000000000000002 5.5000000000000009 2449.5000000000005 5.5000000000000009 6.5000000000000009 6.5000000000000009 202103.50000000003 44.500000000000007 -804.99999999999989 1.0000000180025095e-35 2043.5000000000002 2.5000000000000004 3.5000000000000004 4.5000000000000009 53.500000000000007 2.5000000000000004 148.50000000000003 7.5000000000000009
decision_type=2 2 8 2 2 2 8 2 8 2 10 10 8 8 2 2 2 2 10 10 2 10 2 2 10 8 10 2 10 8 10 10 10 10 2 10 10 8 2 10 10 8 2 2 10
left_child=2 4 3 5 7 6 -1 9 10 14 -4 16 -11 -5 -2 17 20 -3 -12 22 -6 -17 -13 24 28 26 -19 -23 -21 30 31 32 -29 -33 -32 38 -37 40 -31 -40 -36 43 -42 -41 -45
right_child=1 15 8 13 11 -7 -8 -9 -10 12 18 19 -14 -15 -16 21 -18 25 -20 23 -22 27 -24 -25 -26 -27 -28 29 -30 35 34 33 -34 -35 37 36 -38 -39 39 41 42 -43 -44 44 -46
leaf_value=0.01481826824433082 0.0047740490178124241 0.00050325626930909672 0.0048234219573318774 0.005091691123915075 0.0031398811286479865 0.010848164681688779 0.023996784776913523 -0.0022463723247516014 0.0029063647396888638 0.0091028112542148112 0.012949898145151368 0.00076090761493055018 0.0036715351039832158 0.011077310190890029 -0.0006556741019555966 -0.001560369570016246 -0.0027842574517696413 -0.0038531061938283256 0.0086520152798215781 -0.0044347755395500168 -0.00083566399774276444 -0.003014040570276984 -0.0026719853879746437 -0.0047920043334370201 -0.0013642052612815418 -0.0048203172122045944 -0.0012896202113355406 -0.0028016035321685724 -0.0026833463933470547 -0.0047107919732092213 -0.0040736127058939387 -0.0050290609892464002 -0.0045493463981543386 -0.0040472493389581699 -0.0050303866605801119 -0.0040217857333352102 -0.0049109796340429182 -0.0045173010017840126 -0.0050275019023316202 -0.0049923913007905354 -0.0049910483174175667 -0.0049995788745028471 -0.0050090353069101382 -0.004982145744858512 -0.0049733535400521816
leaf_weight=369.00417566299438 359.00209283828735 471.00152206420898 532.00497674942017 509.00344467163086 580.00255346298218 342.00326442718506 467.0070595741272 427.00071096420288 561.00315427780151 516.00450611114502 371.00395536422729 369.00111150741577 488.00284385681152 338.00294399261475 496.00164222717285 341.00066089630127 443.00062084197998 399.0003604888916 638.00606822967529 577.00043058395386 358.00092124938965 375.00038051605225 440.00064086914062 642.00022029876709 355.00062084197998 452.0001802444458 356.00070095062256 363.00032043457031 519.0008111000061 336.00005006790161 460.00021028518677 584.00004005432129 340.00007009506226 550.00022029876709 375.00001001358032 387.00015020370483 631.00002002716064 336.00006008148193 532.00001001358032 531.00001001358032 460.00001001358032 374.00002002716064 372.00002002716064 427 345
leaf_count=369 359 471 532 509 580 342 467 427 561 516 371 369 488 338 496 341 443 399 638 577 358 375 440 642 355 452 356 363 519 336 460 584 340 550 375 387 631 336 532 531 460 374 372 427 345
internal_value=0 -0.00251996 0.00999305 0.0131952 -0.00018273 0.0173044 0.0199455 0.00302636 0.00690815 0.00423746 0.008365 -0.00189555 0.00646291 0.00748029 0.00162418 -0.0040871 0.000208937 -0.00234698 0.0102323 -0.00289703 0.00162256 -0.00444674 -0.00110618 -0.00358924 -0.00305707 -0.00345922 -0.00264436 -0.00457328 -0.0036054 -0.00465227 -0.0044698 -0.00420616 -0.00364688 -0.00455287 -0.00471159 -0.00484892 -0.00457295 -0.00490178 -0.00495931 -0.00499711 -0.00500881 -0.00498747 -0.00499909 -0.00498399 -0.00497822
internal_weight=0 16366 4127.04 2025.02 6569.02 1178.01 836.011 2286.01 2102.02 1859.01 1541.02 4283.01 1004.01 847.006 855.004 9797.01 1381 1678 1009.01 2902 938.003 8119 809.002 2093 1451 1207 755.001 7778 1096 7403 3840 1837 703 1134 2003 3563 1018 1543 2545 2209 1207 1677 832 1303 772
internal_count=20493 16366 4127 2025 6569 1178 836 2286 2102 1859 1541 4283 1004 847 855 9797 1381 1678 1009 2902 938 8119 809 2093 1451 1207 755 7778 1096 7403 3840 1837 703 1134 2003 3563 1018 1543 2545 2209 1207 1677 832 1303 772
is_linear=0
shrinkage=0.0541285


Tree=3
num_leaves=48
num_cat=0
split_feature=254 15 349 102 126 60 81 185 331 336 289 431 358 102 21 13 91 83 433 268 91 22 358 60 329 60 420 280 67 229 279 289 281 118 321 248 449 333 420 408 254 279 139 364 400 13 91
split_gain=137.114 21.214 16.9228 16.0042 12.3292 8.60011 7.7114 5.41958 5.35313 5.06442 4.20334 3.83068 2.79846 2.37012 2.06812 1.9718 1.65752 1.57477 1.37699 1.24991 1.19769 1.14689 1.08811 0.839767 0.539748 0.396101 0.696822 0.328036 0.392505 0.203357 0.0654026 0.0554202 0.0848409 0.113187 0.0534791 0.0805994 0.0933315 0.0153911 0.0110448 0.010079 0.00101945 0.000294424 7.74278e-05 5.55186e-05 5.2584e-05 1.50928e-05 1.04553e-06
threshold=31.500000000000004 1.0000000180025095e-35 1.5000000000000002 3.5000000000000004 202101.50000000003 8.5000000000000018 3.5000000000000004 1.0000000180025095e-35 5.5000000000000009 5.5000000000000009 -243.49999999999997 2.5000000000000004 6.5000000000000009 1.5000000000000002 1.0000000180025095e-35 1.0000000180025095e-35 5.5000000000000009 5.5000000000000009 4.5000000000000009 -1125.4999999999998 5.5000000000000009 6.5000000000000009 3.5000000000000004 42.500000000000007 5.5000000000000009 9.5000000000000018 4.5000000000000009 19.500000000000004 2.5000000000000004 80.500000000000014 230.50000000000003 -743.99999999999989 12.500000000000002 5.5000000000000009 1.0000000180025095e-35 1.0000000180025095e-35 4.5000000000000009 7.5000000000000009 2.5000000000000004 9.5000000000000018 68.500000000000014 2515.0000000000005 59.500000000000007 7.5000000000000009 6.5000000000000009 8.5000000000000018 5.5000000000000009
decision_type=8 2 10 2 8 8 2 10 8 10 8 10 10 2 2 2 2 2 10 8 2 2 10 8 8 8 10 8 2 10 8 10 8 2 8 10 10 10 8 10 10 8 10 10 10 2 2
left_child=2 3 4 8 5 -1 7 -4 15 12 18 -7 17 -10 23 -2 21 19 -6 -5 -15 -11 -9 30 -25 26 -23 29 -29 37 -3 34 -33 -34 35 -32 -37 -18 -36 40 -40 42 -42 -43 -44 -45 -47
right_child=1 14 6 9 10 11 -8 22 13 16 -12 -13 -14 20 -16 -17 27 -19 -20 -21 -22 25 -24 24 -26 -27 -28 28 -30 -31 31 32 33 -35 38 36 -38 -39 39 -41 41 43 44 45 -46 46 -48
leaf_value=0.0082169536282070653 0.0100006432733618 -0.0038260798518566382 0.010738741244654588 0.0016577902033805473 0.0079829690600492168 0.022214414332406448 -0.00043585968738644353 0.0058568645002713875 0.00540340950366927 0.00068313561841855874 0.0037955311972006243 0.014998485136520476 -0.0026806650516710043 0.0016597198954004366 -3.0653439543154145e-05 0.0047843880454342671 -0.0051445088992289664 -0.00032804528742304213 0.012672502530909529 0.0063059338791743094 -0.0023665698909356814 -0.0034233832052089938 0.0015132755104457357 -0.0039841684698916635 -0.001381651187470005 -0.0038898402906108694 -4.0954817272970275e-05 -0.0021170858433827663 -0.0043234215361914316 -0.0035252822184933938 -0.0047998745081417084 -0.0046629706639131465 -0.0044665313435488909 -0.0031147698398506355 -0.0044566212459860614 -0.0034162312335911113 -0.0044805334606043325 -0.0046431690013970985 -0.0048392148332607431 -0.0044465718158247384 -0.0047767642880703282 -0.0047396724463291086 -0.0047650456371854085 -0.00472433050983818 -0.004738130202992092 -0.0047091108839497674 -0.0047133874416682786
leaf_weight=348.00315427780151 382.00340461730957 442.00017023086548 613.00553750991821 339.00146198272705 373.00377511978149 396.00578784942627 586.00197267532349 342.00253343582153 343.00224304199219 502.00153207778931 485.00473642349243 473.00554752349854 451.00069093704224 570.0026535987854 351.00083112716675 478.00306415557861 389.0000901222229 392.00111150741577 361.00379514694214 339.00210285186768 349.0007209777832 351.00048065185547 334.00164222717285 490.0002703666687 446.00077104568481 368.00033044815063 363.00085115432739 590.000901222229 394.00019025802612 541.0004506111145 613.00005006790161 608.00002002716064 366.00006008148193 360.00022029876709 544.00008010864258 434.00023031234741 544.00007009506226 333.00011014938354 333.00001001358032 358.00005006790161 425.00004005432129 410.00002002716064 350.00001001358032 422.00001001358032 542.00001001358032 333 337
leaf_count=348 382 442 613 339 373 396 586 342 343 502 485 473 451 570 351 478 389 392 361 339 349 351 334 490 446 368 363 590 394 541 613 608 366 360 544 434 544 333 333 358 425 410 350 422 542 333 337
internal_value=0 -0.00228527 0.00857804 -0.000169817 0.0115534 0.0154073 0.0047125 0.00705302 0.00380805 -0.001747 0.00770571 0.0182868 0.000895554 0.00156377 -0.00410095 0.00710138 -0.00279616 0.00240291 0.0102894 0.00398186 0.000130696 -0.00145518 0.00371077 -0.0042719 -0.00274408 -0.00244726 -0.00170374 -0.00374147 -0.00300052 -0.00431874 -0.0044646 -0.00450504 -0.00419127 -0.00379624 -0.00457919 -0.00431325 -0.00400824 -0.00491328 -0.00468356 -0.00471874 -0.00474965 -0.00473907 -0.00475775 -0.00472269 -0.00474869 -0.00471631 -0.00471126
internal_weight=0 16182 4311.04 7474.02 2436.03 1217.01 1875.01 1289.01 2122.01 5352.01 1219.01 869.011 1521.01 1262.01 8708 860.006 3831 1070 734.008 678.004 919.003 1584 676.004 8357 936.001 1082 714.001 2247 984.001 1263 7421 6979 1334 726 5645 1591 978 722 4054 3510 3152 2819 1317 1502 892 1092 670
internal_count=20493 16182 4311 7474 2436 1217 1875 1289 2122 5352 1219 869 1521 1262 8708 860 3831 1070 734 678 919 1584 676 8357 936 1082 714 2247 984 1263 7421 6979 1334 726 5645 1591 978 722 4054 3510 3152 2819 1317 1502 892 1092 670
is_linear=0
shrinkage=0.0541285


Tree=4
num_leaves=48
num_cat=0
split_feature=44 15 73 76 126 103 359 103 336 336 337 120 346 476 477 54 464 144 332 369 303 91 102 390 142 123 0 136 279 88 471 278 268 412 352 376 159 44 92 279 253 44 482 291 364 299 6
split_gain=142.266 17.749 13.2727 12.4569 12.4582 8.28275 7.70069 5.04358 5.08764 4.45939 2.77087 2.17376 1.8283 1.45377 1.52186 1.35638 1.18946 1.14565 0.803658 0.754234 0.680672 0.423886 0.350967 0.33951 0.337935 0.197368 0.260113 0.170947 0.0839386 0.110099 0.0837257 0.0824975 0.0761714 0.073816 0.0655164 0.0902746 0.0398861 0.0492719 0.0206442 0.00258587 0.00128607 0.000874903 0.000258873 0.000180935 0.000112493 6.18439e-05 2.96244e-05
threshold=27.500000000000004 1.0000000180025095e-35 3.5000000000000004 2.5000000000000004 202101.50000000003 3.5000000000000004 1.5000000000000002 8.5000000000000018 7.5000000000000009 5.5000000000000009 9.5000000000000018 5.5000000000000009 4.5000000000000009 3.5000000000000004 2.5000000000000004 inf 6.5000000000000009 6.5000000000000009 5.5000000000000009 6.5000000000000009 29.500000000000004 5.5000000000000009 1.5000000000000002 3.5000000000000004 7.5000000000000009 545026773.00000012 347767123.00000006 65.500000000000014 2449.5000000000005 7.5000000000000009 6.5000000000000009 261.50000000000006 -668.99999999999989 1.5000000000000002 3.5000000000000004 5.5000000000000009 1.5000000000000002 138.50000000000003 8.5000000000000018 2854.5000000000005 73.500000000000014 83.500000000000014 4.5000000000000009 -788.99999999999989 7.5000000000000009 1371.5000000000002 150.50000000000003
decision_type=2 2 2 2 8 2 10 2 8 10 8 2 10 8 10 8 8 8 8 8 8 2 2 10 10 10 2 8 8 2 10 10 8 10 10 10 10 2 2 8 10 2 10 10 10 10 2
left_child=3 2 7 4 5 6 -1 8 11 17 13 12 -2 -6 -15 22 -5 -4 -19 -10 21 23 -3 -11 -25 26 -23 28 29 31 32 -24 -27 -33 35 -35 39 -38 40 -30 -36 -41 -42 44 -43 -44 -46
right_child=1 15 9 16 10 -7 -8 -9 19 20 -12 -13 -14 14 -16 -17 -18 18 -20 -21 -22 25 27 24 -26 30 -28 -29 36 -31 -32 33 -34 34 38 -37 37 -39 -40 41 42 43 45 -45 46 -47 -48
leaf_value=0.022385055889505925 0.0050558960727419226 -0.0025165798400996315 0.0030888319758679761 0.0048050108230089138 0.010938140670226809 0.0087327511040883911 0.012878284150421661 -0.0022421051496632856 -0.0013272365387224459 -0.0039017831214302923 0.0030375345379400421 0.0025938698780057085 0.0098229672688412949 0.0042784066308626661 0.0089540503762122834 -0.00054857833910198616 0.00068881942057001839 0.001034081911426058 -0.0018633454294923403 0.002195755567989502 -0.00088893240671924611 -0.003939921062840703 -0.0034254138643203071 -0.00069620078886148157 -0.0028418287492720197 -0.0043613422424256514 -0.0019518119455911758 -0.0029663923830970805 -0.0043518421407417905 -0.0031252060041993281 -0.0047079029207216551 -0.003450139588120787 -0.0032061905717089469 -0.0044487550984416832 -0.0046422770525680179 -0.0033838769383749421 -0.0036465482418238109 -0.004407259869123493 -0.0040845311847927217 -0.0045889584904235245 -0.004559334259820828 -0.0045101045917217281 -0.0045257494669600695 -0.0045262992197526945 -0.0044890138159545488 -0.0044962829760092169 -0.0044694247706875022
leaf_weight=427.00649881362915 477.00340461730957 413.00046062469482 383.00172233581543 538.00325441360474 435.00466632843018 579.00495672225952 601.00699949264526 460.00076103210449 375.00117158889771 339.00030040740967 363.0031042098999 387.00197267532349 466.00423574447632 339.00298404693604 512.00518703460693 336.00078105926514 333.00139188766479 592.00210285186768 533.0010814666748 339.00147199630737 405.000901222229 442.00025033950806 455.00021028518677 389.00089120864868 481.00055074691772 335.00019025802612 342.00047063827515 351.00029039382935 337.00003004074097 367.00025033950806 505.00019025802612 341.00017023086548 334.00026035308838 468.00003004074097 337.00001001358032 465.00024032592773 425.00016021728516 604.00004005432129 340.00008010864258 368.00003004074097 408.00001001358032 449 333.00002002716064 481.00001001358032 375 559 570
leaf_count=427 477 413 383 538 435 579 601 460 375 339 363 387 466 339 512 336 333 592 533 339 405 442 455 389 481 335 342 351 337 367 505 341 334 468 337 465 425 604 340 368 408 449 333 481 375 559 570
internal_value=0 -0.00226475 -0.00034658 0.00898101 0.0105191 0.0139107 0.0168271 0.00287871 0.00403114 -0.00193638 0.00721381 0.00600977 0.00741163 0.00839265 0.00709149 -0.00392126 0.00323131 0.000531856 -0.000338654 0.000345446 -0.0029784 -0.0032456 -0.00405543 -0.00244867 -0.00188246 -0.00373768 -0.00307266 -0.00413455 -0.00418792 -0.0040195 -0.00418178 -0.00410806 -0.00378463 -0.0042036 -0.00429189 -0.00391803 -0.004378 -0.00409307 -0.00446833 -0.00449165 -0.00454805 -0.00451265 -0.00452362 -0.00449767 -0.0044878 -0.00450728 -0.0044772
internal_weight=0 16366 7584.02 4127.04 3256.03 1607.02 1028.01 2504.01 2044.01 5080.01 1649.02 1330.01 943.008 1286.01 851.008 8782 871.005 1508 1125 714.003 3572 3167 8446 1209 870.001 1958 784.001 8033 7682 4073 1174 3706 669 3251 2910 933 3609 1029 1977 2580 1637 2243 1300 1875 1394 892 945
internal_count=20493 16366 7584 4127 3256 1607 1028 2504 2044 5080 1649 1330 943 1286 851 8782 871 1508 1125 714 3572 3167 8446 1209 870 1958 784 8033 7682 4073 1174 3706 669 3251 2910 933 3609 1029 1977 2580 1637 2243 1300 1875 1394 892 945
is_linear=0
shrinkage=0.0541285


Tree=5
num_leaves=47
num_cat=0
split_feature=44 81 79 125 336 44 79 364 336 44 62 343 430 44 81 331 358 108 371 120 59 79 79 461 138 22 102 300 482 436 365 377 458 229 386 85 389 461 449 280 255 300 6 5 161 280
split_gain=127.282 14.7309 10.9615 12.1671 9.21936 7.34918 4.53528 4.33439 4.83793 4.07661 3.82473 2.80219 1.96068 1.6201 1.45255 1.4153 1.2993 1.29638 1.19462 1.09926 0.996516 0.69111 0.46518 0.421075 0.402686 0.392055 0.169081 0.142482 0.109965 0.082841 0.0957654 0.126183 0.0662403 0.0479367 0.0885815 0.0261182 0.020235 0.0188491 0.0100199 0.00302951 0.000915248 0.000467311 0.000311807 0.00021086 9.18571e-05 4.58175e-05
threshold=27.500000000000004 4.5000000000000009 2.5000000000000004 202102.50000000003 5.5000000000000009 8.5000000000000018 5.5000000000000009 4.5000000000000009 2.5000000000000004 48.500000000000007 2.5000000000000004 3.5000000000000004 2.5000000000000004 78.500000000000014 5.5000000000000009 5.5000000000000009 1.5000000000000002 4.5000000000000009 5.5000000000000009 3.5000000000000004 25.500000000000004 4.5000000000000009 6.5000000000000009 4.5000000000000009 57.500000000000007 10.500000000000002 1.5000000000000002 4570.5000000000009 6.5000000000000009 6.5000000000000009 6.5000000000000009 5.5000000000000009 9.5000000000000018 6.5000000000000009 3.5000000000000004 9.5000000000000018 2.5000000000000004 2.5000000000000004 8.5000000000000018 1.0000000180025095e-35 77.500000000000014 2306.5000000000005 78.500000000000014 53.500000000000007 7.5000000000000009 14.500000000000002
decision_type=2 2 2 10 8 2 2 8 8 2 2 10 8 2 2 10 10 2 10 2 10 2 2 10 10 2 2 8 10 8 8 10 10 10 10 2 8 8 8 8 10 8 2 2 10 8
left_child=2 4 3 5 6 12 9 8 -4 -2 -6 -5 -1 15 19 -12 -13 -8 -11 -3 -16 -21 24 -17 25 -15 -22 -24 -23 30 31 -28 33 34 -32 37 -35 -31 41 -39 -41 -38 -42 45 -43 -44
right_child=1 14 7 11 10 -7 17 -9 -10 18 13 16 -14 22 20 23 -18 -19 -20 21 26 28 27 -25 -26 -27 29 -29 -30 35 32 -33 -34 36 -36 -37 38 39 -40 40 42 44 43 -45 -46 -47
leaf_value=0.021081583664842109 0.0085820853221762108 7.7406828618135123e-05 0.0098573423973863216 0.010098977504426686 0.0024468223648532426 0.0099148005349932421 0.0015540973018231617 -0.00011949288041914312 0.0032327752547003483 0.0040421397062521394 0.0013623093667593589 0.0024025705060432482 0.01537002976838178 -0.0021078840227645567 -0.00093351806544918084 -0.0036386239275990489 0.00700137149151596 -0.0026832373279174313 9.1961419182364007e-06 -0.0011852867016712227 -0.0027493411678706932 -0.0046344530152376863 -0.0033830298138866951 -0.0011520819792045429 -0.00079042529281044796 -0.0043374522543581269 -0.004056112355884464 -0.0046384278584174904 -0.003317133214058415 -0.0038551319969648504 -0.0043330214731137455 -0.0027258982503247271 -0.0032293278141799168 -0.0038130101423798457 -0.0031987422388042122 -0.0037542999988520276 -0.0043262747897524481 -0.0041297945419166903 -0.0039661033455296738 -0.0043816478955296251 -0.004327261269408844 -0.0042843464245744681 -0.0042436534911504198 -0.0043095371790252412 -0.0042477140188219506 -0.0042683545234515358
leaf_weight=342.00516700744629 485.00410556793213 509.00150203704834 649.00592803955078 465.00522708892822 588.00299406051636 580.00582790374756 449.00174236297607 365.00144195556641 643.00392532348633 535.00312423706055 549.00205278396606 359.00350475311279 363.00454616546631 597.00097131729126 347.0007209777832 342.00041055679321 361.00347471237183 400.00064086914062 360.00141191482544 422.00085115432739 358.00034046173096 345.00012016296387 602.00037050247192 479.00104141235352 333.00062084197998 377.00015020370483 361.00006008148193 473.0000901222229 402.00029039382935 357.00007009506226 340.00001001358032 496.00033044815063 357.00016021728516 439.00012016296387 496.00022029876709 400.00008010864258 574.00003004074097 352.00004005432129 353.00004005432129 348.00002002716064 399 340.00001001358032 335 337.00001001358032 489 641
leaf_count=342 485 509 649 465 588 580 449 365 643 535 549 359 363 597 347 342 361 400 360 422 358 345 602 479 333 377 361 473 402 357 340 496 357 439 496 400 574 352 353 348 399 340 335 337 489 641
internal_value=0 -0.00214216 0.00849488 0.0107797 -0.000158974 0.0144279 0.00267056 0.00508901 0.00656045 0.00458563 -0.00161221 0.00682367 0.0181407 -0.00224833 -0.00347192 -0.000765216 0.00470836 -0.000442289 0.00241995 -0.00202215 -0.00377155 -0.00293632 -0.00310134 -0.00218789 -0.00241533 -0.00297087 -0.00389826 -0.0039354 -0.00392553 -0.00395374 -0.00379741 -0.00328623 -0.00392672 -0.00400886 -0.00366005 -0.00416315 -0.0041417 -0.00422222 -0.00422388 -0.00427655 -0.00430162 -0.00428873 -0.00428536 -0.00427262 -0.00426274 -0.00425988
internal_weight=0 16366 4127.04 2470.03 6569.02 1285.02 2229.01 1657.01 1292.01 1380.01 4340.01 1185.01 705.01 3752.01 9797.01 1370 720.007 849.002 895.005 1678 8119 1169 2382 821.001 1307 974.001 7772 1075 747 7414 4245 857 3388 3031 836 3169 2195 2769 1756 2412 2060 1403 1712 1313 829 976
internal_count=20493 16366 4127 2470 6569 1285 2229 1657 1292 1380 4340 1185 705 3752 9797 1370 720 849 895 1678 8119 1169 2382 821 1307 974 7772 1075 747 7414 4245 857 3388 3031 836 3169 2195 2769 1756 2412 2060 1403 1712 1313 829 976
is_linear=0
shrinkage=0.0541285


Tree=6
num_leaves=47
num_cat=0
split_feature=44 81 76 125 387 135 253 62 474 433 360 432 108 21 473 44 139 350 396 358 17 81 71 207 112 62 346 387 298 473 142 436 123 458 473 394 425 477 317 423 298 278 481 289 161 161
split_gain=113.875 13.1793 10.2516 9.69621 8.28011 6.80245 3.66027 3.40711 2.88938 2.53614 2.68208 2.47638 1.62526 1.54001 2.20049 1.4573 1.26524 1.26143 1.20678 1.13063 1.07956 0.566235 0.478999 0.424435 0.376661 0.293918 0.310478 0.274014 0.225038 0.218693 0.0655029 0.143652 0.0611391 0.0574427 0.0288753 0.0247416 0.0189533 0.0348608 0.017021 0.00737518 0.00140663 0.000525242 0.000180461 0.000172447 4.79973e-05 4.43982e-05
threshold=27.500000000000004 4.5000000000000009 2.5000000000000004 202102.50000000003 5.5000000000000009 1.0000000180025095e-35 51.500000000000007 2.5000000000000004 8.5000000000000018 7.5000000000000009 1.5000000000000002 4.5000000000000009 3.5000000000000004 1.0000000180025095e-35 6.5000000000000009 78.500000000000014 78.500000000000014 2.5000000000000004 4.5000000000000009 3.5000000000000004 1.0000000180025095e-35 5.5000000000000009 4.5000000000000009 2.5000000000000004 5.5000000000000009 1.0000000180025095e-35 5.5000000000000009 7.5000000000000009 3596.5000000000005 1.5000000000000002 6.5000000000000009 3.5000000000000004 764097996.50000012 9.5000000000000018 5.5000000000000009 1.5000000000000002 2.5000000000000004 5.5000000000000009 1.5000000000000002 8.5000000000000018 613.50000000000011 2487.5000000000005 5.5000000000000009 -759.49999999999989 7.5000000000000009 8.5000000000000018
decision_type=2 2 2 8 8 10 10 2 10 10 10 10 2 2 10 2 10 10 8 10 2 2 2 10 2 2 8 8 8 10 8 10 10 10 8 8 8 8 10 10 10 8 10 10 10 10
left_child=2 4 3 5 6 8 17 -6 -1 10 -5 -10 -8 21 28 19 -12 -2 -4 -9 -14 22 -3 27 -21 26 -23 -17 -15 -29 31 -27 -31 35 -33 -32 37 -37 39 40 -38 42 -42 44 -43 -44
right_child=1 13 18 9 7 -7 12 15 11 -11 16 -13 20 14 -16 23 -18 -19 -20 24 -22 25 -24 -25 -26 30 -28 29 -30 32 33 34 -34 -35 -36 36 38 -39 -40 -41 41 43 45 -45 -46 -47
leaf_value=0.0064335145310821917 0.0082084081816604232 -0.0011795311870805604 0.0044468986159604098 0.0022905574689389067 0.0023007447492684784 0.018733668873491992 0.0036054108597997625 0.00092103311974326644 0.015180497781439355 0.010600709711457639 0.0054257855829046575 0.0093803221162998326 0.0013462463729234761 -0.0020626692562271853 0.0022566785485048867 -0.0020626361316714529 0.0097696656398108973 0.0035581511919744735 0.00032532846216977435 -0.00088847890302780807 -0.0021801071676725392 -0.0015268981491129634 -0.0037134075782271213 -0.0014585387788085555 -0.0033664675491800701 -0.0025335284314863876 -0.0036733581315544482 -0.0027188875520790215 -0.0039970473154700608 -0.0043974500334506951 -0.0035561387674399986 -0.0034479064235696981 -0.0034982725445010239 -0.0033396709997061736 -0.0041138299823416493 -0.0034034896919097873 -0.0041620284428565898 -0.0040784621795829801 -0.0036700440080510875 -0.003847473287969441 -0.004104284665017415 -0.0040322400026122935 -0.0040760185468561895 -0.0040608267141630959 -0.0040070188764188414 -0.0040498320546708691
leaf_weight=367.00318431854248 334.00280380249023 526.00095129013062 527.00331449508667 499.00471639633179 589.00299406051636 381.0052170753479 501.00304412841797 648.00230312347412 415.00532722473145 349.00344467163086 443.00403547286987 449.00473642349243 601.00237321853638 347.00053071975708 340.00131177902222 418.00062084197998 353.00373506546021 350.00192260742188 344.00133180618286 341.00079107284546 441.00088119506836 368.00056076049805 374.00024032592773 460.00065088272095 380.00041055679321 375.00023031234741 426.00021028518677 511.00049066543579 358.00023031234741 662.00016021728516 534.00011014938354 338.00010013580322 333.00028038024902 583.00019025802612 438.00002002716064 477.00014019012451 408.00002002716064 423.00001001358032 418.00006008148193 519.00006008148193 492.00002002716064 367 360 369 556.00001001358032 401.00002002716064
leaf_count=367 334 526 527 499 589 381 501 648 415 349 443 449 601 347 340 418 353 350 344 341 441 368 374 460 380 375 426 511 358 662 534 338 333 583 438 477 408 423 418 519 492 367 360 369 556 401
internal_value=0 -0.00202621 0.00803507 0.00943037 -0.000150369 0.0124133 0.00253298 -0.00152666 0.0104572 0.00650545 0.00540178 0.0121663 0.00107193 -0.00328399 -0.00132001 -0.00212734 0.00735216 0.00582889 0.00281909 -0.000719793 -0.000146191 -0.00351849 -0.0022325 -0.00293561 -0.00219449 -0.00366589 -0.00267852 -0.00328876 -0.00304495 -0.00362908 -0.00377697 -0.00340341 -0.00409652 -0.00384976 -0.00382378 -0.00390561 -0.00394458 -0.00372073 -0.00399637 -0.00403565 -0.00406872 -0.00405377 -0.00407874 -0.00402955 -0.00401705 -0.00406222
internal_weight=0 16366 4127.04 3256.03 6569.02 1612.02 2227.01 4342.01 1231.01 1644.02 1295.01 864.01 1543.01 9797.01 1045 3753.01 796.008 684.005 871.005 1369 1042 8752 900.001 2384 721.001 7852 794.001 1924 705.001 1506 7058 1151 995 5907 776 5324 4790 900 3890 3472 2953 2545 1253 1292 923 761
internal_count=20493 16366 4127 3256 6569 1612 2227 4342 1231 1644 1295 864 1543 9797 1045 3753 796 684 871 1369 1042 8752 900 2384 721 7852 794 1924 705 1506 7058 1151 995 5907 776 5324 4790 900 3890 3472 2953 2545 1253 1292 923 761
is_linear=0
shrinkage=0.0541285


Tree=7
num_leaves=46
num_cat=0
split_feature=44 349 166 73 126 44 79 186 387 62 331 420 342 62 290 329 394 120 467 399 53 73 310 112 299 434 80 123 381 77 87 406 62 174 329 253 396 380 474 117 299 160 365 298 366
split_gain=101.96 12.2666 8.42016 8.21446 7.66312 9.92499 3.61536 3.15872 2.62271 2.33167 2.04981 2.26033 1.72448 1.42059 1.35291 1.33691 1.16233 1.14958 1.00993 0.718825 0.615166 0.564217 0.460522 0.480226 0.407355 0.332857 0.181785 0.141515 0.13974 0.183144 0.107104 0.0961806 0.112075 0.0439786 0.0742082 0.0438195 0.0378075 0.0350438 0.0168779 0.0519775 0.00705172 0.00658602 0.00659366 0.00109991 0.000563256
threshold=33.500000000000007 4.5000000000000009 1.0000000180025095e-35 3.5000000000000004 202101.50000000003 12.500000000000002 1.5000000000000002 1.0000000180025095e-35 5.5000000000000009 6.5000000000000009 6.5000000000000009 4.5000000000000009 1.5000000000000002 1.0000000180025095e-35 -1019.4999999999999 4.5000000000000009 5.5000000000000009 4.5000000000000009 5.5000000000000009 4.5000000000000009 23.500000000000004 8.5000000000000018 1.0000000180025095e-35 3.5000000000000004 2499.5000000000005 7.5000000000000009 2.5000000000000004 801690509.00000012 3.5000000000000004 6.5000000000000009 6.5000000000000009 4.5000000000000009 8.5000000000000018 2.5000000000000004 5.5000000000000009 108.50000000000001 8.5000000000000018 4.5000000000000009 4.5000000000000009 3.5000000000000004 2256.5000000000005 21.500000000000004 6.5000000000000009 3399.5000000000005 8.5000000000000018
decision_type=2 8 8 2 8 2 2 8 10 2 10 10 8 2 8 10 10 2 10 10 8 2 10 2 10 10 2 10 10 2 2 10 2 10 10 10 10 10 8 2 10 10 10 10 10
left_child=1 4 3 7 5 6 -1 9 17 -2 11 12 -6 19 -7 -13 18 -5 -9 -4 -19 22 23 -10 -25 35 -15 33 29 -29 -23 32 -30 38 -35 -26 -32 -33 39 44 -39 42 -40 -44 -28
right_child=2 -3 13 8 10 14 -8 16 21 -11 -12 15 -14 26 -16 -17 -18 20 -20 -21 -22 30 -24 24 25 -27 27 28 31 -31 36 37 -34 34 -36 -37 -38 40 41 -41 -42 -43 43 -45 -46
leaf_value=0.016820241354033989 0.0073064188849452259 5.4107896736953934e-05 -0.0026713045983971151 0.0018464587537026639 0.007372410368890938 0.0046201663728593382 0.010646886592995201 0.0032767267637599934 -0.00011734309945226036 0.0019787569535943249 0.0030628577541452762 0.011560618546067632 0.0023524877382320153 -0.0024374381160367411 0.0089144011477202082 0.0067388638631053818 -0.0023089545984237066 -0.002938798750274575 -0.00072703195352215755 0.00040593110354259269 0.00014996348777450525 -0.0029317221400105417 -0.0037227064535382643 -0.00094577487553101176 -0.0031443475140763063 -0.0015146658600411185 -0.0039342286114204816 -0.00330376175009161 -0.0022990544278579266 -0.0017147555552154117 -0.0044024378064333328 -0.003382482609508439 -0.0034962532651784603 -0.0027700968083438846 -0.0038761540245324526 -0.0040160061837848449 -0.0036438254227946459 -0.004026816979309223 -0.0041531338722586601 -0.0032071213059938447 -0.0037268519603793652 -0.0037179288484409522 -0.0039736258082367706 -0.0038535273517583527 -0.0038556726457417935
leaf_weight=575.00806093215942 443.00363492965698 654.00252342224121 454.0005407333374 611.00241327285767 402.00414562225342 573.00416564941406 538.00592803955078 397.00191259384155 381.000901222229 527.00250339508057 602.0047664642334 333.00343465805054 400.00284385681152 492.00048065185547 344.00307416915894 341.00339460372925 367.00078105926514 358.00055074691772 345.00112152099609 436.00114154815674 400.00120162963867 379.00023031234741 473.00028038024902 467.00095129013062 342.00037050247192 348.00049066543579 472 534.00019025802612 371.00028038024902 353.00030040740967 406.00011014938354 559.00017023086548 599.00011014938354 342.00014019012451 370.00002002716064 334.00014019012451 366.00012016296387 634.00007009506226 451.00005006790161 467.00015020370483 360.00003004074097 342.00003004074097 370.00004005432129 564 617
leaf_count=575 443 654 454 611 402 573 538 397 381 527 602 333 400 492 344 341 367 358 345 436 400 379 473 467 342 348 472 534 371 353 406 559 599 342 370 334 366 634 451 467 360 342 370 564 617
internal_value=0 0.00693936 -0.00210066 -0.000691946 0.00803549 0.0104008 0.0138362 0.00215595 -0.00190896 0.00441191 0.00572483 0.00681053 0.00486871 -0.00321391 0.00623109 0.00912113 0.000182733 9.94042e-05 0.00141514 -0.0011638 -0.00130884 -0.00269542 -0.00221366 -0.00183237 -0.00227062 -0.00287482 -0.00344496 -0.0035119 -0.00325578 -0.00267138 -0.00367694 -0.00346123 -0.00303836 -0.00373052 -0.00334487 -0.00357502 -0.00404278 -0.00372536 -0.00381415 -0.00368485 -0.00391818 -0.00393065 -0.00398317 -0.0039011 -0.00388972
internal_weight=0 4762.04 15731 6944.02 4108.04 2030.02 1113.01 2079.01 4865.01 970.006 2078.02 1476.01 802.007 8787 917.007 674.007 1109 1369 742.003 890.002 758.002 3496 2345 1872 1491 1024 7897 7405 3410 887 1151 2523 970 3995 712 676.001 772 1553 3283 1556 994 1727 1385 934 1089
internal_count=20493 4762 15731 6944 4108 2030 1113 2079 4865 970 2078 1476 802 8787 917 674 1109 1369 742 890 758 3496 2345 1872 1491 1024 7897 7405 3410 887 1151 2523 970 3995 712 676 772 1553 3283 1556 994 1727 1385 934 1089
is_linear=0
shrinkage=0.0541285


Tree=8
num_leaves=47
num_cat=0
split_feature=44 15 336 92 103 101 331 75 366 117 112 44 342 44 85 107 341 108 80 358 87 22 303 331 60 103 301 279 185 481 5 75 289 53 452 44 362 449 199 365 254 6 279 107 80 352
split_gain=91.5017 11.6855 8.32644 7.87918 6.52932 6.19637 3.49644 2.48726 2.80309 2.34094 2.28138 2.26039 1.87636 1.78846 1.77706 1.75282 1.99641 1.35043 1.23789 1.23323 1.06122 0.888474 0.52681 0.413219 0.312006 0.52778 0.269476 0.354086 0.172747 0.056566 0.112687 0.0808502 0.0636478 0.0867189 0.0505822 0.0227352 0.0160896 0.0212925 0.0117742 0.00295219 0.00210206 0.000802018 0.000200184 5.00374e-05 2.21656e-05 1.34086e-05
threshold=27.500000000000004 1.0000000180025095e-35 5.5000000000000009 2.5000000000000004 3.5000000000000004 9.5000000000000018 5.5000000000000009 4.5000000000000009 3.5000000000000004 8.5000000000000018 3.5000000000000004 112.50000000000001 1.5000000000000002 78.500000000000014 5.5000000000000009 5.5000000000000009 3.5000000000000004 3.5000000000000004 1.5000000000000002 3.5000000000000004 7.5000000000000009 7.5000000000000009 24.500000000000004 6.5000000000000009 35.500000000000007 7.5000000000000009 7.5000000000000009 2515.0000000000005 1.0000000180025095e-35 5.5000000000000009 30.500000000000004 8.5000000000000018 -743.99999999999989 6.5000000000000009 5.5000000000000009 131.50000000000003 6.5000000000000009 3.5000000000000004 1.0000000180025095e-35 6.5000000000000009 77.500000000000014 52.500000000000007 3050.5000000000005 5.5000000000000009 7.5000000000000009 5.5000000000000009
decision_type=2 2 8 2 2 2 10 2 8 2 2 2 8 2 2 2 10 2 2 10 2 2 10 10 8 2 10 10 10 8 2 2 10 8 10 2 8 8 8 10 10 2 10 2 2 10
left_child=3 2 6 4 5 14 11 10 -9 13 18 15 -6 19 -1 16 -2 -8 -5 21 24 -4 26 -21 29 -26 27 -15 -28 30 -3 34 38 -34 36 -30 40 -38 -31 -40 -32 -41 43 -43 -44 -45
right_child=1 20 9 7 12 -7 17 8 -10 -11 -12 -13 -14 22 -16 -17 -18 -19 -20 23 -22 -23 -24 -25 25 -27 28 -29 35 32 31 -33 33 -35 -36 -37 37 -39 39 41 -42 42 44 45 -46 -47
leaf_value=0.0068396064634593887 0.00837788268302757 -0.0024260887683467528 0.0030228359785227734 0.0029926821276676928 0.0089784124315293538 0.017983901457172474 0.001968403235467835 0.0063375114832793372 -0.0001227018938531057 0.0016396106937614078 0.0095727036009814973 -4.9197591618096273e-05 0.0040862809608751809 -0.0033228615129506475 0.012223445164312481 0.0017953534591805839 0.0032615654455483553 -0.0023589406089811228 0.0071776411589172112 -0.00056489993116576537 -0.00021343915652523348 -0.00074873121026198045 -0.00099058865961196394 -0.0030049554145079893 -0.0014381775913012199 -0.0039941584603129911 -0.002563326165871804 -0.0014595502013390368 -0.0042887591632657625 -0.0034257331174736613 -0.0039365411566457667 -0.0028126266698113326 -0.0036770803375369091 -0.0025635288781358039 -0.0030157645692314304 -0.0037495548309619199 -0.0031977452852423385 -0.0037031010624767957 -0.0037926715854713607 -0.0037300090913479937 -0.0037512833059626946 -0.0036740956950948736 -0.0036300768030101695 -0.0036566499672707918 -0.0036107050699554018 -0.0036413007866368786
leaf_weight=369.00361490249634 500.00407552719116 438.00023031234741 366.00171232223511 497.00493669509888 414.00411558151245 383.00556755065918 367.00182247161865 334.00248336791992 479.00233316421509 601.00270366668701 430.00463628768921 365.00122165679932 516.00374507904053 660.00053071975708 350.00397539138794 402.00208282470703 404.00219297409058 498.000901222229 355.00363492965698 367.00100135803223 344.0007209777832 366.00103139877319 423.00068092346191 456.00051069259644 636.00085115432739 377.00012016296387 338.00040054321289 546.00073099136353 418.00017023086548 610.00006008148193 353.00003004074097 621.00024032592773 401 419.00020027160645 475.00012016296387 507.00016021728516 397.00011014938354 635.00005006790161 620.00001001358032 374.00003004074097 365.00002002716064 357.00002002716064 335.00001001358032 334 358 333
leaf_count=369 500 438 366 497 414 383 367 334 479 601 430 365 516 660 350 402 404 498 355 367 344 366 423 456 636 377 338 546 418 610 353 621 401 419 475 507 397 635 620 374 365 357 335 334 358 333
internal_value=0 -0.00181629 -0.000259877 0.0072026 0.00960407 0.0124227 0.00227053 0.00487334 0.00253131 -0.0015311 0.00635857 0.00371658 0.00626407 -0.00195961 0.00946039 0.00476903 0.00609139 -0.000522943 0.00473642 -0.000479261 -0.00316038 0.00113705 -0.00275558 -0.00191686 -0.00328052 -0.00238942 -0.00305797 -0.00247927 -0.00361055 -0.0034021 -0.00323433 -0.00335872 -0.00353515 -0.00310808 -0.00351114 -0.00399322 -0.0036456 -0.0035087 -0.00364059 -0.00368894 -0.00384236 -0.00365818 -0.00364254 -0.00365774 -0.00362007 -0.00364899
internal_weight=0 16366 7584.02 4127.04 2032.02 1102.01 2536.01 2095.02 813.005 5048.01 1282.01 1671.01 930.008 4447.01 719.008 1306.01 904.006 865.003 852.009 1555 8782 732.003 2892 823.002 8438 1013 2469 1206 1263 7425 3284 2846 4141 820 2225 925 1750 1032 3321 2711 718 2091 1717 1024 693 667
internal_count=20493 16366 7584 4127 2032 1102 2536 2095 813 5048 1282 1671 930 4447 719 1306 904 865 852 1555 8782 732 2892 823 8438 1013 2469 1206 1263 7425 3284 2846 4141 820 2225 925 1750 1032 3321 2711 718 2091 1717 1024 693 667
is_linear=0
shrinkage=0.0541285


Tree=9
num_leaves=47
num_cat=0
split_feature=349 15 102 108 125 79 363 7 334 425 116 382 384 336 340 444 79 151 103 79 103 230 449 358 137 478 102 279 343 138 451 161 468 408 28 109 421 161 160 138 330 420 364 59 291 279
split_gain=61.7795 18.0814 17.7033 12.4641 7.12527 6.13737 3.68753 3.50565 3.49775 3.45081 3.09756 2.95661 2.88592 2.53062 2.12 1.26854 0.955024 0.810617 0.806821 0.729567 0.483285 0.641884 0.703629 0.44017 0.236368 0.153722 0.172868 0.127339 0.101381 0.0699211 0.105735 0.0524761 0.0494948 0.111003 0.0603198 0.0418015 0.0523845 0.0216176 0.0193237 0.0141435 0.0219914 0.0100495 0.00399383 0.000517116 0.000246268 0.000198054
threshold=1.5000000000000002 1.0000000180025095e-35 3.5000000000000004 2.5000000000000004 202102.50000000003 4.5000000000000009 3.5000000000000004 5.5000000000000009 4.5000000000000009 7.5000000000000009 4.5000000000000009 6.5000000000000009 5.5000000000000009 5.5000000000000009 3.5000000000000004 3.5000000000000004 5.5000000000000009 3.5000000000000004 3.5000000000000004 6.5000000000000009 8.5000000000000018 87.500000000000014 8.5000000000000018 3.5000000000000004 66.500000000000014 1.5000000000000002 1.5000000000000002 1783.5000000000002 6.5000000000000009 30.500000000000004 5.5000000000000009 6.5000000000000009 3.5000000000000004 2.5000000000000004 4.5000000000000009 3.5000000000000004 6.5000000000000009 9.5000000000000018 1.0000000180025095e-35 49.500000000000007 5.5000000000000009 6.5000000000000009 6.5000000000000009 1650.5000000000002 -864.99999999999989 2544.5000000000005
decision_type=8 2 2 2 8 2 10 2 8 8 2 8 8 10 10 10 2 10 2 2 2 10 10 10 8 10 2 8 10 8 10 10 8 10 2 2 10 10 10 10 10 10 10 10 8 10
left_child=3 2 5 4 7 8 12 -1 10 -6 -2 -7 -5 14 -4 -10 -16 24 -13 20 21 22 23 -15 25 31 -27 -21 -29 30 -28 -3 33 -31 41 36 37 -34 -37 42 -41 -35 -40 -44 45 -45
right_child=1 17 13 6 9 11 -8 -9 15 -11 -12 18 -14 19 16 -17 -18 -19 -20 27 -22 -23 -24 -25 -26 26 29 28 -30 32 -32 -33 35 34 -36 38 -38 -39 39 40 -42 -43 43 44 -46 -47
leaf_value=0.015365422376833839 0.0050042371385998069 -0.0044551416201723147 0.0034733167265571384 0.0077162383919331511 0.0087409561185545128 0.0041731560668018799 -0.0023604163797834518 0.0092447728645120436 0.0019696425816304645 0.0027493095287813019 0.012158348434334706 0.00052506619847635062 0.0017985684727622694 0.00047873949505344241 0.00088974492293388192 0.005750947993847926 -0.0024638196089609896 -0.00048008715952914562 -0.0029815625498952254 -0.0022595052669052542 -0.0032440302079931611 0.00077328122413143391 -0.0036693545194786681 -0.0019126682030811801 -0.0019531614013014605 -0.0019830504474752271 -0.0021020356986299802 -0.0038925951692101056 -0.002865061968102199 -0.0021848893881484277 -0.0033209632018443274 -0.0035410196496094221 -0.0036436590271675682 -0.0036241113845208103 -0.0027004330643554861 -0.0038747975138142612 -0.0025490195004128674 -0.0030458977429591704 -0.0036687792655268371 -0.0029313297826967506 -0.0035124607482780435 -0.0032783715460999803 -0.0035421805317758935 -0.0034814083368347776 -0.0035028079989982029 -0.0034323974147399215
leaf_weight=498.00693941116333 338.00275373458862 366.00012016296387 458.0023832321167 387.00320434570312 591.00632858276367 487.00249338150024 357.00067090988159 610.00658893585205 528.00369501113892 538.00490665435791 373.00387525558472 387.00145196914673 642.00378513336182 378.00121164321899 449.00167226791382 512.00408554077148 558.00091123580933 338.00059080123901 382.00088119506836 349.00035047531128 422.00025033950806 377.00089120864868 396.00024032592773 559.00095129013062 434.00046062469482 340.0004506111145 380.00022029876709 640.00013017654419 502.00033044815063 345.00020027160645 462.00005006790161 370.0000901222229 379.00002002716064 617.00002002716064 397.00015020370483 345.00001001358032 342.00015020370483 333.00006008148193 414.00001001358032 351.00010013580322 418.00001001358032 410.00004005432129 334.00005006790161 413 405.00001001358032 582
leaf_count=498 338 366 458 387 591 487 357 610 528 538 373 387 642 378 449 512 558 338 382 349 422 377 396 559 434 340 380 640 502 345 462 370 379 617 397 345 342 333 414 351 418 410 334 413 405 582
internal_value=0 -0.00137728 0.000467727 0.00641308 0.00891209 0.00376041 0.00237966 0.0119958 0.0058315 0.00588577 0.00875738 0.000873069 0.00402417 -0.00147825 0.000420115 0.00383121 -0.000968534 -0.00307932 -0.00121685 -0.00224588 -0.00160353 -0.00119869 -0.0017564 -0.000947937 -0.00318345 -0.00325017 -0.00317467 -0.00316438 -0.00344091 -0.00323316 -0.00277085 -0.0039956 -0.00329713 -0.003056 -0.00326705 -0.00339596 -0.00309962 -0.00336409 -0.00349172 -0.00344641 -0.00324721 -0.00348608 -0.00351773 -0.00348166 -0.00346722 -0.00345274
internal_weight=0 16870 8095.03 3623.03 2237.02 3007.02 1386.01 1108.01 1751.01 1129.01 711.007 1256 1029.01 5088.01 1465 1040.01 1007 8775 769.002 3623 2132 1710 1333 937.002 8437 8003 7267 1491 1142 6927 842 736 6085 1769 1424 4316 1054 712 3262 2917 769 1027 2148 1734 1400 995
internal_count=20493 16870 8095 3623 2237 3007 1386 1108 1751 1129 711 1256 1029 5088 1465 1040 1007 8775 769 3623 2132 1710 1333 937 8437 8003 7267 1491 1142 6927 842 736 6085 1769 1424 4316 1054 712 3262 2917 769 1027 2148 1734 1400 995
is_linear=0
shrinkage=0.0541285


Tree=10
num_leaves=48
num_cat=0
split_feature=255 15 62 79 1 387 349 103 349 477 61 331 89 375 387 414 87 91 413 412 89 120 56 282 309 351 475 255 62 86 141 120 136 75 114 380 454 56 389 121 161 365 277 6 277 161 414
split_gain=58.0633 13.1861 12.8199 9.11144 8.32468 4.91722 4.23533 3.68355 2.80445 2.72585 2.58267 2.55394 2.1069 1.7633 1.75319 1.20615 1.20223 1.1469 0.979498 0.86618 0.692285 0.649901 0.373829 0.328098 0.459142 0.413923 0.140454 0.120907 0.166729 0.0589321 0.125097 0.0674788 0.0894827 0.0552832 0.0469679 0.039248 0.0331532 0.0132617 0.0254888 0.00375889 0.00254224 0.00217481 0.00086993 0.000759574 0.000215957 5.89378e-05 5.35612e-05
threshold=27.500000000000004 1.0000000180025095e-35 2.5000000000000004 2.5000000000000004 202104.50000000003 5.5000000000000009 4.5000000000000009 3.5000000000000004 4.5000000000000009 5.5000000000000009 1.0000000180025095e-35 5.5000000000000009 4.5000000000000009 7.5000000000000009 2.5000000000000004 6.5000000000000009 7.5000000000000009 5.5000000000000009 5.5000000000000009 8.5000000000000018 3.5000000000000004 6.5000000000000009 198.00000000000003 23.500000000000004 10.500000000000002 6.5000000000000009 6.5000000000000009 50.500000000000007 1.0000000180025095e-35 8.5000000000000018 69.500000000000014 5.5000000000000009 30.500000000000004 8.5000000000000018 2.5000000000000004 7.5000000000000009 8.5000000000000018 -743.99999999999989 5.5000000000000009 575746639.00000012 9.5000000000000018 6.5000000000000009 1549.5000000000002 52.500000000000007 2530.5000000000005 7.5000000000000009 6.5000000000000009
decision_type=8 2 2 2 2 10 8 2 10 10 2 8 2 8 10 8 2 2 10 10 2 2 8 8 10 10 10 8 2 2 8 2 8 2 2 8 10 10 10 8 10 10 10 2 10 10 8
left_child=3 2 6 4 7 11 13 9 14 -1 -6 12 -4 18 -5 -14 22 19 -2 20 -7 -22 27 26 -25 -26 36 -3 -29 31 -31 32 -30 34 -34 40 -19 41 -39 -36 -32 -33 -41 -43 46 -46 -45
right_child=1 16 5 8 10 17 -8 -9 -10 -11 -12 -13 15 -15 -16 -17 -18 23 -20 -21 21 -23 -24 24 25 -27 -28 28 29 30 35 37 33 -35 39 -37 -38 38 -40 42 -42 43 -44 44 45 -47 -48
leaf_value=0.0099965492398732328 0.0029643200553841737 -0.0039000056327120592 0.0055185139877388413 0.006075435159203669 0.0017000974883978918 -0.0035078896462504322 0.0009072428739523423 0.0071975419548244747 -0.0010464123119371517 0.016469265849900796 0.0070206629744317553 -0.0014501741047232672 0.0028194619081706677 0.009733238344183083 0.0017124021948907646 -0.0014352334373659314 0.00029673850379816855 -0.0041481993191568849 0.0069855075140549637 0.0013126843334846177 0.00052428750417572961 -0.0020950906651100564 -0.001163049942087564 -0.003474294360844878 9.3515263215115965e-05 -0.002546328850418699 -0.0026573348023118046 -0.0019707371208980821 -0.0020742492058169171 -0.0018871198573559298 -0.0033564949500768872 -0.0034207506295932588 -0.0026074415439107232 -0.002511969184484784 -0.0031610172554685841 -0.0025481047135695947 -0.0034142094901907041 -0.0027116137714779183 -0.0033571636943974734 -0.0034212085518645421 -0.0031499976935104503 -0.0033672717290369808 -0.0033191070373452375 -0.0033144695443712213 -0.003279965617360579 -0.0032520334350079078 -0.0032862680200442898
leaf_weight=345.00430583953857 351.00259351730347 427.0000901222229 496.00300407409668 630.0052170753479 454.00474643707275 383.00056076049805 625.00298404693604 405.00368499755859 408.00141191482544 426.00626850128174 650.00642871856689 632.0014820098877 464.00223302841187 341.00305414199829 472.00287389755249 337.00130176544189 350.00079107284546 373.00014019012451 359.00290393829346 400.00123167037964 533.00163221359253 579.00086116790771 333.00061082839966 403.00025033950806 361.00079107284546 336.00021028518677 571.00041055679321 465.00047063827515 339.0001802444458 388.00023031234741 365.00001001358032 517.00001001358032 346.00011014938354 485.0001802444458 340.00002002716064 339.00011014938354 349.00013017654419 333.00010013580322 388 487.00003004074097 335.00004005432129 368.00004005432129 491.00002002716064 449 377 536.00001001358032 352.00003004074097
leaf_count=345 351 427 496 630 454 383 625 405 408 426 650 632 464 341 472 337 350 373 359 400 533 579 333 403 361 336 571 465 339 388 365 517 346 485 340 339 349 333 388 487 335 368 491 449 377 536 352
internal_value=0 -0.00137245 0.000234315 0.00604852 0.00820834 -0.000898332 0.00443577 0.0113773 0.00278732 0.0135729 0.00483268 0.0013713 0.00274614 0.00653407 0.0042067 0.00102941 -0.00281198 -0.00191935 0.00499757 -0.000924569 -0.00152317 -0.000839578 -0.00294059 -0.00270711 -0.00201995 -0.00117906 -0.00329171 -0.00301343 -0.00296426 -0.00302812 -0.00271645 -0.00310469 -0.00289156 -0.00302049 -0.00316871 -0.00302616 -0.0037934 -0.00326441 -0.00305901 -0.00331605 -0.00325767 -0.00332139 -0.00336995 -0.00329671 -0.00328156 -0.00326357 -0.00330208
internal_weight=0 16703 7893.03 3790.03 2280.03 6217.01 1676.01 1176.01 1510.01 771.011 1104.01 1929.01 1297.01 1051.01 1102.01 801.004 8810 4288.01 710.005 1895 1495 1112 8460 2393 1100 697.001 1293 8127 7700 7235 1427 5808 2488 2149 1664 1039 722 3320 721 1318 700 2599 978 2082 1714 913 801
internal_count=20493 16703 7893 3790 2280 6217 1676 1176 1510 771 1104 1929 1297 1051 1102 801 8810 4288 710 1895 1495 1112 8460 2393 1100 697 1293 8127 7700 7235 1427 5808 2488 2149 1664 1039 722 3320 721 1318 700 2599 978 2082 1714 913 801
is_linear=0
shrinkage=0.0541285


Tree=11
num_leaves=44
num_cat=0
split_feature=44 15 73 79 126 44 331 364 336 75 473 335 135 114 74 21 62 438 295 382 406 337 59 255 416 123 102 255 52 377 7 289 352 71 95 167 308 364 299 277 321 52 75
split_gain=67.3169 8.14848 7.20403 6.53791 7.21605 4.7784 3.27939 3.13551 3.55919 2.29932 3.24833 2.10067 1.93171 1.74216 1.48436 1.14762 1.07087 0.998994 0.74121 0.507522 0.317469 0.534089 0.282534 0.243891 0.22796 0.27401 0.115905 0.0500251 0.0488072 0.0406369 0.118386 0.031581 0.0239064 0.0587211 0.029383 0.0136176 0.0102195 0.00548013 0.00344907 0.000828819 0.000737716 0.0001969 4.91036e-05
threshold=27.500000000000004 1.0000000180025095e-35 3.5000000000000004 2.5000000000000004 202101.50000000003 8.5000000000000018 5.5000000000000009 4.5000000000000009 2.5000000000000004 3.5000000000000004 6.5000000000000009 4.5000000000000009 1.0000000180025095e-35 4.5000000000000009 3.5000000000000004 1.0000000180025095e-35 6.5000000000000009 7.5000000000000009 11.500000000000002 3.5000000000000004 5.5000000000000009 4.5000000000000009 8616.5000000000018 158.50000000000003 3.5000000000000004 658979099.00000012 1.5000000000000002 50.500000000000007 326.50000000000006 9.5000000000000018 7.5000000000000009 -303.99999999999994 4.5000000000000009 2.5000000000000004 8.5000000000000018 2.5000000000000004 28.500000000000004 6.5000000000000009 5353.5000000000009 2530.5000000000005 1.0000000180025095e-35 2636.5000000000005 4.5000000000000009
decision_type=2 2 2 2 10 2 8 8 8 2 8 10 10 2 2 2 2 8 8 10 10 10 8 10 10 10 2 8 8 10 2 10 8 2 2 10 10 10 10 8 8 10 2
left_child=3 2 6 4 5 14 9 8 -5 -2 -11 17 13 -6 -1 22 -8 -4 19 -13 24 23 26 -22 -21 -26 -3 -28 -29 31 -31 32 33 -30 36 37 39 -34 40 -35 -39 42 -42
right_child=1 15 11 7 12 -7 16 -9 -10 10 -12 18 -14 -15 -16 -17 -18 -19 -20 20 21 -23 -24 -25 25 -27 27 28 29 30 -32 -33 35 34 -36 -37 -38 38 -40 -41 41 -43 -44
leaf_value=0.011254829748185135 0.0013204934753996748 -0.0019724166645937952 0.0020052620497105103 0.0076268051056367376 0.0083845450036467064 0.0071184023461875745 0.001267545470603417 -0.00088250625119993707 0.0019447773956476986 0.0022357954509267574 0.0091137842733788662 -0.0005673238163148715 0.0014339427287207256 0.0033983415438574396 0.016218698590012907 0.00032127417783526342 -0.0021930801681109701 -0.0013993039562789631 -6.6764834702311857e-06 -0.0038751569893129135 -0.003572167431912388 -0.00076997487519160103 -0.0014019806757111705 -0.0017576784837517313 -0.0033963671291686289 -0.0015386274235062978 -0.0035500446723110437 -0.0024257126290276837 -0.0022571458368747998 -0.0018376132447636855 -0.0031573494774187892 -0.0024897383421778022 -0.0033043992199330483 -0.0032134810683149208 -0.0025546427743590307 -0.0028435957865001658 -0.0028335584829987902 -0.0032073958216143907 -0.0029629809423585779 -0.0031265349857758683 -0.0031339465162165676 -0.0031062122574200459 -0.0031631245558760186
leaf_weight=353.00457620620728 604.00304412841797 394.00037050247192 660.00252342224121 649.00592803955078 485.00545740127563 584.00587797164917 661.00331449508667 365.00144195556641 643.00392532348633 395.00214290618896 410.00371503829956 448.0008111000061 339.00332450866699 356.00335454940796 353.00515699386597 358.0008111000061 434.00080108642578 409.00117158889771 482.00116157531738 613.00037050247192 523.00038051605225 639.00114154815674 399.00056076049805 371.00037050247192 500.00033044815063 435.00065088272095 357 599.00021028518677 367.00017023086548 356.00021028518677 452 354.00013017654419 602.00002002716064 637.00005006790161 352.0000901222229 466.00010013580322 334.00005006790161 477 346.00002002716064 648.00002002716064 335.00001001358032 608 341
leaf_count=353 604 394 660 649 485 584 661 365 643 395 410 448 339 356 353 358 434 409 482 613 523 639 399 371 500 435 357 599 367 356 452 354 602 637 352 466 334 477 346 648 335 608 341
internal_value=0 -0.00155787 -0.000258184 0.00617784 0.00794241 0.0107406 0.00211799 0.00354749 0.00479899 0.00384484 0.00573888 -0.00142943 0.00488341 0.00627386 0.0137368 -0.00268027 -0.000104061 0.000702674 -0.00199768 -0.00226962 -0.00251714 -0.00196501 -0.00280783 -0.00281917 -0.00306393 -0.00253207 -0.00287772 -0.00292447 -0.00289376 -0.00293577 -0.00257588 -0.00298533 -0.00301715 -0.0028858 -0.00300285 -0.00311388 -0.0031003 -0.00316037 -0.00311922 -0.00316964 -0.00314992 -0.00312856 -0.00314867
internal_weight=0 16366 7584.02 4127.04 2470.03 1290.02 2504.01 1657.01 1292.01 1409.01 805.006 5080.01 1180.01 841.009 706.01 8782 1095 1069 4011.01 3529 3081 1533 8424 894.001 1548 935.001 8025 7631 7274 6675 808 5867 5513 2338 1971 3175 1619 2709 2107 1285 1761 1284 676
internal_count=20493 16366 7584 4127 2470 1290 2504 1657 1292 1409 805 5080 1180 841 706 8782 1095 1069 4011 3529 3081 1533 8424 894 1548 935 8025 7631 7274 6675 808 5867 5513 2338 1971 3175 1619 2709 2107 1285 1761 1284 676
is_linear=0
shrinkage=0.0541285


Tree=12
num_leaves=47
num_cat=0
split_feature=253 15 79 73 126 253 387 81 386 120 405 406 290 365 91 21 109 394 79 22 275 378 92 390 59 73 459 64 60 126 5 417 338 477 281 231 435 162 120 424 22 59 277 365 277 121
split_gain=54.4275 7.94865 7.17368 6.98908 6.0734 4.55089 2.78067 2.65294 2.96843 2.60934 2.2606 2.18454 2.10076 1.96947 1.62192 1.06457 1.01788 0.881463 0.860447 0.704413 0.602786 0.471459 0.294245 0.288752 0.257764 0.197664 0.111031 0.0522102 0.0926893 0.0499013 0.0648344 0.0480802 0.0764764 0.0314075 0.0309093 0.0275584 0.025412 0.014656 0.0131024 0.00794995 0.00597329 0.00387827 0.00187391 0.000780975 0.000370709 0.000274647
threshold=29.500000000000004 1.0000000180025095e-35 2.5000000000000004 2.5000000000000004 202101.50000000003 10.500000000000002 5.5000000000000009 3.5000000000000004 6.5000000000000009 5.5000000000000009 4.5000000000000009 5.5000000000000009 -501.49999999999994 2.5000000000000004 3.5000000000000004 1.0000000180025095e-35 5.5000000000000009 2.5000000000000004 6.5000000000000009 6.5000000000000009 2.5000000000000004 5.5000000000000009 3.5000000000000004 5.5000000000000009 8616.5000000000018 6.5000000000000009 6.5000000000000009 1.0000000180025095e-35 35.500000000000007 202101.50000000003 30.500000000000004 7.5000000000000009 6.5000000000000009 8.5000000000000018 1.0000000180025095e-35 27.500000000000004 4.5000000000000009 17.500000000000004 3.5000000000000004 4.5000000000000009 4.5000000000000009 4150.0000000000009 1592.5000000000002 6.5000000000000009 2563.5000000000005 946844466.00000012
decision_type=8 2 2 2 10 10 8 2 10 2 8 10 8 8 2 2 2 10 2 2 10 8 2 10 8 2 10 2 8 10 2 10 10 10 10 10 10 10 2 10 2 10 10 10 8 10
left_child=2 3 4 9 5 11 14 8 13 10 -2 -1 17 -4 -5 24 -16 -6 19 21 22 -8 -21 -24 27 -20 -27 28 29 33 -31 36 35 37 -28 -33 -32 40 -29 -40 -3 43 -38 -42 -41 -45
right_child=1 15 7 6 12 -7 18 -9 -10 -11 -12 -13 -14 -15 16 -17 -18 -19 25 20 -22 -23 23 -25 -26 26 34 38 -30 30 31 32 -34 -35 -36 -37 42 -39 39 44 41 -43 -44 45 -46 -47
leaf_value=0.015476041533845311 0.0076694846494941449 -0.0032178773414772485 0.003067897841383106 0.0034258447148720014 0.0083460539758404961 0.0062077643095599655 -0.0010803846819304071 -0.00046120038623733827 0.00071795295856961312 2.7104599696446571e-05 0.0025586064580638205 0.0095666397742416899 0.0018120641648295614 0.008545361657372845 0.0012712545554730888 0.00038268593577722428 -0.0017642987863474898 0.0045070544391004261 -0.0014979314092359484 -0.0034916910981015242 0.00013786452396699226 0.0017215241789320607 -0.00064471680117516314 -0.0026501661825732419 -0.0013061277428068211 -0.0024266894428283431 -0.0036932269579923569 -0.0032727020705780119 -0.001989715637586808 -0.0018925056085948124 -0.0025896390125940225 -0.0030230239141404232 -0.001749729426229304 -0.0024939964241970994 -0.0030082961756359677 -0.0023511105671430613 -0.0031613654292239994 -0.0026983255397173824 -0.0026832460354394841 -0.0030361628282369619 -0.0030980707457950135 -0.0028360270428879008 -0.0029940419309365273 -0.002968930746863354 -0.002965398936845086 -0.0030334579626651531
leaf_weight=391.0056676864624 423.00340461730957 375.00001001358032 337.00251340866089 494.00262355804443 354.00393533706665 553.00527715682983 346.00089120864868 511.00199270248413 460.00275373458862 557.00198268890381 633.0041356086731 345.0044059753418 485.00487661361694 448.00406551361084 659.00261354446411 352.00080108642578 636.00159215927124 347.00331449508667 342.00051069259644 402.0003604888916 396.00091123580933 358.00124168395996 395.00070095062256 450.00046062469482 395.00056076049805 655.00049066543579 426.00011014938354 380.00002002716064 564.0004506111145 376.00019025802612 562.00011014938354 385.00001001358032 366.00020027160645 527.00013017654419 353.00015020370483 334.00008010864258 336.00002002716064 513.00008010864258 333.00004005432129 341 339.00003004074097 417.00002002716064 471.00001001358032 407.00002002716064 596 368.00003004074097
leaf_count=391 423 375 337 494 354 553 346 511 460 557 633 345 485 448 659 352 636 347 342 402 396 358 395 450 395 655 426 380 564 376 562 385 366 527 353 334 336 513 333 341 339 417 471 407 596 368
internal_value=0 -0.00142288 0.00546884 -0.000133404 0.0073462 0.00991817 -0.000995058 0.00282278 0.00417066 0.00302473 0.00460586 0.012706 0.00455085 0.00619389 0.000787051 -0.00253348 -0.000219564 0.00644572 -0.00176833 -0.00108812 -0.00170195 0.00034445 -0.0022862 -0.00171271 -0.0026559 -0.00266724 -0.00294611 -0.00272263 -0.00265204 -0.00271671 -0.00255438 -0.0026558 -0.00238667 -0.00287265 -0.00338285 -0.0027109 -0.00286909 -0.00295514 -0.00299385 -0.00291042 -0.00302426 -0.00297684 -0.00306371 -0.00302955 -0.00299115 -0.00299957
internal_weight=0 16262 4231.04 7525.02 2475.03 1289.02 5912.01 1756.01 1245.01 1613.01 1056.01 736.01 1186.01 785.007 1789.01 8737 1295 701.007 4123.01 2347 1643 704.002 1247 845.001 8385 1776 1434 7990 6340 5776 2830 2454 1085 2946 779 719 1369 2419 1650 1270 1906 1531 807 1114 937 775
internal_count=20493 16262 4231 7525 2475 1289 5912 1756 1245 1613 1056 736 1186 785 1789 8737 1295 701 4123 2347 1643 704 1247 845 8385 1776 1434 7990 6340 5776 2830 2454 1085 2946 779 719 1369 2419 1650 1270 1906 1531 807 1114 937 775
is_linear=0
shrinkage=0.0541285


Tree=13
num_leaves=48
num_cat=0
split_feature=76 15 120 431 126 59 340 334 336 106 332 473 411 338 377 412 124 336 142 56 151 426 340 98 59 56 407 386 76 141 255 7 5 251 309 307 229 377 106 112 280 319 115 365 365 5 52
split_gain=43.9945 10.058 11.0692 7.53193 6.04236 7.4927 4.91509 3.75637 3.19216 2.114 2.07938 2.37553 1.71213 1.73829 1.62913 1.55906 1.20174 1.0547 0.990579 0.856321 0.52669 0.347496 0.593266 0.307786 0.290319 0.276674 0.26511 0.233204 0.361309 0.18621 0.176029 0.095179 0.11867 0.138158 0.095637 0.198661 0.0519051 0.0666859 0.0395702 0.0354421 0.0125003 0.00813572 0.00330005 0.00272699 0.0012128 0.000340131 0.000226727
threshold=1.5000000000000002 1.0000000180025095e-35 3.5000000000000004 8.5000000000000018 202101.50000000003 6350.5000000000009 5.5000000000000009 5.5000000000000009 2.5000000000000004 4.5000000000000009 4.5000000000000009 6.5000000000000009 6.5000000000000009 8.5000000000000018 4.5000000000000009 4.5000000000000009 202103.50000000003 6.5000000000000009 7.5000000000000009 -1353.9999999999998 3.5000000000000004 4.5000000000000009 5.5000000000000009 2.5000000000000004 5331.5000000000009 -1018.9999999999999 5.5000000000000009 1.5000000000000002 2.5000000000000004 125.50000000000001 61.500000000000007 7.5000000000000009 57.500000000000007 1.5000000000000002 4.5000000000000009 7.5000000000000009 6.5000000000000009 5.5000000000000009 4.5000000000000009 3.5000000000000004 4.5000000000000009 1.0000000180025095e-35 2.5000000000000004 7.5000000000000009 7.5000000000000009 50.500000000000007 3046.5000000000005
decision_type=2 2 2 8 10 8 8 10 10 2 10 10 10 10 10 10 10 10 8 8 10 10 10 2 8 10 10 8 2 8 10 2 2 10 8 8 8 8 2 2 10 10 2 8 10 2 10
left_child=3 2 6 4 5 8 7 15 -1 -10 11 17 13 -6 -9 -2 -5 19 -8 -4 27 29 -23 -24 25 -25 -19 30 -29 -12 -3 32 33 34 39 -36 37 -33 -37 -30 41 -38 -43 -44 -40 46 -45
right_child=1 20 10 16 12 -7 18 14 9 -11 21 -13 -14 -15 -16 -17 -18 26 -20 -21 -22 22 23 24 -26 -27 -28 28 31 -31 -32 36 -34 -35 35 38 40 -39 44 -41 -42 42 43 45 -46 -47 -48
leaf_value=0.0099128179972667145 0.0042210595422906942 -0.0043398388935478828 -0.0014002278199292319 -0.0023041029231145758 0.004392035917592043 0.014039264696394896 0.0011856116751860111 0.0046891304740847364 0.0066568854522450881 0.000813475529602281 -0.0021339436618096758 0.0039693359977385568 0.0060012443198128708 -0.00042006296717054376 0.0004235783344607651 0.0088847385884569252 0.0022575539803731158 -0.0012232067005721306 -0.0024715805738436984 0.0022394043582490528 -0.00038927146626405764 -0.00031529326305805512 -0.0036822588697468356 -0.0022503059409694991 -0.0030924507745711269 -0.00017269784285985093 -0.0032731006572685852 -0.00096182064418237905 -0.0035464351624232278 -0.0035901672093022999 -0.0028077134437971647 -0.0018946179170596762 -0.0014056666123457202 -0.0016331702192596096 -0.0013372793520868029 -0.0022935296454207185 -0.0030692599748110292 -0.0028512498317981401 -0.0029733522024984901 -0.0027733183325397591 -0.0025476888807050959 -0.0026932040365066643 -0.0029917080559774887 -0.0028400169668027176 -0.0028510477568795241 -0.0028740489425188591 -0.0027789590757994285
leaf_weight=419.00468635559082 347.00258350372314 340.00008010864258 352.00105142593384 333.00103139877319 513.00453615188599 508.00722980499268 483.00199270248413 462.00327444076538 397.00400543212891 334.00180244445801 446.00065088272095 373.00208282470703 635.00610828399658 385.00349473953247 607.00336456298828 532.00473642349243 344.00153207778931 349.00067090988159 394.0008111000061 410.00174236297607 342.00058078765869 591.00143194198608 375.00015020370483 400.00038051605225 391.00021028518677 354.00055074691772 393.00034046173096 447.00056076049805 344.0000901222229 608.00042057037354 621.00012016296387 428.00019025802612 355.00033044815063 503.00031042098999 396.00031042098999 457.00014019012451 605 426.00004005432129 426.00001001358032 351.00006008148193 342.00005006790161 359.00003004074097 426.00001001358032 342 537.00001001358032 339 372
leaf_count=419 347 340 352 333 513 508 483 462 397 334 446 373 635 385 607 532 344 349 394 410 342 591 375 400 391 354 393 447 344 608 621 428 355 503 396 457 605 426 426 351 342 359 426 342 537 339 372
internal_value=0 -0.00120972 0.000195024 0.00519945 0.00629963 0.00856449 0.00290752 0.00442243 0.00614606 0.00398699 -0.00132478 0.00010262 0.00385009 0.00232894 0.00226706 0.00704367 1.37863e-05 -0.000856349 -0.000457412 0.000558106 -0.00247156 -0.0021713 -0.00177053 -0.00233635 -0.00189555 -0.00127488 -0.00230893 -0.00255617 -0.00245387 -0.00297397 -0.00334978 -0.00254904 -0.00234172 -0.00245198 -0.002616 -0.00240934 -0.00274098 -0.00237181 -0.00270831 -0.00315598 -0.00285418 -0.00289709 -0.00284042 -0.00287615 -0.00290515 -0.0028294 -0.00280821
internal_weight=0 16625 7867.03 3868.03 3191.03 1658.02 2825.02 1948.01 1150.01 731.006 5042.01 1877.01 1533.01 898.008 1069.01 879.007 677.003 1504 877.003 762.003 8758 3165 2111 1520 1145 754.001 742.001 8416 7455 1054 961 7008 3369 3014 2511 1816 3639 854 1420 695 2785 2443 1838 1479 963 1053 714
internal_count=20493 16625 7867 3868 3191 1658 2825 1948 1150 731 5042 1877 1533 898 1069 879 677 1504 877 762 8758 3165 2111 1520 1145 754 742 8416 7455 1054 961 7008 3369 3014 2511 1816 3639 854 1420 695 2785 2443 1838 1479 963 1053 714
is_linear=0
shrinkage=0.0541285


Tree=14
num_leaves=46
num_cat=0
split_feature=73 166 431 61 72 70 102 77 301 423 13 125 199 59 79 425 279 457 365 73 433 49 70 428 468 439 435 88 301 161 449 122 384 369 166 411 420 88 109 93 366 315 59 87 291
split_gain=37.3305 16.9572 5.399 5.20084 4.98247 3.79252 3.80054 2.73125 2.17308 2.11624 2.08143 1.99133 1.66272 1.4702 1.44572 1.39133 1.0786 0.69305 0.55785 1.23744 1.11531 0.634552 0.401235 0.364812 0.31435 0.189839 0.215253 0.184678 0.181155 0.17739 0.183218 0.157368 0.130063 0.125141 0.107757 0.0819917 0.0703817 0.0471869 0.0280928 0.0307289 0.00923141 0.00399154 0.00149854 0.000929336 0.000395797
threshold=2.5000000000000004 1.0000000180025095e-35 9.5000000000000018 1.0000000180025095e-35 4.5000000000000009 5.5000000000000009 1.5000000000000002 7.5000000000000009 1.5000000000000002 4.5000000000000009 1.0000000180025095e-35 202102.50000000003 1.0000000180025095e-35 220.50000000000003 3.5000000000000004 6.5000000000000009 773.50000000000011 3.5000000000000004 4.5000000000000009 7.5000000000000009 2.5000000000000004 -486.49999999999994 3.5000000000000004 5.5000000000000009 7.5000000000000009 3.5000000000000004 7.5000000000000009 4.5000000000000009 13.500000000000002 3.5000000000000004 4.5000000000000009 1031418962.5000001 8.5000000000000018 4.5000000000000009 1.0000000180025095e-35 1.5000000000000002 4.5000000000000009 2.5000000000000004 2.5000000000000004 9.5000000000000018 6.5000000000000009 1.0000000180025095e-35 1580.5000000000002 5.5000000000000009 -941.99999999999989
decision_type=2 8 10 2 2 2 2 2 10 10 2 10 10 10 2 10 10 10 8 2 10 8 2 10 10 8 10 2 8 10 10 10 8 8 10 10 10 2 2 2 10 10 10 2 10
left_child=1 2 4 -2 -1 7 11 9 -8 16 12 -7 14 -3 -5 -11 -6 -14 19 20 -12 23 -19 -22 33 26 29 31 36 -20 -31 -15 34 -24 -27 -36 -21 -37 -39 40 -40 42 -42 44 -44
right_child=3 13 -4 10 5 6 8 -9 -10 15 18 -13 17 27 -16 -17 -18 22 25 28 21 -23 24 -25 -26 32 -28 -29 -30 30 -32 -33 -34 -35 35 37 -38 38 39 -41 41 -43 43 -45 -46
leaf_value=0.00029580502696391993 0.0043444493943689015 0.0014849311852980112 -0.0014221094627943091 0.0031934869220250333 0.0022616751110486819 0.0096554533219552954 0.0042996874681345007 0.010988910417622517 -0.00088276885355571648 0.011146631293751687 0.0021166924306307276 0.004215190241173776 0.00026943503408351173 -0.0023676102681346014 -0.00059871871639357449 0.0066579234698206508 0.0064286890724816513 -0.0005996461231737144 -0.0032719037062505191 -0.0037790143220770523 -0.00083723502666844434 0.00038268030932462986 -0.0022369338804183042 -0.0029503902415047465 -0.0011397479931669911 -0.0015171425192591936 -0.00087574315988452273 -0.0015540451079424174 -0.0018627664594301338 -0.0011849275796385278 -0.0025689758531649842 -0.0039430028232499432 -0.003475444015604145 -0.0035250947144328314 -0.0018027233659446032 -0.0020548657340867475 -0.0027813864501628192 -0.0022454726882136919 -0.0029750611375296597 -0.002271575387791094 -0.002847887104342793 -0.0025828267115613475 -0.002672409863375086 -0.0027906090677980782 -0.0027450486254098367
leaf_weight=462.0022931098938 431.00298404693604 338.00116157531738 345.00128173828125 530.00298404693604 342.00285387039185 430.00544738769531 562.00486660003662 568.00686931610107 410.00179243087769 338.00396537780762 364.00132179260254 364.00354480743408 558.00159215927124 414.00030040740967 663.00162220001221 504.00544738769531 389.00392532348633 492.00110149383545 347.00014019012451 377.00005006790161 425.00112152099609 477.00120162963867 387.00046062469482 548.00060081481934 394.00064086914062 352.00060081481934 474.00044059753418 340.00041055679321 429.0004506111145 565.00051069259644 556.00016021728516 337.0001802444458 375.00008010864258 515.00044059753418 447.00017023086548 457.00019025802612 460.00026035308838 468.00011014938354 482.00001001358032 437.0000901222229 383.00004005432129 521.00004005432129 639.00002002716064 462.00001001358032 335.00001001358032
leaf_count=462 431 338 345 530 342 430 562 568 410 338 364 364 558 414 663 504 389 492 347 377 425 477 387 548 394 352 474 340 429 565 556 337 375 515 447 457 460 468 482 437 383 521 639 462 335
internal_value=0 0.00353092 0.0050967 -0.00151154 0.00561146 0.00624003 0.00438317 0.00777166 0.00211368 0.00660993 -0.00169287 0.00716143 -0.000559269 -0.00163432 0.001086 0.0084598 0.00447914 -0.00139593 -0.00207937 -0.00146846 -0.000562084 -0.00123455 -0.00191566 -0.00202738 -0.00241526 -0.00233712 -0.00187862 -0.00260069 -0.00276718 -0.00220244 -0.0018714 -0.00307454 -0.0025033 -0.00297241 -0.00243014 -0.00249953 -0.00323074 -0.00257398 -0.00263763 -0.00269395 -0.00275935 -0.00271492 -0.00275276 -0.00272738 -0.00269739
internal_weight=0 6143.04 4714.04 14350 4369.04 3907.04 1766.02 2141.02 972.007 1573.02 13919 794.009 3539.01 1429 1193 842.009 731.007 2346 10380 3080.01 1814 1450 1788 973.002 1296 7300 1942 1091 1266 1468 1121 751 5358 902.001 4983 4631 837 4184 3727 3259 2822 2340 1819 1436 974
internal_count=20493 6143 4714 14350 4369 3907 1766 2141 972 1573 13919 794 3539 1429 1193 842 731 2346 10380 3080 1814 1450 1788 973 1296 7300 1942 1091 1266 1468 1121 751 5358 902 4983 4631 837 4184 3727 3259 2822 2340 1819 1436 974
is_linear=0
shrinkage=0.0541285


Tree=15
num_leaves=48
num_cat=0
split_feature=254 349 81 117 81 385 77 431 185 377 427 330 86 408 348 268 91 405 126 436 186 451 186 109 483 383 396 364 449 330 397 86 141 310 109 471 27 106 360 394 81 354 440 308 337 366 52
split_gain=37.3949 8.43968 4.38735 4.43944 3.98866 3.74694 3.45349 3.33619 3.10729 2.03286 1.97875 1.9481 1.40171 1.25736 1.24221 1.00036 1.19678 1.17046 0.760648 0.62038 0.683737 0.544349 0.491149 0.570678 0.301335 0.237749 0.274698 0.235071 0.704644 0.881501 0.0812322 0.0772717 0.257573 0.0595062 0.0717771 0.189766 0.0460857 0.0933332 0.0442256 0.04113 0.0238954 0.0151394 0.0126903 0.00524702 0.00399359 0.00145707 0.000693048
threshold=40.500000000000007 1.5000000000000002 4.5000000000000009 7.5000000000000009 4.5000000000000009 2.5000000000000004 3.5000000000000004 1.5000000000000002 1.0000000180025095e-35 5.5000000000000009 2.5000000000000004 4.5000000000000009 5.5000000000000009 6.5000000000000009 1.5000000000000002 -1643.4999999999998 5.5000000000000009 3.5000000000000004 202101.50000000003 7.5000000000000009 1.0000000180025095e-35 1.5000000000000002 1.0000000180025095e-35 5.5000000000000009 1.5000000000000002 8.5000000000000018 7.5000000000000009 5.5000000000000009 6.5000000000000009 5.5000000000000009 6.5000000000000009 8.5000000000000018 69.500000000000014 1.5000000000000002 2.5000000000000004 5.5000000000000009 5.5000000000000009 5.5000000000000009 4.5000000000000009 1.5000000000000002 9.5000000000000018 2.5000000000000004 4.5000000000000009 5.5000000000000009 4.5000000000000009 6.5000000000000009 2111.5000000000005
decision_type=8 10 2 2 2 10 2 10 10 10 10 10 2 8 10 8 2 10 8 10 10 8 8 2 8 10 10 8 8 8 10 2 8 8 2 10 2 2 10 10 2 8 10 10 10 10 10
left_child=1 6 3 -3 5 13 11 -8 18 -9 -7 -1 -10 -2 -13 -12 17 -17 -5 20 -19 24 23 -18 -6 -24 -27 28 29 -23 -30 33 -33 34 35 -29 39 -38 -34 -36 41 -41 -35 -43 -40 -45 -47
right_child=4 2 -4 8 21 10 7 9 12 -11 15 14 -14 -15 -16 16 22 19 -20 -21 -22 27 25 -25 -26 26 -28 31 30 -31 -32 32 38 42 36 -37 37 -39 44 40 -42 43 -44 45 -46 46 -48
leaf_value=0.0066663412349371549 0.0011752244677479804 -0.0011431351796667791 -0.0023590409922673154 0.0090288174692280121 -0.0016994285874485932 0.0024230640890855501 0.012067836197420433 0.0038867062230328606 -6.6701781820393334e-05 0.0087981895492096375 -0.0037098177144743623 -7.4269871847109322e-05 0.0046392389316456143 0.005468737213076582 0.0043353553631084027 0.0022100728927395216 0.00096128993558006789 0.0018815112947869928 0.0054301823237075898 -0.0025864575200241942 -0.0011832254820318586 0.0016431574367967723 -0.0033406722795419315 -0.001854522086425709 0.00060157862807124038 -0.0028363042884321323 -0.00094809698954621921 -0.0026168960719587706 -0.0033575020363328391 -0.0021084552257202814 -0.0021785774293057586 -0.00077467176573070074 -0.0018603329463166023 -0.0030474306769210182 -0.0019232132045695683 -0.00097645672909459286 -0.0014233655780717819 -0.0025104967437595696 -0.0024833397523296862 -0.0022816337449609769 -0.0022256795048602816 -0.0028290404902376488 -0.0026125751696185365 -0.0027198564008992588 -0.0027366014817074621 -0.0026415564006538684 -0.0025589690689095204
leaf_weight=496.00528717041016 424.00203275680542 556.0020227432251 588.00105142593384 334.00327444076538 333.00049066543579 506.00285387039185 408.00572776794434 513.00493669509888 397.00241327285767 476.00535726547241 406.00044059753418 348.00324440002441 348.00246334075928 378.00231313705444 405.00389528274536 555.00206279754639 352.00114154815674 350.00170230865479 355.00307416915894 384.0006308555603 546.00113153457642 345.00094127655029 477.00029039382935 526.00088119506836 334.00069093704224 431.00029039382935 474.00053071975708 432.00011014938354 340.00024032592773 392.0004506111145 345.00029039382935 412.00034046173096 344.00014019012451 336.00002002716064 349.00012016296387 396.0002703666687 401.00023031234741 547.00005006790161 381.00003004074097 335.00008010864258 558.00012016296387 488.00003004074097 474.00003004074097 369 350.00003004074097 550.00003004074097 649.00001001358032
leaf_count=496 424 556 588 334 333 506 408 513 397 476 406 348 348 378 405 555 352 350 355 384 546 345 477 526 334 431 474 432 340 392 345 412 344 336 349 396 401 547 381 335 558 488 474 369 350 550 649
internal_value=0 0.00395304 0.00174889 0.00296269 -0.00135247 -0.000236045 0.00610052 0.00794954 0.00455462 0.00625058 -0.000786233 0.00403241 0.00213151 0.00319885 0.00229744 -0.00114702 -0.000892933 0.000133996 0.00717466 -0.000766179 1.39394e-05 -0.00203802 -0.00172675 -0.000725631 -0.0005472 -0.00236277 -0.00184734 -0.0021511 -0.00151391 -0.000352271 -0.00276374 -0.00227403 -0.00192541 -0.00236213 -0.00229336 -0.00183234 -0.00238326 -0.00205064 -0.00236643 -0.00247887 -0.00254463 -0.00261906 -0.00279296 -0.00267404 -0.0026046 -0.0026258 -0.00259685
internal_weight=0 5224.04 2578.01 1990.01 15269 5809.02 2646.03 1397.02 1434.01 989.01 5007.01 1249.01 745.005 802.004 753.007 4501.01 4095.01 1835.01 689.006 1280 896.003 9460 2260 878.002 667.001 1382 905.001 8793 1422 737.001 685.001 7371 1487 5884 5074 828 4246 948 1075 3298 2949 2391 810 2056 731 1568 1199
internal_count=20493 5224 2578 1990 15269 5809 2646 1397 1434 989 5007 1249 745 802 753 4501 4095 1835 689 1280 896 9460 2260 878 667 1382 905 8793 1422 737 685 7371 1487 5884 5074 828 4246 948 1075 3298 2949 2391 810 2056 731 1568 1199
is_linear=0
shrinkage=0.0541285


Tree=16
num_leaves=48
num_cat=0
split_feature=253 76 477 92 254 61 69 364 340 73 310 73 418 391 406 377 407 269 268 450 78 367 382 332 79 419 397 17 447 108 367 109 436 269 344 268 300 429 340 26 364 160 465 366 6 359 6
split_gain=35.8966 9.2648 5.05419 3.88358 3.89238 3.61589 2.28619 1.99767 2.64401 1.91944 1.91313 1.91864 1.74086 2.07927 1.66537 1.2109 1.29838 1.14529 0.858325 0.843404 0.954357 0.727374 0.543038 0.557205 0.442078 0.332961 0.223219 0.306409 0.188228 0.166267 0.23281 0.139903 0.0615405 0.0878146 0.14468 0.0863276 0.0769302 0.0533683 0.0816951 0.0314664 0.0247147 0.00941804 0.00888128 0.00691615 0.0066659 0.00605397 0.00462024
